{"learner":{"attributes":{"scikit_learn":"{\"_estimator_type\": \"regressor\"}"},"feature_names":[],"feature_types":[],"gradient_booster":{"model":{"cats":{"enc":[],"feature_segments":[],"sorted_idx":[]},"gbtree_model_param":{"num_parallel_tree":"1","num_trees":"200"},"iteration_indptr":[0,1,2,3,4,5,6,7,8,9,10,11,12,13,14,15,16,17,18,19,20,21,22,23,24,25,26,27,28,29,30,31,32,33,34,35,36,37,38,39,40,41,42,43,44,45,46,47,48,49,50,51,52,53,54,55,56,57,58,59,60,61,62,63,64,65,66,67,68,69,70,71,72,73,74,75,76,77,78,79,80,81,82,83,84,85,86,87,88,89,90,91,92,93,94,95,96,97,98,99,100,101,102,103,104,105,106,107,108,109,110,111,112,113,114,115,116,117,118,119,120,121,122,123,124,125,126,127,128,129,130,131,132,133,134,135,136,137,138,139,140,141,142,143,144,145,146,147,148,149,150,151,152,153,154,155,156,157,158,159,160,161,162,163,164,165,166,167,168,169,170,171,172,173,174,175,176,177,178,179,180,181,182,183,184,185,186,187,188,189,190,191,192,193,194,195,196,197,198,199,200],"tree_info":[0,0,0,0,0,0,0,0,0,0,0,0,0,0,0,0,0,0,0,0,0,0,0,0,0,0,0,0,0,0,0,0,0,0,0,0,0,0,0,0,0,0,0,0,0,0,0,0,0,0,0,0,0,0,0,0,0,0,0,0,0,0,0,0,0,0,0,0,0,0,0,0,0,0,0,0,0,0,0,0,0,0,0,0,0,0,0,0,0,0,0,0,0,0,0,0,0,0,0,0,0,0,0,0,0,0,0,0,0,0,0,0,0,0,0,0,0,0,0,0,0,0,0,0,0,0,0,0,0,0,0,0,0,0,0,0,0,0,0,0,0,0,0,0,0,0,0,0,0,0,0,0,0,0,0,0,0,0,0,0,0,0,0,0,0,0,0,0,0,0,0,0,0,0,0,0,0,0,0,0,0,0,0,0,0,0,0,0,0,0,0,0,0,0,0,0,0,0,0,0],"trees":[{"base_weights":[7.0478536E-2,-8.99055E-1,3.935731E0,-2.0150342E0,8.1815496E-2,2.6873538E0,5.942599E0,-2.4426835E0,-1.419388E0,-3.7027794E-1,8.1448823E-1,1.8524863E0,3.1852288E0,2.6081052E-1,3.7151846E-1,-1.4150779E-1,-1.0853424E-1,-7.8939326E-2,-5.759513E-2,-3.281129E-2,-3.0305486E-3,2.0396534E-2,5.4546453E-2,4.467958E-2,9.537861E-2,1.3611574E-1,1.8085238E-1],"categories":[],"categories_nodes":[],"categories_segments":[],"categories_sizes":[],"default_left":[0,0,0,0,0,0,0,0,0,0,0,0,0,0,0,0,0,0,0,0,0,0,0,0,0,0,0],"id":0,"left_children":[1,3,5,7,9,11,13,15,17,19,21,23,25,-1,-1,-1,-1,-1,-1,-1,-1,-1,-1,-1,-1,-1,-1],"loss_changes":[2.9153394E3,6.810253E2,3.7486133E2,7.065869E1,1.1027211E2,3.4833984E1,2.5002686E1,1.1562439E1,3.468338E0,1.820124E1,1.3828392E1,3.554535E-1,2.1469727E0,0E0,0E0,0E0,0E0,0E0,0E0,0E0,0E0,0E0,0E0,0E0,0E0,0E0,0E0],"parents":[2147483647,0,0,1,1,2,2,3,3,4,4,5,5,6,6,7,7,8,8,9,9,10,10,11,11,12,12],"right_children":[2,4,6,8,10,12,14,16,18,20,22,24,26,-1,-1,-1,-1,-1,-1,-1,-1,-1,-1,-1,-1,-1,-1],"split_conditions":[5.279394E0,2.6825736E0,8.099048E0,1.8376714E0,3.9398785E0,6.0954905E0,1.0405657E1,1.2220501E0,2.3492215E0,3.3440716E0,4.353183E0,4.6507916E0,6.4916587E0,2.6081052E-1,3.7151846E-1,-1.4150779E-1,-1.0853424E-1,-7.8939326E-2,-5.759513E-2,-3.281129E-2,-3.0305486E-3,2.0396534E-2,5.4546453E-2,4.467958E-2,9.537861E-2,1.3611574E-1,1.8085238E-1],"split_indices":[23,23,22,23,23,22,22,22,22,23,22,27,8,0,0,0,0,0,0,0,0,0,0,0,0,0,0],"split_type":[0,0,0,0,0,0,0,0,0,0,0,0,0,0,0,0,0,0,0,0,0,0,0,0,0,0,0],"sum_hessian":[7.76E2,6.21E2,1.55E2,2.9E2,3.31E2,9.7E1,5.8E1,1.67E2,1.23E2,2.05E2,1.26E2,3.8E1,5.9E1,4.2E1,1.6E1,6.5E1,1.02E2,7.4E1,4.9E1,1.06E2,9.9E1,5.2E1,7.4E1,3E0,3.5E1,3.2E1,2.7E1],"tree_param":{"num_deleted":"0","num_feature":"60","num_nodes":"27","size_leaf_vector":"1"}},{"base_weights":[6.4335777E-3,-8.7851644E-1,3.7597978E0,-1.7950584E0,2.1014854E-1,2.3571122E0,5.652724E0,-2.343365E0,-1.283492E0,-2.893434E-1,7.409199E-1,8.6058475E-2,1.4552888E-1,2.304555E-1,3.3590433E-1,-1.3858534E-1,-1.0495024E-1,-7.485842E-2,-4.927255E-2,-2.7805418E-2,-1.1136649E-3,2.512799E-2,5.7936937E-2],"categories":[],"categories_nodes":[],"categories_segments":[],"categories_sizes":[],"default_left":[0,0,0,0,0,0,0,0,0,0,0,0,0,0,0,0,0,0,0,0,0,0,0],"id":1,"left_children":[1,3,5,7,9,11,13,15,17,19,21,-1,-1,-1,-1,-1,-1,-1,-1,-1,-1,-1,-1],"loss_changes":[2.5243516E3,6.140287E2,3.7167725E2,9.0677734E1,7.49771E1,2.490805E1,3.6857056E1,1.092926E1,9.669373E0,1.0389375E1,1.3061684E1,0E0,0E0,0E0,0E0,0E0,0E0,0E0,0E0,0E0,0E0,0E0,0E0],"parents":[2147483647,0,0,1,1,2,2,3,3,4,4,5,5,6,6,7,7,8,8,9,9,10,10],"right_children":[2,4,6,8,10,12,14,16,18,20,22,-1,-1,-1,-1,-1,-1,-1,-1,-1,-1,-1,-1],"split_conditions":[5.25E0,2.87E0,7.77E0,1.8E0,3.92E0,6.04E0,9.52E0,1.12E0,2.42E0,3.37E0,4.65E0,8.6058475E-2,1.4552888E-1,2.304555E-1,3.3590433E-1,-1.3858534E-1,-1.0495024E-1,-7.485842E-2,-4.927255E-2,-2.7805418E-2,-1.1136649E-3,2.512799E-2,5.7936937E-2],"split_indices":[12,12,12,12,12,12,12,12,12,12,12,0,0,0,0,0,0,0,0,0,0,0,0],"split_type":[0,0,0,0,0,0,0,0,0,0,0,0,0,0,0,0,0,0,0,0,0,0,0],"sum_hessian":[7.58E2,6.14E2,1.44E2,3.33E2,2.81E2,8.4E1,6E1,1.59E2,1.74E2,1.45E2,1.36E2,4.1E1,4.3E1,3.3E1,2.7E1,5.4E1,1.05E2,9.9E1,7.5E1,7.2E1,7.3E1,8.8E1,4.8E1],"tree_param":{"num_deleted":"0","num_feature":"60","num_nodes":"23","size_leaf_vector":"1"}},{"base_weights":[6.0734574E-2,-9.206584E-1,3.2137308E0,-1.8208437E0,-1.9059647E-3,2.1426651E0,5.48512E0,-2.3459024E0,-1.3566003E0,-4.3793404E-1,4.492752E-1,1.4447058E0,2.7357233E0,2.2427642E-1,3.3125797E-1,-1.3377728E-1,-1.04044996E-1,-7.882625E-2,-5.4316606E-2,-3.2303896E-2,-7.950419E-3,1.2878545E-2,3.6867887E-2,5.4742742E-2,7.900641E-2,1.1272557E-1,1.5218174E-1],"categories":[],"categories_nodes":[],"categories_segments":[],"categories_sizes":[],"default_left":[0,0,0,0,0,0,0,0,0,0,0,0,0,0,0,0,0,0,0,0,0,0,0,0,0,0,0],"id":2,"left_children":[1,3,5,7,9,11,13,15,17,19,21,23,25,-1,-1,-1,-1,-1,-1,-1,-1,-1,-1,-1,-1,-1,-1],"loss_changes":[2.3855916E3,4.8630045E2,4.334508E2,6.921277E1,5.7641228E1,4.820288E1,3.6377808E1,6.487671E0,7.7975464E0,8.547714E0,7.7627163E0,1.1126633E0,3.0655518E0,0E0,0E0,0E0,0E0,0E0,0E0,0E0,0E0,0E0,0E0,0E0,0E0,0E0,0E0],"parents":[2147483647,0,0,1,1,2,2,3,3,4,4,5,5,6,6,7,7,8,8,9,9,10,10,11,11,12,12],"right_children":[2,4,6,8,10,12,14,16,18,20,22,24,26,-1,-1,-1,-1,-1,-1,-1,-1,-1,-1,-1,-1,-1,-1],"split_conditions":[4.93E0,2.72E0,8E0,1.63E0,3.68E0,5.89E0,9.91E0,1.03E0,2.21E0,3.25E0,4.31E0,5.0073605E0,6.58E0,2.2427642E-1,3.3125797E-1,-1.3377728E-1,-1.04044996E-1,-7.882625E-2,-5.4316606E-2,-3.2303896E-2,-7.950419E-3,1.2878545E-2,3.6867887E-2,5.4742742E-2,7.900641E-2,1.1272557E-1,1.5218174E-1],"split_indices":[12,12,12,12,12,12,12,12,12,12,12,23,12,0,0,0,0,0,0,0,0,0,0,0,0,0,0],"split_type":[0,0,0,0,0,0,0,0,0,0,0,0,0,0,0,0,0,0,0,0,0,0,0,0,0,0,0],"sum_hessian":[7.69E2,5.87E2,1.82E2,2.96E2,2.91E2,1.25E2,5.7E1,1.37E2,1.59E2,1.48E2,1.43E2,5.9E1,6.6E1,3.3E1,2.4E1,5.7E1,8E1,8.5E1,7.4E1,8.4E1,6.4E1,8.7E1,5.6E1,1.9E1,4E1,2.9E1,3.7E1],"tree_param":{"num_deleted":"0","num_feature":"60","num_nodes":"27","size_leaf_vector":"1"}},{"base_weights":[1.6766803E-3,-8.886208E-1,2.99228E0,-1.7643722E0,-5.2124627E-2,1.9921075E0,5.0789886E0,-2.2438934E0,-1.387907E0,-5.455135E-1,3.5264257E-1,1.344842E0,2.5589356E0,2.088679E-1,2.9797384E-1,-1.2710992E-1,-1.0047127E-1,-7.995701E-2,-5.8521647E-2,-3.5282757E-2,-1.5878072E-2,5.813034E-3,3.320589E-2,3.7080076E-2,6.9906764E-2,1.04206406E-1,1.3930199E-1],"categories":[],"categories_nodes":[],"categories_segments":[],"categories_sizes":[],"default_left":[0,0,0,0,0,0,0,0,0,0,0,0,0,0,0,0,0,0,0,0,0,0,0,0,0,0,0],"id":3,"left_children":[1,3,5,7,9,11,13,15,17,19,21,23,25,-1,-1,-1,-1,-1,-1,-1,-1,-1,-1,-1,-1,-1,-1],"loss_changes":[2.1007297E3,4.4530618E2,3.6764136E2,5.0501038E1,6.2501152E1,4.2052795E1,2.1149902E1,3.9143066E0,5.891754E0,4.9230614E0,1.2586651E1,8.920593E-1,1.2025452E0,0E0,0E0,0E0,0E0,0E0,0E0,0E0,0E0,0E0,0E0,0E0,0E0,0E0,0E0],"parents":[2147483647,0,0,1,1,2,2,3,3,4,4,5,5,6,6,7,7,8,8,9,9,10,10,11,11,12,12],"right_children":[2,4,6,8,10,12,14,16,18,20,22,24,26,-1,-1,-1,-1,-1,-1,-1,-1,-1,-1,-1,-1,-1,-1],"split_conditions":[4.96E0,2.64E0,8E0,1.57E0,3.55E0,5.89E0,9.52E0,1E0,2.06E0,3.1E0,4.19E0,4.4907303E0,6.45E0,2.088679E-1,2.9797384E-1,-1.2710992E-1,-1.0047127E-1,-7.995701E-2,-5.8521647E-2,-3.5282757E-2,-1.5878072E-2,5.813034E-3,3.320589E-2,3.7080076E-2,6.9906764E-2,1.04206406E-1,1.3930199E-1],"split_indices":[12,12,12,12,12,12,12,12,12,12,12,23,12,0,0,0,0,0,0,0,0,0,0,0,0,0,0],"split_type":[0,0,0,0,0,0,0,0,0,0,0,0,0,0,0,0,0,0,0,0,0,0,0,0,0,0,0],"sum_hessian":[7.87E2,6.07E2,1.8E2,2.96E2,3.11E2,1.23E2,5.7E1,1.28E2,1.68E2,1.4E2,1.71E2,5.9E1,6.4E1,3.1E1,2.6E1,5.2E1,7.6E1,8.2E1,8.6E1,8.1E1,5.9E1,9.8E1,7.3E1,6E0,5.3E1,2.4E1,4E1],"tree_param":{"num_deleted":"0","num_feature":"60","num_nodes":"27","size_leaf_vector":"1"}},{"base_weights":[-1.4428924E-2,-9.116427E-1,2.5735867E0,-1.7284001E0,-1.4938271E-1,1.6496316E0,4.7380624E0,-2.1351304E0,-1.3646646E0,-6.097296E-1,2.3562683E-1,1.161146E0,1.1448675E-1,1.9402221E-1,2.874603E-1,-1.1956518E-1,-9.562083E-2,-7.7657886E-2,-5.8899254E-2,-3.827756E-2,-2.1387339E-2,5.689067E-4,2.5258882E-2,4.5008864E-2,6.5926485E-2],"categories":[],"categories_nodes":[],"categories_segments":[],"categories_sizes":[],"default_left":[0,0,0,0,0,0,0,0,0,0,0,0,0,0,0,0,0,0,0,0,0,0,0,0,0],"id":4,"left_children":[1,3,5,7,9,11,13,15,17,19,21,23,-1,-1,-1,-1,-1,-1,-1,-1,-1,-1,-1,-1,-1],"loss_changes":[1.7949325E3,3.5710358E2,3.901598E2,3.8066223E1,5.2960575E1,4.142935E1,2.8853882E1,2.7866821E0,3.413391E0,3.5290718E0,9.847017E0,2.1810074E0,0E0,0E0,0E0,0E0,0E0,0E0,0E0,0E0,0E0,0E0,0E0,0E0,0E0],"parents":[2147483647,0,0,1,1,2,2,3,3,4,4,5,5,6,6,7,7,8,8,9,9,10,10,11,11],"right_children":[2,4,6,8,10,12,14,16,18,20,22,24,-1,-1,-1,-1,-1,-1,-1,-1,-1,-1,-1,-1,-1],"split_conditions":[4.65E0,2.54E0,7.57E0,1.55E0,3.45E0,5.76E0,9.52E0,1.1E0,1.99E0,2.95E0,4.05E0,4.924296E0,1.1448675E-1,1.9402221E-1,2.874603E-1,-1.1956518E-1,-9.562083E-2,-7.7657886E-2,-5.8899254E-2,-3.827756E-2,-2.1387339E-2,5.689067E-4,2.5258882E-2,4.5008864E-2,6.5926485E-2],"split_indices":[12,12,12,12,12,12,12,12,12,12,12,22,0,0,0,0,0,0,0,0,0,0,0,0,0],"split_type":[0,0,0,0,0,0,0,0,0,0,0,0,0,0,0,0,0,0,0,0,0,0,0,0,0],"sum_hessian":[7.71E2,5.73E2,1.98E2,2.76E2,2.97E2,1.4E2,5.8E1,1.28E2,1.48E2,1.35E2,1.62E2,8.1E1,5.9E1,3.4E1,2.4E1,5.5E1,7.3E1,7E1,7.8E1,7.1E1,6.4E1,8.9E1,7.3E1,3.3E1,4.8E1],"tree_param":{"num_deleted":"0","num_feature":"60","num_nodes":"25","size_leaf_vector":"1"}},{"base_weights":[3.5745192E-3,-8.021974E-1,2.6604247E0,-1.5325863E0,9.033769E-3,1.7942793E0,4.728402E0,-1.9526579E0,-1.1573344E0,-3.3929592E-1,4.3440565E-1,1.2045364E0,2.2994153E0,1.930982E-1,2.8641495E-1,-1.0985806E-1,-8.5562654E-2,-6.608284E-2,-4.635943E-2,-2.6494825E-2,-4.6455376E-3,1.4301053E-2,3.7101485E-2,3.3365037E-2,6.246903E-2,9.2726074E-2,1.2678196E-1],"categories":[],"categories_nodes":[],"categories_segments":[],"categories_sizes":[],"default_left":[0,0,0,0,0,0,0,0,0,0,0,0,0,0,0,0,0,0,0,0,0,0,0,0,0,0,0],"id":5,"left_children":[1,3,5,7,9,11,13,15,17,19,21,23,25,-1,-1,-1,-1,-1,-1,-1,-1,-1,-1,-1,-1,-1,-1],"loss_changes":[1.7019417E3,3.6144757E2,3.2288208E2,4.834015E1,4.3116592E1,3.655313E1,2.46604E1,5.093811E0,5.2792816E0,7.464552E0,5.767479E0,6.8408203E-1,2.6542053E0,0E0,0E0,0E0,0E0,0E0,0E0,0E0,0E0,0E0,0E0,0E0,0E0,0E0,0E0],"parents":[2147483647,0,0,1,1,2,2,3,3,4,4,5,5,6,6,7,7,8,8,9,9,10,10,11,11,12,12],"right_children":[2,4,6,8,10,12,14,16,18,20,22,24,26,-1,-1,-1,-1,-1,-1,-1,-1,-1,-1,-1,-1,-1,-1],"split_conditions":[4.93E0,2.72E0,8.099048E0,1.74E0,3.79E0,5.76E0,9.91E0,1.22E0,2.24E0,3.32E0,4.5185113E0,4.4907303E0,6.37E0,1.930982E-1,2.8641495E-1,-1.0985806E-1,-8.5562654E-2,-6.608284E-2,-4.635943E-2,-2.6494825E-2,-4.6455376E-3,1.4301053E-2,3.7101485E-2,3.3365037E-2,6.246903E-2,9.2726074E-2,1.2678196E-1],"split_indices":[12,12,22,12,12,12,12,12,12,12,22,23,12,0,0,0,0,0,0,0,0,0,0,0,0,0,0],"split_type":[0,0,0,0,0,0,0,0,0,0,0,0,0,0,0,0,0,0,0,0,0,0,0,0,0,0,0],"sum_hessian":[7.93E2,6.09E2,1.84E2,3.2E2,2.89E2,1.31E2,5.3E1,1.49E2,1.71E2,1.59E2,1.3E2,6.2E1,6.9E1,3.1E1,2.2E1,7E1,7.9E1,9.7E1,7.4E1,8.9E1,7E1,8.9E1,4.1E1,6E0,5.6E1,2.7E1,4.2E1],"tree_param":{"num_deleted":"0","num_feature":"60","num_nodes":"27","size_leaf_vector":"1"}},{"base_weights":[1.5965352E-2,-6.984981E-1,2.8829942E0,-1.515759E0,4.77688E-2,1.9411111E0,4.5430903E0,-1.9443531E0,-1.1847104E0,-3.406422E-1,5.2364415E-1,1.4463643E0,1.2132671E-1,1.869767E-1,2.7492473E-1,-1.1029835E-1,-8.6358525E-2,-6.672311E-2,-4.590864E-2,-2.5540173E-2,-3.0983863E-3,1.5066661E-2,4.018859E-2,5.4726165E-2,8.002206E-2],"categories":[],"categories_nodes":[],"categories_segments":[],"categories_sizes":[],"default_left":[0,0,0,0,0,0,0,0,0,0,0,0,0,0,0,0,0,0,0,0,0,0,0,0,0],"id":6,"left_children":[1,3,5,7,9,11,13,15,17,19,21,23,-1,-1,-1,-1,-1,-1,-1,-1,-1,-1,-1,-1,-1],"loss_changes":[1.5813203E3,3.7698737E2,2.3197827E2,3.9552734E1,6.006499E1,2.050647E1,2.1662842E1,3.4057922E0,5.520279E0,8.456453E0,8.850006E0,1.0672302E0,0E0,0E0,0E0,0E0,0E0,0E0,0E0,0E0,0E0,0E0,0E0,0E0,0E0],"parents":[2147483647,0,0,1,1,2,2,3,3,4,4,5,5,6,6,7,7,8,8,9,9,10,10,11,11],"right_children":[2,4,6,8,10,12,14,16,18,20,22,24,-1,-1,-1,-1,-1,-1,-1,-1,-1,-1,-1,-1,-1],"split_conditions":[5.25E0,2.67E0,8.099048E0,1.55E0,3.83E0,6.23E0,9.91E0,1.0146564E0,2.19E0,3.37E0,4.43E0,5.430473E0,1.2132671E-1,1.869767E-1,2.7492473E-1,-1.1029835E-1,-8.6358525E-2,-6.672311E-2,-4.590864E-2,-2.5540173E-2,-3.0983863E-3,1.5066661E-2,4.018859E-2,5.4726165E-2,8.002206E-2],"split_indices":[12,12,22,12,12,12,12,23,12,12,12,22,0,0,0,0,0,0,0,0,0,0,0,0,0],"split_type":[0,0,0,0,0,0,0,0,0,0,0,0,0,0,0,0,0,0,0,0,0,0,0,0,0],"sum_hessian":[7.7E2,6.17E2,1.53E2,2.94E2,3.23E2,9.9E1,5.4E1,1.26E2,1.68E2,1.78E2,1.45E2,5.1E1,4.8E1,3.2E1,2.2E1,5.3E1,7.3E1,1.05E2,6.3E1,1.1E2,6.8E1,8.2E1,6.3E1,1.8E1,3.3E1],"tree_param":{"num_deleted":"0","num_feature":"60","num_nodes":"25","size_leaf_vector":"1"}},{"base_weights":[7.967848E-2,-7.3014545E-1,2.4110827E0,-1.3946179E0,1.5483069E-2,1.5540665E0,4.1945686E0,-1.8109632E0,-1.0492753E0,-2.9235125E-1,3.93841E-1,1.0622854E0,2.0161977E0,1.7448285E-1,2.5453034E-1,-1.0091243E-1,-7.9021804E-2,-5.993232E-2,-4.0310692E-2,-2.6913196E-2,-8.567528E-3,1.3364509E-2,3.1866837E-2,4.1519877E-2,5.8117636E-2,8.4768474E-2,1.13159835E-1],"categories":[],"categories_nodes":[],"categories_segments":[],"categories_sizes":[],"default_left":[0,0,0,0,0,0,0,0,0,0,0,0,0,0,0,0,0,0,0,0,0,0,0,0,0,0,0],"id":7,"left_children":[1,3,5,7,9,11,13,15,17,19,21,23,25,-1,-1,-1,-1,-1,-1,-1,-1,-1,-1,-1,-1,-1,-1],"loss_changes":[1.4574292E3,2.8391418E2,2.976482E2,4.166571E1,3.167893E1,2.8766571E1,2.2659668E1,3.309021E0,5.133087E0,4.371109E0,3.5890274E0,6.126785E-1,1.6308899E0,0E0,0E0,0E0,0E0,0E0,0E0,0E0,0E0,0E0,0E0,0E0,0E0,0E0,0E0],"parents":[2147483647,0,0,1,1,2,2,3,3,4,4,5,5,6,6,7,7,8,8,9,9,10,10,11,11,12,12],"right_children":[2,4,6,8,10,12,14,16,18,20,22,24,26,-1,-1,-1,-1,-1,-1,-1,-1,-1,-1,-1,-1,-1,-1],"split_conditions":[4.93E0,2.8141305E0,7.77E0,1.67E0,3.79E0,5.76E0,9.91E0,1.1038721E0,2.32E0,3.1E0,4.5185113E0,5.0073605E0,6.45E0,1.7448285E-1,2.5453034E-1,-1.0091243E-1,-7.9021804E-2,-5.993232E-2,-4.0310692E-2,-2.6913196E-2,-8.567528E-3,1.3364509E-2,3.1866837E-2,4.1519877E-2,5.8117636E-2,8.4768474E-2,1.13159835E-1],"split_indices":[12,22,12,12,12,12,12,22,12,12,22,23,12,0,0,0,0,0,0,0,0,0,0,0,0,0,0],"split_type":[0,0,0,0,0,0,0,0,0,0,0,0,0,0,0,0,0,0,0,0,0,0,0,0,0,0,0],"sum_hessian":[7.7E2,5.72E2,1.98E2,3.02E2,2.7E2,1.35E2,6.3E1,1.35E2,1.67E2,1.49E2,1.21E2,6.7E1,6.8E1,3.8E1,2.5E1,6.7E1,6.8E1,1.01E2,6.6E1,4.8E1,1.01E2,8.1E1,4E1,2.3E1,4.4E1,3.3E1,3.5E1],"tree_param":{"num_deleted":"0","num_feature":"60","num_nodes":"27","size_leaf_vector":"1"}},{"base_weights":[-3.9042328E-2,-7.463295E-1,2.108809E0,-1.4199708E0,-1.2341533E-1,1.2824386E0,3.7036796E0,-1.7676384E0,-1.1363354E0,-4.4607607E-1,2.4297944E-1,9.6345735E-1,8.803901E-2,1.4407212E-1,2.2307836E-1,-1.0392407E-1,-8.1102155E-2,-6.470556E-2,-4.799729E-2,-2.9672453E-2,-1.26808705E-2,6.080202E-3,2.4813984E-2,3.541433E-2,5.567496E-2],"categories":[],"categories_nodes":[],"categories_segments":[],"categories_sizes":[],"default_left":[0,0,0,0,0,0,0,0,0,0,0,0,0,0,0,0,0,0,0,0,0,0,0,0,0],"id":8,"left_children":[1,3,5,7,9,11,13,15,17,19,21,23,-1,-1,-1,-1,-1,-1,-1,-1,-1,-1,-1,-1,-1],"loss_changes":[1.1773942E3,2.4446356E2,2.4829742E2,2.5602478E1,3.604763E1,1.783406E1,2.7649902E1,2.2405396E0,3.1270294E0,4.444332E0,4.3361015E0,2.2359314E0,0E0,0E0,0E0,0E0,0E0,0E0,0E0,0E0,0E0,0E0,0E0,0E0,0E0],"parents":[2147483647,0,0,1,1,2,2,3,3,4,4,5,5,6,6,7,7,8,8,9,9,10,10,11,11],"right_children":[2,4,6,8,10,12,14,16,18,20,22,24,-1,-1,-1,-1,-1,-1,-1,-1,-1,-1,-1,-1,-1],"split_conditions":[4.65E0,2.54E0,7.22E0,1.53E0,3.57E0,5.76E0,9.11E0,8.6E-1,1.99E0,3.07E0,4.2337985E0,4.924296E0,8.803901E-2,1.4407212E-1,2.2307836E-1,-1.0392407E-1,-8.1102155E-2,-6.470556E-2,-4.799729E-2,-2.9672453E-2,-1.26808705E-2,6.080202E-3,2.4813984E-2,3.541433E-2,5.567496E-2],"split_indices":[12,12,12,12,12,12,12,12,12,12,23,22,0,0,0,0,0,0,0,0,0,0,0,0,0],"split_type":[0,0,0,0,0,0,0,0,0,0,0,0,0,0,0,0,0,0,0,0,0,0,0,0,0],"sum_hessian":[7.73E2,5.82E2,1.91E2,2.79E2,3.03E2,1.27E2,6.4E1,1.23E2,1.56E2,1.61E2,1.42E2,7.8E1,4.9E1,3.3E1,3.1E1,3.5E1,8.8E1,7.9E1,7.7E1,9E1,7.1E1,9.7E1,4.5E1,3.1E1,4.7E1],"tree_param":{"num_deleted":"0","num_feature":"60","num_nodes":"25","size_leaf_vector":"1"}},{"base_weights":[5.794764E-3,-5.795106E-1,2.4250185E0,-1.2251824E0,8.704526E-2,1.5889024E0,3.84033E0,-1.5714012E0,-8.712092E-1,-2.1329066E-1,4.952946E-1,1.2298471E0,9.9264465E-2,1.6797188E-1,2.5043488E-1,-8.9299984E-2,-6.7536235E-2,-5.025054E-2,-3.4202956E-2,-1.979758E-2,-5.4644025E-4,1.4347321E-2,3.5958868E-2,4.006223E-2,6.4965285E-2],"categories":[],"categories_nodes":[],"categories_segments":[],"categories_sizes":[],"default_left":[0,0,0,0,0,0,0,0,0,0,0,0,0,0,0,0,0,0,0,0,0,0,0,0,0],"id":9,"left_children":[1,3,5,7,9,11,13,15,17,19,21,23,-1,-1,-1,-1,-1,-1,-1,-1,-1,-1,-1,-1,-1],"loss_changes":[1.0902975E3,2.6693994E2,1.7140271E2,3.7234924E1,3.7624897E1,1.1221573E1,1.4075867E1,5.069977E0,3.2689896E0,6.53823E0,5.8575573E0,5.367584E-1,0E0,0E0,0E0,0E0,0E0,0E0,0E0,0E0,0E0,0E0,0E0,0E0,0E0],"parents":[2147483647,0,0,1,1,2,2,3,3,4,4,5,5,6,6,7,7,8,8,9,9,10,10,11,11],"right_children":[2,4,6,8,10,12,14,16,18,20,22,24,-1,-1,-1,-1,-1,-1,-1,-1,-1,-1,-1,-1,-1],"split_conditions":[5.25E0,2.78E0,8.099048E0,1.8E0,3.8444967E0,6.23E0,1.1037274E1,1.32E0,2.38E0,3.45E0,4.43E0,4.909806E0,9.9264465E-2,1.6797188E-1,2.5043488E-1,-8.9299984E-2,-6.7536235E-2,-5.025054E-2,-3.4202956E-2,-1.979758E-2,-5.4644025E-4,1.4347321E-2,3.5958868E-2,4.006223E-2,6.4965285E-2],"split_indices":[12,12,22,12,23,12,22,12,12,12,12,27,0,0,0,0,0,0,0,0,0,0,0,0,0],"split_type":[0,0,0,0,0,0,0,0,0,0,0,0,0,0,0,0,0,0,0,0,0,0,0,0,0],"sum_hessian":[7.68E2,6.19E2,1.49E2,3.14E2,3.05E2,9.5E1,5.4E1,1.57E2,1.57E2,1.76E2,1.29E2,5.2E1,4.3E1,4.1E1,1.3E1,7.6E1,8.1E1,8.9E1,6.8E1,9.2E1,8.4E1,6.8E1,6.1E1,9E0,4.3E1],"tree_param":{"num_deleted":"0","num_feature":"60","num_nodes":"25","size_leaf_vector":"1"}},{"base_weights":[3.1738296E-2,-5.4445046E-1,2.4304342E0,-1.1840999E0,1.2564628E-1,1.5638016E0,3.6772046E0,-1.519658E0,-8.3921874E-1,-1.5682805E-1,5.551785E-1,5.7259895E-2,9.538882E-2,1.5861937E-1,2.4134374E-1,-9.2072144E-2,-6.832685E-2,-4.843206E-2,-3.2443296E-2,-1.847562E-2,1.2170292E-3,1.6760493E-2,3.6004E-2],"categories":[],"categories_nodes":[],"categories_segments":[],"categories_sizes":[],"default_left":[0,0,0,0,0,0,0,0,0,0,0,0,0,0,0,0,0,0,0,0,0,0,0],"id":10,"left_children":[1,3,5,7,9,11,13,15,17,19,21,-1,-1,-1,-1,-1,-1,-1,-1,-1,-1,-1,-1],"loss_changes":[1.0918014E3,2.731842E2,1.5956488E2,3.6451874E1,3.79426E1,1.1062195E1,2.067041E1,5.564209E0,3.3871384E0,7.2914925E0,4.256489E0,0E0,0E0,0E0,0E0,0E0,0E0,0E0,0E0,0E0,0E0,0E0,0E0],"parents":[2147483647,0,0,1,1,2,2,3,3,4,4,5,5,6,6,7,7,8,8,9,9,10,10],"right_children":[2,4,6,8,10,12,14,16,18,20,22,-1,-1,-1,-1,-1,-1,-1,-1,-1,-1,-1,-1],"split_conditions":[5.350281E0,2.78E0,8E0,1.77E0,4.0412736E0,6.35355E0,1.1037274E1,9.7E-1,2.38E0,3.45E0,4.47E0,5.7259895E-2,9.538882E-2,1.5861937E-1,2.4134374E-1,-9.2072144E-2,-6.832685E-2,-4.843206E-2,-3.2443296E-2,-1.847562E-2,1.2170292E-3,1.6760493E-2,3.6004E-2],"split_indices":[23,12,12,12,23,22,22,12,12,12,12,0,0,0,0,0,0,0,0,0,0,0,0],"split_type":[0,0,0,0,0,0,0,0,0,0,0,0,0,0,0,0,0,0,0,0,0,0,0],"sum_hessian":[7.88E2,6.36E2,1.52E2,3.25E2,3.11E2,9.1E1,6.1E1,1.63E2,1.62E2,1.88E2,1.23E2,4.3E1,4.8E1,4.5E1,1.6E1,4.9E1,1.14E2,9.4E1,6.8E1,8.6E1,1.02E2,5.4E1,6.9E1],"tree_param":{"num_deleted":"0","num_feature":"60","num_nodes":"23","size_leaf_vector":"1"}},{"base_weights":[9.427903E-3,-6.041756E-1,1.983876E0,-1.2361958E0,-3.855712E-2,1.3042917E0,3.5328343E0,-1.5712543E0,-9.989878E-1,-3.206762E-1,3.006691E-1,9.184806E-1,1.7552125E0,1.49653E-1,2.4306288E-1,-9.231978E-2,-7.2327755E-2,-5.674177E-2,-4.1105192E-2,-2.4712235E-2,-8.334356E-3,8.51019E-3,2.612242E-2,3.2638546E-2,4.8953917E-2,7.560072E-2,1.0244916E-1],"categories":[],"categories_nodes":[],"categories_segments":[],"categories_sizes":[],"default_left":[0,0,0,0,0,0,0,0,0,0,0,0,0,0,0,0,0,0,0,0,0,0,0,0,0,0,0],"id":11,"left_children":[1,3,5,7,9,11,13,15,17,19,21,23,25,-1,-1,-1,-1,-1,-1,-1,-1,-1,-1,-1,-1,-1,-1],"loss_changes":[9.1469104E2,2.0586212E2,1.838161E2,2.0048492E1,2.9285585E1,2.0308105E1,2.4170593E1,1.1374817E0,2.9598083E0,4.381134E0,3.932973E0,4.879799E-1,9.7424316E-1,0E0,0E0,0E0,0E0,0E0,0E0,0E0,0E0,0E0,0E0,0E0,0E0,0E0,0E0],"parents":[2147483647,0,0,1,1,2,2,3,3,4,4,5,5,6,6,7,7,8,8,9,9,10,10,11,11,12,12],"right_children":[2,4,6,8,10,12,14,16,18,20,22,24,26,-1,-1,-1,-1,-1,-1,-1,-1,-1,-1,-1,-1,-1,-1],"split_conditions":[4.93E0,2.54E0,8.00978E0,1.46E0,3.68E0,5.89E0,1.053E1,7.9454017E-1,1.99E0,3.07E0,4.4356184E0,4.908104E0,6.83E0,1.49653E-1,2.4306288E-1,-9.231978E-2,-7.2327755E-2,-5.674177E-2,-4.1105192E-2,-2.4712235E-2,-8.334356E-3,8.51019E-3,2.612242E-2,3.2638546E-2,4.8953917E-2,7.560072E-2,1.0244916E-1],"split_indices":[12,12,22,12,12,12,12,22,12,12,22,23,12,0,0,0,0,0,0,0,0,0,0,0,0,0,0],"split_type":[0,0,0,0,0,0,0,0,0,0,0,0,0,0,0,0,0,0,0,0,0,0,0,0,0,0,0],"sum_hessian":[7.53E2,5.75E2,1.78E2,2.71E2,3.04E2,1.25E2,5.3E1,1.1E2,1.61E2,1.66E2,1.38E2,6.9E1,5.6E1,4E1,1.3E1,3E1,8E1,8.8E1,7.3E1,7.7E1,8.9E1,8.8E1,5E1,1.5E1,5.4E1,3.4E1,2.2E1],"tree_param":{"num_deleted":"0","num_feature":"60","num_nodes":"27","size_leaf_vector":"1"}},{"base_weights":[7.7779484E-3,-5.7656723E-1,1.9227364E0,-1.1128181E0,-2.3985539E-2,1.2642771E0,3.4052098E0,-1.4185793E0,-8.631319E-1,-2.4875183E-1,3.0686063E-1,9.20106E-1,8.7811045E-2,1.3773023E-1,2.0508881E-1,-8.325819E-2,-6.453444E-2,-5.0656617E-2,-3.5507064E-2,-1.8920748E-2,-3.2817814E-3,7.5622955E-3,2.2872243E-2,3.9951526E-2,5.7241242E-2],"categories":[],"categories_nodes":[],"categories_segments":[],"categories_sizes":[],"default_left":[0,0,0,0,0,0,0,0,0,0,0,0,0,0,0,0,0,0,0,0,0,0,0,0,0],"id":12,"left_children":[1,3,5,7,9,11,13,15,17,19,21,23,-1,-1,-1,-1,-1,-1,-1,-1,-1,-1,-1,-1,-1],"loss_changes":[8.8063995E2,1.7865573E2,1.7530621E2,2.2136932E1,2.2236525E1,2.0225449E1,1.4079895E1,2.139679E0,3.2047653E0,4.2014904E0,2.766221E0,1.2074738E0,0E0,0E0,0E0,0E0,0E0,0E0,0E0,0E0,0E0,0E0,0E0,0E0,0E0],"parents":[2147483647,0,0,1,1,2,2,3,3,4,4,5,5,6,6,7,7,8,8,9,9,10,10,11,11],"right_children":[2,4,6,8,10,12,14,16,18,20,22,24,-1,-1,-1,-1,-1,-1,-1,-1,-1,-1,-1,-1,-1],"split_conditions":[4.93E0,2.6825736E0,8.13E0,1.5726813E0,3.83E0,6.23E0,9.91E0,9.4E-1,2.06E0,3.32E0,4.2337985E0,5.64E0,8.7811045E-2,1.3773023E-1,2.0508881E-1,-8.325819E-2,-6.453444E-2,-5.0656617E-2,-3.5507064E-2,-1.8920748E-2,-3.2817814E-3,7.5622955E-3,2.2872243E-2,3.9951526E-2,5.7241242E-2],"split_indices":[12,23,12,23,12,12,12,12,12,12,23,12,0,0,0,0,0,0,0,0,0,0,0,0,0],"split_type":[0,0,0,0,0,0,0,0,0,0,0,0,0,0,0,0,0,0,0,0,0,0,0,0,0],"sum_hessian":[7.85E2,6.02E2,1.83E2,3.05E2,2.97E2,1.28E2,5.5E1,1.35E2,1.7E2,1.77E2,1.2E2,7.7E1,5.1E1,3.1E1,2.4E1,4.2E1,9.3E1,8.3E1,8.7E1,1.03E2,7.4E1,6E1,6E1,5.3E1,2.4E1],"tree_param":{"num_deleted":"0","num_feature":"60","num_nodes":"25","size_leaf_vector":"1"}},{"base_weights":[2.1573562E-2,-4.983887E-1,1.9696941E0,-1.022509E0,7.051679E-2,1.4023901E0,3.2878249E0,-1.3775048E0,-7.636877E-1,-1.6371666E-1,4.0289396E-1,9.71207E-1,1.7951874E0,1.4037403E-1,2.1269205E-1,-8.713206E-2,-6.3575156E-2,-4.5416962E-2,-3.0045364E-2,-1.35264E-2,2.826298E-3,1.4109753E-2,2.967755E-2,2.2638595E-2,4.958122E-2,7.5502686E-2,1.0284704E-1],"categories":[],"categories_nodes":[],"categories_segments":[],"categories_sizes":[],"default_left":[0,0,0,0,0,0,0,0,0,0,0,0,0,0,0,0,0,0,0,0,0,0,0,0,0,0,0],"id":13,"left_children":[1,3,5,7,9,11,13,15,17,19,21,23,25,-1,-1,-1,-1,-1,-1,-1,-1,-1,-1,-1,-1,-1,-1],"loss_changes":[7.7892664E2,1.8106427E2,1.16529724E2,2.7982239E1,2.2799286E1,1.773378E1,1.0330444E1,2.8932953E0,3.8102722E0,4.0614886E0,2.6169662E0,1.5436935E-1,1.297348E0,0E0,0E0,0E0,0E0,0E0,0E0,0E0,0E0,0E0,0E0,0E0,0E0,0E0,0E0],"parents":[2147483647,0,0,1,1,2,2,3,3,4,4,5,5,6,6,7,7,8,8,9,9,10,10,11,11,12,12],"right_children":[2,4,6,8,10,12,14,16,18,20,22,24,26,-1,-1,-1,-1,-1,-1,-1,-1,-1,-1,-1,-1,-1,-1],"split_conditions":[5.05639E0,2.8503392E0,8.38E0,1.5726813E0,4E0,6.35355E0,1.1037274E1,7.0895004E-1,2.21E0,3.5915897E0,4.598838E0,4.2648997E0,7.22E0,1.4037403E-1,2.1269205E-1,-8.713206E-2,-6.3575156E-2,-4.5416962E-2,-3.0045364E-2,-1.35264E-2,2.826298E-3,1.4109753E-2,2.967755E-2,2.2638595E-2,4.958122E-2,7.5502686E-2,1.0284704E-1],"split_indices":[22,22,12,23,12,22,22,23,12,22,23,27,12,0,0,0,0,0,0,0,0,0,0,0,0,0,0],"split_type":[0,0,0,0,0,0,0,0,0,0,0,0,0,0,0,0,0,0,0,0,0,0,0,0,0,0,0],"sum_hessian":[7.67E2,6.06E2,1.61E2,3.15E2,2.91E2,1.14E2,4.7E1,1.31E2,1.84E2,1.71E2,1.2E2,5.6E1,5.8E1,3.4E1,1.3E1,2.6E1,1.05E2,9.5E1,8.9E1,1.15E2,5.6E1,7.5E1,4.5E1,3E0,5.3E1,3.1E1,2.7E1],"tree_param":{"num_deleted":"0","num_feature":"60","num_nodes":"27","size_leaf_vector":"1"}},{"base_weights":[-7.03602E-3,-5.549837E-1,1.53325E0,-1.0342047E0,-9.6983805E-2,9.1948956E-1,2.7747374E0,-1.3581691E0,-8.5941994E-1,-3.5362077E-1,1.6567327E-1,6.990363E-1,1.3090906E0,1.1620697E-1,1.8835254E-1,-7.844423E-2,-6.1838962E-2,-4.8136737E-2,-3.4018148E-2,-2.3455586E-2,-1.1169474E-2,2.3693214E-3,1.6067645E-2,2.0528153E-2,3.8835075E-2,1.8205905E-2,6.6072464E-2],"categories":[],"categories_nodes":[],"categories_segments":[],"categories_sizes":[],"default_left":[0,0,0,0,0,0,0,0,0,0,0,0,0,0,0,0,0,0,0,0,0,0,0,0,0,0,0],"id":14,"left_children":[1,3,5,7,9,11,13,15,17,19,21,23,25,-1,-1,-1,-1,-1,-1,-1,-1,-1,-1,-1,-1,-1,-1],"loss_changes":[6.46508E2,1.2390767E2,1.5060583E2,1.4460999E1,1.9606766E1,1.0765778E1,2.0755737E1,4.8962402E-1,2.711853E0,2.106163E0,2.6365101E0,1.6750984E0,7.940674E-2,0E0,0E0,0E0,0E0,0E0,0E0,0E0,0E0,0E0,0E0,0E0,0E0,0E0,0E0],"parents":[2147483647,0,0,1,1,2,2,3,3,4,4,5,5,6,6,7,7,8,8,9,9,10,10,11,11,12,12],"right_children":[2,4,6,8,10,12,14,16,18,20,22,24,26,-1,-1,-1,-1,-1,-1,-1,-1,-1,-1,-1,-1,-1,-1],"split_conditions":[4.598838E0,2.54E0,7.22E0,1.41E0,3.55E0,5.76E0,9.9530325E0,8.3E-1,2.044304E0,2.9964702E0,4.0412736E0,4.65E0,5.714286E0,1.1620697E-1,1.8835254E-1,-7.844423E-2,-6.1838962E-2,-4.8136737E-2,-3.4018148E-2,-2.3455586E-2,-1.1169474E-2,2.3693214E-3,1.6067645E-2,2.0528153E-2,3.8835075E-2,1.8205905E-2,6.6072464E-2],"split_indices":[23,12,12,12,12,12,22,12,22,22,23,12,0,0,0,0,0,0,0,0,0,0,0,0,0,0,0],"split_type":[0,0,0,0,0,0,0,0,0,0,0,0,0,0,0,0,0,0,0,0,0,0,0,0,0,0,0],"sum_hessian":[7.64E2,5.64E2,2E2,2.75E2,2.89E2,1.35E2,6.5E1,9.4E1,1.81E2,1.46E2,1.43E2,8.8E1,4.7E1,4.7E1,1.8E1,3E1,6.4E1,1.12E2,6.9E1,7.6E1,7E1,8.2E1,6.1E1,2E1,6.8E1,1E0,4.6E1],"tree_param":{"num_deleted":"0","num_feature":"60","num_nodes":"27","size_leaf_vector":"1"}},{"base_weights":[2.1930777E-2,-4.8923016E-1,1.6823766E0,-9.549988E-1,-2.0213196E-2,1.2054565E0,3.1849232E0,-1.2605407E0,-7.6382655E-1,-2.2011754E-1,2.8408754E-1,8.9632565E-1,1.7377831E0,1.3101906E-1,1.9471005E-1,-7.751983E-2,-5.84107E-2,-4.53416E-2,-3.159421E-2,-1.711193E-2,-3.969201E-3,8.570363E-3,2.0618685E-2,3.6011156E-2,5.591774E-2,6.872663E-2,9.4957866E-2],"categories":[],"categories_nodes":[],"categories_segments":[],"categories_sizes":[],"default_left":[0,0,0,0,0,0,0,0,0,0,0,0,0,0,0,0,0,0,0,0,0,0,0,0,0,0,0],"id":15,"left_children":[1,3,5,7,9,11,13,15,17,19,21,23,25,-1,-1,-1,-1,-1,-1,-1,-1,-1,-1,-1,-1,-1,-1],"loss_changes":[6.5266693E2,1.2843127E2,1.2586432E2,1.6268463E1,1.794686E1,2.131601E1,7.0136414E0,1.1860962E0,2.8987885E0,3.032034E0,1.6205883E0,2.7135239E0,3.2051086E-1,0E0,0E0,0E0,0E0,0E0,0E0,0E0,0E0,0E0,0E0,0E0,0E0,0E0,0E0],"parents":[2147483647,0,0,1,1,2,2,3,3,4,4,5,5,6,6,7,7,8,8,9,9,10,10,11,11,12,12],"right_children":[2,4,6,8,10,12,14,16,18,20,22,24,26,-1,-1,-1,-1,-1,-1,-1,-1,-1,-1,-1,-1,-1,-1],"split_conditions":[4.869085E0,2.684403E0,8.66E0,1.52E0,3.83E0,6.58E0,1.0405657E1,7.4694663E-1,1.99E0,3.2700396E0,4.3878555E0,5.702898E0,7.22E0,1.3101906E-1,1.9471005E-1,-7.751983E-2,-5.84107E-2,-4.53416E-2,-3.159421E-2,-1.711193E-2,-3.969201E-3,8.570363E-3,2.0618685E-2,3.6011156E-2,5.591774E-2,6.872663E-2,9.4957866E-2],"split_indices":[22,22,12,12,12,12,22,23,12,23,23,22,12,0,0,0,0,0,0,0,0,0,0,0,0,0,0],"split_type":[0,0,0,0,0,0,0,0,0,0,0,0,0,0,0,0,0,0,0,0,0,0,0,0,0,0,0],"sum_hessian":[7.67E2,5.87E2,1.8E2,2.94E2,2.93E2,1.38E2,4.2E1,1.11E2,1.83E2,1.77E2,1.16E2,8.9E1,4.9E1,2.6E1,1.6E1,2.3E1,8.8E1,8.5E1,9.8E1,9.4E1,8.3E1,6.3E1,5.3E1,5.2E1,3.7E1,1.8E1,3.1E1],"tree_param":{"num_deleted":"0","num_feature":"60","num_nodes":"27","size_leaf_vector":"1"}},{"base_weights":[8.907686E-3,-4.2781207E-1,1.7701886E0,-8.700766E-1,9.841506E-2,1.2586862E0,2.985463E0,-1.1374407E0,-6.3102853E-1,-1.2190147E-1,3.5554206E-1,9.950719E-1,8.900398E-2,1.2762056E-1,1.9108927E-1,-6.7193724E-2,-5.018295E-2,-3.664214E-2,-2.3796957E-2,-1.0152334E-2,1.5985848E-3,1.17328465E-2,2.650162E-2,3.8010728E-2,5.827808E-2],"categories":[],"categories_nodes":[],"categories_segments":[],"categories_sizes":[],"default_left":[0,0,0,0,0,0,0,0,0,0,0,0,0,0,0,0,0,0,0,0,0,0,0,0,0],"id":16,"left_children":[1,3,5,7,9,11,13,15,17,19,21,23,-1,-1,-1,-1,-1,-1,-1,-1,-1,-1,-1,-1,-1],"loss_changes":[5.845696E2,1.4181915E2,9.010617E1,2.0437408E1,1.5848503E1,1.3072952E1,6.180786E0,2.931839E0,2.4460983E0,1.8918884E0,2.5966587E0,2.0769424E0,0E0,0E0,0E0,0E0,0E0,0E0,0E0,0E0,0E0,0E0,0E0,0E0,0E0],"parents":[2147483647,0,0,1,1,2,2,3,3,4,4,5,5,6,6,7,7,8,8,9,9,10,10,11,11],"right_children":[2,4,6,8,10,12,14,16,18,20,22,24,-1,-1,-1,-1,-1,-1,-1,-1,-1,-1,-1,-1,-1],"split_conditions":[5.25E0,2.87E0,8.66E0,1.7044458E0,3.94E0,6.83E0,1.111E1,1.0705143E0,2.3492215E0,3.5800648E0,4.581158E0,5.702898E0,8.900398E-2,1.2762056E-1,1.9108927E-1,-6.7193724E-2,-5.018295E-2,-3.664214E-2,-2.3796957E-2,-1.0152334E-2,1.5985848E-3,1.17328465E-2,2.650162E-2,3.8010728E-2,5.827808E-2],"split_indices":[12,12,12,23,12,12,12,23,22,22,23,22,0,0,0,0,0,0,0,0,0,0,0,0,0],"split_type":[0,0,0,0,0,0,0,0,0,0,0,0,0,0,0,0,0,0,0,0,0,0,0,0,0],"sum_hessian":[7.58E2,6.08E2,1.5E2,3.3E2,2.78E2,1.07E2,4.3E1,1.54E2,1.76E2,1.5E2,1.28E2,7.3E1,3.4E1,3.1E1,1.2E1,5.7E1,9.7E1,1.04E2,7.2E1,9.8E1,5.2E1,7.7E1,5.1E1,3.3E1,4E1],"tree_param":{"num_deleted":"0","num_feature":"60","num_nodes":"25","size_leaf_vector":"1"}},{"base_weights":[2.1812124E-3,-4.6635398E-1,1.5144966E0,-8.892715E-1,-3.5969257E-2,1.0129449E0,2.6660254E0,-1.171517E0,-7.230173E-1,-2.1881908E-1,2.3086242E-1,6.8919075E-1,1.3412488E0,1.1340081E-1,1.7347732E-1,-7.12913E-2,-5.424553E-2,-4.1902456E-2,-2.9346837E-2,-1.8223308E-2,-5.885558E-3,7.4230046E-3,2.002171E-2,1.7790625E-2,3.613567E-2,5.435511E-2,7.5312234E-2],"categories":[],"categories_nodes":[],"categories_segments":[],"categories_sizes":[],"default_left":[0,0,0,0,0,0,0,0,0,0,0,0,0,0,0,0,0,0,0,0,0,0,0,0,0,0,0],"id":17,"left_children":[1,3,5,7,9,11,13,15,17,19,21,23,25,-1,-1,-1,-1,-1,-1,-1,-1,-1,-1,-1,-1,-1,-1],"loss_changes":[5.3922174E2,1.0572002E2,1.0125867E2,1.2901855E1,1.4150863E1,1.2574432E1,9.400696E0,8.097534E-1,2.4353485E0,2.4899826E0,1.5893784E0,4.8044777E-1,9.6241E-1,0E0,0E0,0E0,0E0,0E0,0E0,0E0,0E0,0E0,0E0,0E0,0E0,0E0,0E0],"parents":[2147483647,0,0,1,1,2,2,3,3,4,4,5,5,6,6,7,7,8,8,9,9,10,10,11,11,12,12],"right_children":[2,4,6,8,10,12,14,16,18,20,22,24,26,-1,-1,-1,-1,-1,-1,-1,-1,-1,-1,-1,-1,-1,-1],"split_conditions":[4.93E0,2.5576272E0,8.332389E0,1.4566594E0,3.79E0,6.04E0,1.1173647E1,6.541053E-1,2.01E0,3.05E0,4.537691E0,4.6287026E0,6.7E0,1.1340081E-1,1.7347732E-1,-7.12913E-2,-5.424553E-2,-4.1902456E-2,-2.9346837E-2,-1.8223308E-2,-5.885558E-3,7.4230046E-3,2.002171E-2,1.7790625E-2,3.613567E-2,5.435511E-2,7.5312234E-2],"split_indices":[12,22,27,22,12,12,27,22,12,12,22,23,12,0,0,0,0,0,0,0,0,0,0,0,0,0,0],"split_type":[0,0,0,0,0,0,0,0,0,0,0,0,0,0,0,0,0,0,0,0,0,0,0,0,0,0,0],"sum_hessian":[7.59E2,5.8E2,1.79E2,2.92E2,2.88E2,1.26E2,5.3E1,1.06E2,1.86E2,1.71E2,1.17E2,6.5E1,6.1E1,3.8E1,1.5E1,2.3E1,8.3E1,9.8E1,8.8E1,6.9E1,1.02E2,8E1,3.7E1,7E0,5.8E1,2.7E1,3.4E1],"tree_param":{"num_deleted":"0","num_feature":"60","num_nodes":"27","size_leaf_vector":"1"}},{"base_weights":[1.9243471E-2,-3.5684073E-1,1.6193651E0,-7.853106E-1,7.682621E-2,1.1013064E0,2.5103703E0,-1.0054241E0,-5.684817E-1,-1.2168181E-1,3.30478E-1,8.780444E-1,7.326666E-2,1.05016224E-1,1.6764794E-1,-5.6517243E-2,-4.268864E-2,-3.2537114E-2,-2.1199036E-2,-1.1580107E-2,-8.2064E-4,9.284543E-3,2.294189E-2,3.3690184E-2,4.98917E-2],"categories":[],"categories_nodes":[],"categories_segments":[],"categories_sizes":[],"default_left":[0,0,0,0,0,0,0,0,0,0,0,0,0,0,0,0,0,0,0,0,0,0,0,0,0],"id":18,"left_children":[1,3,5,7,9,11,13,15,17,19,21,23,-1,-1,-1,-1,-1,-1,-1,-1,-1,-1,-1,-1,-1],"loss_changes":[4.711702E2,1.1786591E2,6.6012695E1,1.4653351E1,1.595142E1,6.5156174E0,1.1614685E1,2.009201E0,1.6616402E0,2.055873E0,2.4980936E0,8.4453964E-1,0E0,0E0,0E0,0E0,0E0,0E0,0E0,0E0,0E0,0E0,0E0,0E0,0E0],"parents":[2147483647,0,0,1,1,2,2,3,3,4,4,5,5,6,6,7,7,8,8,9,9,10,10,11,11],"right_children":[2,4,6,8,10,12,14,16,18,20,22,24,-1,-1,-1,-1,-1,-1,-1,-1,-1,-1,-1,-1,-1],"split_conditions":[5.350281E0,2.78E0,8.27E0,1.77E0,4E0,6.7E0,1.0943718E1,1.32E0,2.3641162E0,3.45E0,4.43E0,5.73E0,7.326666E-2,1.05016224E-1,1.6764794E-1,-5.6517243E-2,-4.268864E-2,-3.2537114E-2,-2.1199036E-2,-1.1580107E-2,-8.2064E-4,9.284543E-3,2.294189E-2,3.3690184E-2,4.98917E-2],"split_indices":[23,12,12,12,12,12,23,12,23,12,12,12,0,0,0,0,0,0,0,0,0,0,0,0,0],"split_type":[0,0,0,0,0,0,0,0,0,0,0,0,0,0,0,0,0,0,0,0,0,0,0,0,0],"sum_hessian":[7.81E2,6.33E2,1.48E2,3.18E2,3.15E2,9.5E1,5.3E1,1.56E2,1.62E2,1.77E2,1.38E2,6.1E1,3.4E1,3.8E1,1.5E1,8.2E1,7.4E1,1.01E2,6.1E1,8.6E1,9.1E1,6.6E1,7.2E1,2.5E1,3.6E1],"tree_param":{"num_deleted":"0","num_feature":"60","num_nodes":"25","size_leaf_vector":"1"}},{"base_weights":[3.4356132E-2,-3.5243723E-1,1.5889376E0,-7.309148E-1,1.15730114E-1,1.1297358E0,2.5311427E0,-9.634791E-1,-5.0879216E-1,-7.607025E-2,3.55318E-1,9.138997E-1,1.4805591E0,2.079816E0,1.6660076E-1,-6.3617885E-2,-4.4385128E-2,-3.0250942E-2,-1.8774174E-2,-1.0167541E-2,1.0127303E-3,1.1747082E-2,2.3401096E-2,3.5754506E-2,5.0760638E-2,7.5563274E-2,3.0928215E-2,3.057599E-2,1.0528896E-1],"categories":[],"categories_nodes":[],"categories_segments":[],"categories_sizes":[],"default_left":[0,0,0,0,0,0,0,0,0,0,0,0,0,0,0,0,0,0,0,0,0,0,0,0,0,0,0,0,0],"id":19,"left_children":[1,3,5,7,9,11,13,15,17,19,21,23,25,27,-1,-1,-1,-1,-1,-1,-1,-1,-1,-1,-1,-1,-1,-1,-1],"loss_changes":[4.5875198E2,1.083482E2,6.290515E1,1.6970123E1,1.2618164E1,6.5218353E0,1.0781311E1,2.709076E0,2.0177002E0,1.8799418E0,1.5452013E0,6.235428E-1,7.0991516E-2,8.392334E-3,0E0,0E0,0E0,0E0,0E0,0E0,0E0,0E0,0E0,0E0,0E0,0E0,0E0,0E0,0E0],"parents":[2147483647,0,0,1,1,2,2,3,3,4,4,5,5,6,6,7,7,8,8,9,9,10,10,11,11,12,12,13,13],"right_children":[2,4,6,8,10,12,14,16,18,20,22,24,26,28,-1,-1,-1,-1,-1,-1,-1,-1,-1,-1,-1,-1,-1,-1,-1],"split_conditions":[5.3214684E0,2.9443238E0,8.444711E0,1.761655E0,4.0412736E0,6.9047174E0,1.0943718E1,7.9454017E-1,2.391479E0,3.4369907E0,4.598838E0,5.761277E0,4.3E0,4.43E-1,1.6660076E-1,-6.3617885E-2,-4.4385128E-2,-3.0250942E-2,-1.8774174E-2,-1.0167541E-2,1.0127303E-3,1.1747082E-2,2.3401096E-2,3.5754506E-2,5.0760638E-2,7.5563274E-2,3.0928215E-2,3.057599E-2,1.0528896E-1],"split_indices":[22,23,22,23,23,23,23,22,23,22,23,23,33,19,0,0,0,0,0,0,0,0,0,0,0,0,0,0,0],"split_type":[0,0,0,0,0,0,0,0,0,0,0,0,0,0,0,0,0,0,0,0,0,0,0,0,0,0,0,0,0],"sum_hessian":[7.61E2,6.1E2,1.51E2,3.37E2,2.73E2,1.03E2,4.8E1,1.63E2,1.74E2,1.52E2,1.21E2,6.6E1,3.7E1,3.3E1,1.5E1,2.9E1,1.34E2,9.9E1,7.5E1,6.5E1,8.7E1,6E1,6.1E1,2.5E1,4.1E1,3.5E1,2E0,1E0,3.2E1],"tree_param":{"num_deleted":"0","num_feature":"60","num_nodes":"29","size_leaf_vector":"1"}},{"base_weights":[-3.7904256E-3,-3.6404243E-1,1.3969646E0,-7.1339333E-1,5.376423E-2,8.806002E-1,2.1862202E0,-9.024251E-1,-4.9134177E-1,-1.15584075E-1,2.9936635E-1,6.98702E-1,5.712641E-2,1.6939795E0,2.6101413E0,-5.366385E-2,-3.8964227E-2,-2.7540276E-2,-1.8606758E-2,-1.0524983E-2,-5.578198E-4,1.1348959E-2,2.4227584E-2,1.4790336E-2,3.608929E-2,8.58996E-2,2.3739887E-2,1.0086457E-1,1.4795876E-1],"categories":[],"categories_nodes":[],"categories_segments":[],"categories_sizes":[],"default_left":[0,0,0,0,0,0,0,0,0,0,0,0,0,0,0,0,0,0,0,0,0,0,0,0,0,0,0,0,0],"id":20,"left_children":[1,3,5,7,9,11,13,15,17,19,21,23,-1,25,27,-1,-1,-1,-1,-1,-1,-1,-1,-1,-1,-1,-1,-1,-1],"loss_changes":[3.9714362E2,9.141002E1,6.36893E1,1.387001E1,1.193E1,3.9184875E0,8.724762E0,3.0137024E0,9.220886E-1,1.6826599E0,1.4584064E0,3.5381126E-1,0E0,1.2111664E-1,6.520691E-1,0E0,0E0,0E0,0E0,0E0,0E0,0E0,0E0,0E0,0E0,0E0,0E0,0E0,0E0],"parents":[2147483647,0,0,1,1,2,2,3,3,4,4,5,5,6,6,7,7,8,8,9,9,10,10,11,11,13,13,14,14],"right_children":[2,4,6,8,10,12,14,16,18,20,22,24,-1,26,28,-1,-1,-1,-1,-1,-1,-1,-1,-1,-1,-1,-1,-1,-1],"split_conditions":[5.0399156E0,2.8420622E0,7.57E0,1.85E0,4E0,6.328018E0,9.361925E0,1.22E0,2.54E0,3.45E0,4.93E0,1.101E2,5.712641E-2,8.207317E0,1.022E1,-5.366385E-2,-3.8964227E-2,-2.7540276E-2,-1.8606758E-2,-1.0524983E-2,-5.578198E-4,1.1348959E-2,2.4227584E-2,1.4790336E-2,3.608929E-2,8.58996E-2,2.3739887E-2,1.0086457E-1,1.4795876E-1],"split_indices":[27,23,12,12,12,23,23,12,12,12,12,18,0,1,12,0,0,0,0,0,0,0,0,0,0,0,0,0,0],"split_type":[0,0,0,0,0,0,0,0,0,0,0,0,0,0,0,0,0,0,0,0,0,0,0,0,0,0,0,0,0],"sum_hessian":[7.85E2,6.25E2,1.6E2,3.4E2,2.85E2,9.8E1,6.2E1,1.82E2,1.58E2,1.69E2,1.16E2,6E1,3.8E1,3.1E1,3.1E1,7.3E1,1.09E2,1.03E2,5.5E1,8.8E1,8.1E1,8.5E1,3.1E1,4E0,5.6E1,3E1,1E0,1.4E1,1.7E1],"tree_param":{"num_deleted":"0","num_feature":"60","num_nodes":"29","size_leaf_vector":"1"}},{"base_weights":[-1.3613213E-3,-3.6250362E-1,1.2512943E0,-7.5071645E-1,-2.7793195E-2,9.08574E-1,2.3149426E0,-9.8692083E-1,-6.1680895E-1,-1.9873461E-1,2.2623946E-1,6.171249E-1,1.2370774E0,1.9789921E0,1.540902E-1,-6.13431E-2,-4.4965845E-2,-3.4616705E-2,-2.4861366E-2,-1.5585022E-2,-4.4696736E-3,5.6101433E-3,1.6759865E-2,2.3789942E-2,3.5232972E-2,4.6873316E-2,6.8383574E-2,2.76641E-2,1.0035675E-1],"categories":[],"categories_nodes":[],"categories_segments":[],"categories_sizes":[],"default_left":[0,0,0,0,0,0,0,0,0,0,0,0,0,0,0,0,0,0,0,0,0,0,0,0,0,0,0,0,0],"id":21,"left_children":[1,3,5,7,9,11,13,15,17,19,21,23,25,27,-1,-1,-1,-1,-1,-1,-1,-1,-1,-1,-1,-1,-1,-1,-1],"loss_changes":[3.537678E2,7.885202E1,6.1690155E1,8.27916E0,1.4244839E1,1.2066002E1,4.721466E0,9.986496E-1,1.2994766E0,2.3930922E0,1.6025143E0,5.678005E-1,1.143753E0,1.7344666E-1,0E0,0E0,0E0,0E0,0E0,0E0,0E0,0E0,0E0,0E0,0E0,0E0,0E0,0E0,0E0],"parents":[2147483647,0,0,1,1,2,2,3,3,4,4,5,5,6,6,7,7,8,8,9,9,10,10,11,11,12,12,13,13],"right_children":[2,4,6,8,10,12,14,16,18,20,22,24,26,28,-1,-1,-1,-1,-1,-1,-1,-1,-1,-1,-1,-1,-1,-1,-1],"split_conditions":[4.969026E0,2.502827E0,8.66E0,1.36E0,3.71385E0,6.23E0,1.111E1,7E-1,1.99E0,3.1E0,4.2861004E0,5.297103E0,6.9002733E0,4.43E-1,1.540902E-1,-6.13431E-2,-4.4965845E-2,-3.4616705E-2,-2.4861366E-2,-1.5585022E-2,-4.4696736E-3,5.6101433E-3,1.6759865E-2,2.3789942E-2,3.5232972E-2,4.6873316E-2,6.8383574E-2,2.76641E-2,1.0035675E-1],"split_indices":[22,22,12,12,22,12,12,12,12,12,23,27,22,19,0,0,0,0,0,0,0,0,0,0,0,0,0,0,0],"split_type":[0,0,0,0,0,0,0,0,0,0,0,0,0,0,0,0,0,0,0,0,0,0,0,0,0,0,0,0,0],"sum_hessian":[7.8E2,6.06E2,1.74E2,2.8E2,3.26E2,1.33E2,4.1E1,9.9E1,1.81E2,1.95E2,1.31E2,7.2E1,6.1E1,3.1E1,1E1,2.3E1,7.6E1,1.08E2,7.3E1,9.5E1,1E2,6.5E1,6.6E1,3E1,4.2E1,2.1E1,4E1,1E0,3E1],"tree_param":{"num_deleted":"0","num_feature":"60","num_nodes":"29","size_leaf_vector":"1"}},{"base_weights":[-1.4065213E-4,-3.4872013E-1,1.1838284E0,-6.870063E-1,-1.6056046E-2,7.8505576E-1,1.947791E0,-9.074649E-1,-5.553044E-1,-1.890063E-1,1.6406262E-1,5.755435E-1,9.9182206E-1,7.7703916E-2,1.228601E-1,-5.7207655E-2,-4.203352E-2,-3.245743E-2,-2.2827556E-2,-1.4591095E-2,-5.4873396E-3,3.9766775E-3,1.5000107E-2,2.1117134E-2,3.236035E-2,4.2669944E-2,5.7329785E-2],"categories":[],"categories_nodes":[],"categories_segments":[],"categories_sizes":[],"default_left":[0,0,0,0,0,0,0,0,0,0,0,0,0,0,0,0,0,0,0,0,0,0,0,0,0,0,0],"id":22,"left_children":[1,3,5,7,9,11,13,15,17,19,21,23,25,-1,-1,-1,-1,-1,-1,-1,-1,-1,-1,-1,-1,-1,-1],"loss_changes":[3.1572122E2,6.649753E1,5.1479492E1,8.003296E0,9.345328E0,4.4542847E0,8.01445E0,7.455673E-1,1.4273758E0,1.2147884E0,1.6652937E0,3.8539124E-1,2.426796E-1,0E0,0E0,0E0,0E0,0E0,0E0,0E0,0E0,0E0,0E0,0E0,0E0,0E0,0E0],"parents":[2147483647,0,0,1,1,2,2,3,3,4,4,5,5,6,6,7,7,8,8,9,9,10,10,11,11,12,12],"right_children":[2,4,6,8,10,12,14,16,18,20,22,24,26,-1,-1,-1,-1,-1,-1,-1,-1,-1,-1,-1,-1,-1,-1],"split_conditions":[4.969026E0,2.6192524E0,7.9564157E0,1.4566594E0,3.5915897E0,6.0782957E0,9.531496E0,7E-1,1.98E0,3.1E0,4.2861004E0,5.297103E0,6.7E0,7.7703916E-2,1.228601E-1,-5.7207655E-2,-4.203352E-2,-3.245743E-2,-2.2827556E-2,-1.4591095E-2,-5.4873396E-3,3.9766775E-3,1.5000107E-2,2.1117134E-2,3.236035E-2,4.2669944E-2,5.7329785E-2],"split_indices":[22,23,23,22,22,22,23,12,12,12,23,27,12,0,0,0,0,0,0,0,0,0,0,0,0,0,0],"split_type":[0,0,0,0,0,0,0,0,0,0,0,0,0,0,0,0,0,0,0,0,0,0,0,0,0,0,0],"sum_hessian":[7.63E2,5.9E2,1.73E2,2.92E2,2.98E2,1.15E2,5.8E1,1.07E2,1.85E2,1.52E2,1.46E2,5.9E1,5.6E1,3.5E1,2.3E1,2E1,8.7E1,9.2E1,9.3E1,6.5E1,8.7E1,9.1E1,5.5E1,2.1E1,3.8E1,3.3E1,2.3E1],"tree_param":{"num_deleted":"0","num_feature":"60","num_nodes":"27","size_leaf_vector":"1"}},{"base_weights":[-1.1640152E-2,-3.148816E-1,1.2052377E0,-6.0748523E-1,4.1010253E-2,9.004427E-1,2.3324783E0,-8.250219E-1,-4.535278E-1,-1.10992424E-1,1.970059E-1,6.657005E-1,1.2557377E0,9.5486246E-2,1.4565764E-1,-5.1984675E-2,-3.7558436E-2,-2.6702387E-2,-1.7083762E-2,-8.23437E-3,1.0328815E-4,5.5134348E-3,1.6610174E-2,2.5834812E-2,3.8748343E-2,6.396388E-2,2.3418205E-2],"categories":[],"categories_nodes":[],"categories_segments":[],"categories_sizes":[],"default_left":[0,0,0,0,0,0,0,0,0,0,0,0,0,0,0,0,0,0,0,0,0,0,0,0,0,0,0],"id":23,"left_children":[1,3,5,7,9,11,13,15,17,19,21,23,25,-1,-1,-1,-1,-1,-1,-1,-1,-1,-1,-1,-1,-1,-1],"loss_changes":[2.9226465E2,6.604666E1,5.218495E1,1.1280838E1,6.82714E0,9.672798E0,2.5375977E0,1.4861526E0,1.6728401E0,8.866557E-1,1.6285543E0,8.6951065E-1,3.0904388E-1,0E0,0E0,0E0,0E0,0E0,0E0,0E0,0E0,0E0,0E0,0E0,0E0,0E0,0E0],"parents":[2147483647,0,0,1,1,2,2,3,3,4,4,5,5,6,6,7,7,8,8,9,9,10,10,11,11,12,12],"right_children":[2,4,6,8,10,12,14,16,18,20,22,24,26,-1,-1,-1,-1,-1,-1,-1,-1,-1,-1,-1,-1,-1,-1],"split_conditions":[5.1064053E0,2.9079814E0,9.11E0,1.63E0,3.71385E0,6.7E0,1.111E1,8.019477E-1,2.275087E0,3.5680583E0,4.43E0,5.73E0,7.716E-1,9.5486246E-2,1.4565764E-1,-5.1984675E-2,-3.7558436E-2,-2.6702387E-2,-1.7083762E-2,-8.23437E-3,1.0328815E-4,5.5134348E-3,1.6610174E-2,2.5834812E-2,3.8748343E-2,6.396388E-2,2.3418205E-2],"split_indices":[23,22,12,12,22,12,12,23,22,23,12,12,59,0,0,0,0,0,0,0,0,0,0,0,0,0,0],"split_type":[0,0,0,0,0,0,0,0,0,0,0,0,0,0,0,0,0,0,0,0,0,0,0,0,0,0,0],"sum_hessian":[7.9E2,6.33E2,1.57E2,3.47E2,2.86E2,1.25E2,3.2E1,1.42E2,2.05E2,1.45E2,1.41E2,7.7E1,4.8E1,2.1E1,1.1E1,3.3E1,1.09E2,1.17E2,8.8E1,9.8E1,4.7E1,8.7E1,5.4E1,3.5E1,4.2E1,4.6E1,2E0],"tree_param":{"num_deleted":"0","num_feature":"60","num_nodes":"27","size_leaf_vector":"1"}},{"base_weights":[1.50822075E-2,-3.068808E-1,1.103451E0,-5.788328E-1,2.7101E-2,7.5585383E-1,1.9642789E0,-7.3469037E-1,-4.0228027E-1,-1.1464502E-1,1.807238E-1,5.188122E-1,9.8842293E-1,8.304495E-2,1.3128816E-1,-4.3977212E-2,-3.2078467E-2,-2.3511209E-2,-1.6031835E-2,-8.695831E-3,-1.8636214E-3,6.1040386E-3,1.4194116E-2,1.9436613E-2,2.9273763E-2,4.3065306E-2,5.7359416E-2],"categories":[],"categories_nodes":[],"categories_segments":[],"categories_sizes":[],"default_left":[0,0,0,0,0,0,0,0,0,0,0,0,0,0,0,0,0,0,0,0,0,0,0,0,0,0,0],"id":24,"left_children":[1,3,5,7,9,11,13,15,17,19,21,23,25,-1,-1,-1,-1,-1,-1,-1,-1,-1,-1,-1,-1,-1,-1],"loss_changes":[2.701578E2,5.4057766E1,5.1178253E1,8.730034E0,5.8565326E0,6.4885254E0,5.6729126E0,1.7692947E0,7.1458817E-1,6.355573E-1,7.457323E-1,3.3605766E-1,2.8336716E-1,0E0,0E0,0E0,0E0,0E0,0E0,0E0,0E0,0E0,0E0,0E0,0E0,0E0,0E0],"parents":[2147483647,0,0,1,1,2,2,3,3,4,4,5,5,6,6,7,7,8,8,9,9,10,10,11,11,12,12],"right_children":[2,4,6,8,10,12,14,16,18,20,22,24,26,-1,-1,-1,-1,-1,-1,-1,-1,-1,-1,-1,-1,-1,-1],"split_conditions":[4.969026E0,2.9079814E0,8.332389E0,1.8472437E0,3.71385E0,6.0954905E0,1.1037274E1,1.1738452E0,2.3492215E0,3.3806276E0,4.5185113E0,5.297103E0,7.045555E0,8.304495E-2,1.3128816E-1,-4.3977212E-2,-3.2078467E-2,-2.3511209E-2,-1.6031835E-2,-8.695831E-3,-1.8636214E-3,6.1040386E-3,1.4194116E-2,1.9436613E-2,2.9273763E-2,4.3065306E-2,5.7359416E-2],"split_indices":[22,22,27,22,22,22,22,27,22,22,22,27,8,0,0,0,0,0,0,0,0,0,0,0,0,0,0],"split_type":[0,0,0,0,0,0,0,0,0,0,0,0,0,0,0,0,0,0,0,0,0,0,0,0,0,0,0],"sum_hessian":[7.69E2,5.94E2,1.75E2,3.27E2,2.67E2,1.26E2,4.9E1,1.72E2,1.55E2,1.39E2,1.28E2,6.4E1,6.2E1,3.6E1,1.3E1,6.4E1,1.08E2,8.2E1,7.3E1,7.8E1,6.1E1,8.3E1,4.5E1,2.4E1,4E1,3.8E1,2.4E1],"tree_param":{"num_deleted":"0","num_feature":"60","num_nodes":"27","size_leaf_vector":"1"}},{"base_weights":[-4.3128002E-3,-2.9795852E-1,1.0386606E0,-5.564854E-1,3.2948747E-2,7.343531E-1,1.8453139E0,-7.0928526E-1,-3.7346756E-1,-8.075176E-2,1.842678E-1,5.2940404E-1,9.803527E-1,1.538348E0,1.2294972E-1,-4.6940815E-2,-3.234126E-2,-2.165118E-2,-1.5009853E-2,-7.2468566E-3,1.8226564E-3,7.4865445E-3,1.9646196E-2,2.3467254E-2,3.3611733E-2,4.224724E-2,5.7189215E-2,2.2506177E-2,7.788422E-2],"categories":[],"categories_nodes":[],"categories_segments":[],"categories_sizes":[],"default_left":[0,0,0,0,0,0,0,0,0,0,0,0,0,0,0,0,0,0,0,0,0,0,0,0,0,0,0,0,0],"id":25,"left_children":[1,3,5,7,9,11,13,15,17,19,21,23,25,27,-1,-1,-1,-1,-1,-1,-1,-1,-1,-1,-1,-1,-1,-1,-1],"loss_changes":[2.4256487E2,5.288726E1,4.1356766E1,9.438995E0,4.694655E0,5.9344254E0,5.0710297E0,2.0880127E0,5.6819916E-1,1.1788461E0,7.843087E-1,3.0212402E-1,2.9497147E-1,1.4289856E-2,0E0,0E0,0E0,0E0,0E0,0E0,0E0,0E0,0E0,0E0,0E0,0E0,0E0,0E0,0E0],"parents":[2147483647,0,0,1,1,2,2,3,3,4,4,5,5,6,6,7,7,8,8,9,9,10,10,11,11,12,12,13,13],"right_children":[2,4,6,8,10,12,14,16,18,20,22,24,26,28,-1,-1,-1,-1,-1,-1,-1,-1,-1,-1,-1,-1,-1,-1,-1],"split_conditions":[4.969026E0,2.9079814E0,8.444711E0,1.85E0,3.8444967E0,6.328018E0,1.0943718E1,8.5E-1,2.42E0,3.5915897E0,5.02E0,5.89E0,7.484797E0,4.43E-1,1.2294972E-1,-4.6940815E-2,-3.234126E-2,-2.165118E-2,-1.5009853E-2,-7.2468566E-3,1.8226564E-3,7.4865445E-3,1.9646196E-2,2.3467254E-2,3.3611733E-2,4.224724E-2,5.7189215E-2,2.2506177E-2,7.788422E-2],"split_indices":[22,22,22,12,23,23,23,12,12,22,12,12,23,19,0,0,0,0,0,0,0,0,0,0,0,0,0,0,0],"split_type":[0,0,0,0,0,0,0,0,0,0,0,0,0,0,0,0,0,0,0,0,0,0,0,0,0,0,0,0,0],"sum_hessian":[7.9E2,6.17E2,1.73E2,3.46E2,2.71E2,1.27E2,4.6E1,1.87E2,1.59E2,1.55E2,1.16E2,7.1E1,5.6E1,3.3E1,1.3E1,3.7E1,1.5E2,8.5E1,7.4E1,1E2,5.5E1,1.01E2,1.5E1,5.3E1,1.8E1,3.4E1,2.2E1,1E0,3.2E1],"tree_param":{"num_deleted":"0","num_feature":"60","num_nodes":"29","size_leaf_vector":"1"}},{"base_weights":[-9.616268E-3,-2.9700264E-1,8.5410607E-1,-5.660747E-1,-4.6861816E-2,5.1922345E-1,1.5052934E0,-7.622002E-1,-4.549154E-1,-1.7704535E-1,9.0827435E-2,3.9654937E-1,7.416188E-1,1.3131406E0,1.1558719E-1,-4.7871612E-2,-3.4826044E-2,-2.6291637E-2,-1.8556861E-2,-1.2379817E-2,-4.7118324E-3,3.499588E-4,7.4958997E-3,1.6566087E-2,2.5145754E-2,1.9651547E-2,3.8332593E-2,5.171786E-2,7.233544E-2],"categories":[],"categories_nodes":[],"categories_segments":[],"categories_sizes":[],"default_left":[0,0,0,0,0,0,0,0,0,0,0,0,0,0,0,0,0,0,0,0,0,0,0,0,0,0,0,0,0],"id":26,"left_children":[1,3,5,7,9,11,13,15,17,19,21,23,25,27,-1,-1,-1,-1,-1,-1,-1,-1,-1,-1,-1,-1,-1,-1,-1],"loss_changes":[1.8890242E2,3.840515E1,4.0651978E1,5.64859E0,5.3397675E0,3.170742E0,6.881897E0,5.897522E-1,8.6240005E-1,8.7052965E-1,7.172022E-1,4.161644E-1,8.263588E-2,5.143585E-1,0E0,0E0,0E0,0E0,0E0,0E0,0E0,0E0,0E0,0E0,0E0,0E0,0E0,0E0,0E0],"parents":[2147483647,0,0,1,1,2,2,3,3,4,4,5,5,6,6,7,7,8,8,9,9,10,10,11,11,12,12,13,13],"right_children":[2,4,6,8,10,12,14,16,18,20,22,24,26,28,-1,-1,-1,-1,-1,-1,-1,-1,-1,-1,-1,-1,-1,-1,-1],"split_conditions":[4.65E0,2.56E0,7.22E0,1.41E0,3.57E0,5.89E0,1.1173647E1,7E-1,1.99E0,3.05E0,4.00269E0,5.5838118E0,5.159252E0,8.332389E0,1.1558719E-1,-4.7871612E-2,-3.4826044E-2,-2.6291637E-2,-1.8556861E-2,-1.2379817E-2,-4.7118324E-3,3.499588E-4,7.4958997E-3,1.6566087E-2,2.5145754E-2,1.9651547E-2,3.8332593E-2,5.171786E-2,7.233544E-2],"split_indices":[12,12,12,12,12,12,27,12,12,12,27,27,27,27,0,0,0,0,0,0,0,0,0,0,0,0,0,0,0],"split_type":[0,0,0,0,0,0,0,0,0,0,0,0,0,0,0,0,0,0,0,0,0,0,0,0,0,0,0,0,0],"sum_hessian":[7.59E2,5.7E2,1.89E2,2.74E2,2.96E2,1.26E2,6.3E1,9.7E1,1.77E2,1.52E2,1.44E2,8.3E1,4.3E1,5.3E1,1E1,2.1E1,7.6E1,9.3E1,8.4E1,8.1E1,7.1E1,6E1,8.4E1,5.4E1,2.9E1,4E0,3.9E1,2E1,3.3E1],"tree_param":{"num_deleted":"0","num_feature":"60","num_nodes":"29","size_leaf_vector":"1"}},{"base_weights":[2.1817025E-2,-2.1806477E-1,1.11389E0,-4.9447775E-1,6.866027E-2,8.7635803E-1,2.0412025E0,-6.923633E-1,-3.74883E-1,-6.6336975E-2,2.4782087E-1,7.0309347E-1,6.089666E-2,8.240722E-2,1.2494125E-1,-4.7388863E-2,-3.164951E-2,-2.255848E-2,-1.4633867E-2,-7.958184E-3,3.5593158E-4,8.423953E-3,1.7580856E-2,2.6043415E-2,3.946763E-2],"categories":[],"categories_nodes":[],"categories_segments":[],"categories_sizes":[],"default_left":[0,0,0,0,0,0,0,0,0,0,0,0,0,0,0,0,0,0,0,0,0,0,0,0,0],"id":27,"left_children":[1,3,5,7,9,11,13,15,17,19,21,23,-1,-1,-1,-1,-1,-1,-1,-1,-1,-1,-1,-1,-1],"loss_changes":[2.051022E2,5.091535E1,2.9268738E1,7.4792557E0,7.659275E0,5.890526E0,9.1799927E-1,1.2501602E0,1.1598167E0,1.2353072E0,1.060771E0,8.1489944E-1,0E0,0E0,0E0,0E0,0E0,0E0,0E0,0E0,0E0,0E0,0E0,0E0,0E0],"parents":[2147483647,0,0,1,1,2,2,3,3,4,4,5,5,6,6,7,7,8,8,9,9,10,10,11,11],"right_children":[2,4,6,8,10,12,14,16,18,20,22,24,-1,-1,-1,-1,-1,-1,-1,-1,-1,-1,-1,-1,-1],"split_conditions":[5.5603633E0,2.8420622E0,9.721407E0,1.590552E0,4.0412736E0,7.8947697E0,1.1243719E1,6.2226737E-1,2.2084036E0,3.3806276E0,4.728827E0,6.297199E0,6.089666E-2,8.240722E-2,1.2494125E-1,-4.7388863E-2,-3.164951E-2,-2.255848E-2,-1.4633867E-2,-7.958184E-3,3.5593158E-4,8.423953E-3,1.7580856E-2,2.6043415E-2,3.946763E-2],"split_indices":[23,23,23,22,23,22,22,22,23,22,23,22,0,0,0,0,0,0,0,0,0,0,0,0,0],"split_type":[0,0,0,0,0,0,0,0,0,0,0,0,0,0,0,0,0,0,0,0,0,0,0,0,0],"sum_hessian":[7.81E2,6.41E2,1.4E2,3.26E2,3.15E2,1.13E2,2.7E1,1.21E2,2.05E2,1.8E2,1.35E2,7.7E1,3.6E1,1.7E1,1E1,2E1,1.01E2,1.04E2,1.01E2,7.9E1,1.01E2,7.8E1,5.7E1,2.7E1,5E1],"tree_param":{"num_deleted":"0","num_feature":"60","num_nodes":"25","size_leaf_vector":"1"}},{"base_weights":[1.267867E-2,-2.7177486E-1,7.927931E-1,-5.07946E-1,-3.6309958E-2,4.921702E-1,1.3956429E0,-6.9811285E-1,-4.1808623E-1,-1.3929856E-1,1.0560196E-1,3.877166E-1,6.821195E-1,1.194007E0,2.0880952E0,-4.59513E-2,-3.1855207E-2,-2.359927E-2,-1.6769007E-2,-1.0781784E-2,-4.109253E-3,8.286304E-4,7.846361E-3,9.720421E-3,2.0853296E-2,3.7746366E-2,2.5941638E-2,6.073412E-2,2.1537002E-2,2.8880788E-2,1.079927E-1],"categories":[],"categories_nodes":[],"categories_segments":[],"categories_sizes":[],"default_left":[0,0,0,0,0,0,0,0,0,0,0,0,0,0,0,0,0,0,0,0,0,0,0,0,0,0,0,0,0,0,0],"id":28,"left_children":[1,3,5,7,9,11,13,15,17,19,21,23,25,27,29,-1,-1,-1,-1,-1,-1,-1,-1,-1,-1,-1,-1,-1,-1,-1,-1],"loss_changes":[1.7108331E2,3.1401218E1,3.664659E1,4.5270386E0,4.165458E0,2.4934158E0,7.001175E0,6.139946E-1,7.065201E-1,7.0165825E-1,5.457337E-1,4.408779E-1,1.7896652E-1,3.4471893E-1,2.6989365E-1,0E0,0E0,0E0,0E0,0E0,0E0,0E0,0E0,0E0,0E0,0E0,0E0,0E0,0E0,0E0,0E0],"parents":[2147483647,0,0,1,1,2,2,3,3,4,4,5,5,6,6,7,7,8,8,9,9,10,10,11,11,12,12,13,13,14,14],"right_children":[2,4,6,8,10,12,14,16,18,20,22,24,26,28,30,-1,-1,-1,-1,-1,-1,-1,-1,-1,-1,-1,-1,-1,-1,-1,-1],"split_conditions":[4.65E0,2.5674732E0,7.484797E0,1.36E0,3.6936371E0,6.04E0,1.0943718E1,6.115074E-1,2.024471E0,3.02E0,4E0,4.4907303E0,9.1E-1,5.65E0,8.444445E0,-4.59513E-2,-3.1855207E-2,-2.359927E-2,-1.6769007E-2,-1.0781784E-2,-4.109253E-3,8.286304E-4,7.846361E-3,9.720421E-3,2.0853296E-2,3.7746366E-2,2.5941638E-2,6.073412E-2,2.1537002E-2,2.8880788E-2,1.079927E-1],"split_indices":[12,23,23,12,23,12,23,23,23,12,12,23,15,30,0,0,0,0,0,0,0,0,0,0,0,0,0,0,0,0,0],"split_type":[0,0,0,0,0,0,0,0,0,0,0,0,0,0,0,0,0,0,0,0,0,0,0,0,0,0,0,0,0,0,0],"sum_hessian":[7.69E2,5.64E2,2.05E2,2.81E2,2.83E2,1.38E2,6.7E1,8.8E1,1.93E2,1.64E2,1.19E2,9.1E1,4.7E1,5.4E1,1.3E1,1.6E1,7.2E1,1.14E2,7.9E1,6.9E1,9.5E1,4.4E1,7.5E1,1.3E1,7.8E1,3E1,1.7E1,5.2E1,2E0,1E0,1.2E1],"tree_param":{"num_deleted":"0","num_feature":"60","num_nodes":"31","size_leaf_vector":"1"}},{"base_weights":[-6.968378E-3,-2.1026835E-1,9.637267E-1,-4.4467014E-1,7.0122324E-2,6.98043E-1,1.6876969E0,-5.7542014E-1,-2.97754E-1,-5.595001E-2,1.9485086E-1,5.191813E-1,9.0982056E-1,6.846791E-2,1.1288839E-1,-3.512712E-2,-2.511082E-2,-1.7765718E-2,-1.1607735E-2,-5.3714714E-3,8.3504134E-4,7.073073E-3,1.5770108E-2,1.9675389E-2,2.8903458E-2,4.734411E-2,2.5864163E-2],"categories":[],"categories_nodes":[],"categories_segments":[],"categories_sizes":[],"default_left":[0,0,0,0,0,0,0,0,0,0,0,0,0,0,0,0,0,0,0,0,0,0,0,0,0,0,0],"id":29,"left_children":[1,3,5,7,9,11,13,15,17,19,21,23,25,-1,-1,-1,-1,-1,-1,-1,-1,-1,-1,-1,-1,-1,-1],"loss_changes":[1.5156416E2,4.1765976E1,2.4404076E1,6.4750824E0,4.5710993E0,3.277649E0,3.259964E0,1.340828E0,5.405388E-1,5.440974E-1,8.9506197E-1,1.8696213E-1,1.503067E-1,0E0,0E0,0E0,0E0,0E0,0E0,0E0,0E0,0E0,0E0,0E0,0E0,0E0,0E0],"parents":[2147483647,0,0,1,1,2,2,3,3,4,4,5,5,6,6,7,7,8,8,9,9,10,10,11,11,12,12],"right_children":[2,4,6,8,10,12,14,16,18,20,22,24,26,-1,-1,-1,-1,-1,-1,-1,-1,-1,-1,-1,-1,-1,-1],"split_conditions":[5.430473E0,2.9443238E0,9.11E0,1.85E0,4E0,6.7E0,1.1339115E1,1.0812306E0,2.42E0,3.58E0,4.93E0,5.5603633E0,4.94E0,6.846791E-2,1.1288839E-1,-3.512712E-2,-2.511082E-2,-1.7765718E-2,-1.1607735E-2,-5.3714714E-3,8.3504134E-4,7.073073E-3,1.5770108E-2,1.9675389E-2,2.8903458E-2,4.734411E-2,2.5864163E-2],"split_indices":[22,23,12,12,12,12,23,22,12,12,12,23,30,0,0,0,0,0,0,0,0,0,0,0,0,0,0],"split_type":[0,0,0,0,0,0,0,0,0,0,0,0,0,0,0,0,0,0,0,0,0,0,0,0,0,0,0],"sum_hessian":[7.66E2,6.34E2,1.32E2,3.45E2,2.89E2,9.8E1,3.4E1,1.81E2,1.64E2,1.44E2,1.45E2,5.5E1,4.3E1,2.4E1,1E1,6.3E1,1.18E2,8.5E1,7.9E1,8.4E1,6E1,1.02E2,4.3E1,2E1,3.5E1,3.8E1,5E0],"tree_param":{"num_deleted":"0","num_feature":"60","num_nodes":"27","size_leaf_vector":"1"}},{"base_weights":[1.7702727E-2,-2.1974367E-1,7.9222625E-1,-4.4923046E-1,1.5137243E-2,5.537503E-1,1.4514034E0,-6.237444E-1,-3.5576975E-1,-1.03044175E-1,1.1901116E-1,3.9869604E-1,7.493516E-1,1.2069665E0,1.0819379E-1,-4.1515745E-2,-2.8542697E-2,-2.0591453E-2,-1.353802E-2,-7.2876737E-3,-6.7642826E-4,3.0010156E-3,1.0591618E-2,1.581316E-2,2.3857238E-2,4.5956872E-2,3.2619677E-2,3.727341E-2,6.351008E-2],"categories":[],"categories_nodes":[],"categories_segments":[],"categories_sizes":[],"default_left":[0,0,0,0,0,0,0,0,0,0,0,0,0,0,0,0,0,0,0,0,0,0,0,0,0,0,0,0,0],"id":30,"left_children":[1,3,5,7,9,11,13,15,17,19,21,23,25,27,-1,-1,-1,-1,-1,-1,-1,-1,-1,-1,-1,-1,-1,-1,-1],"loss_changes":[1.4343828E2,3.2186337E1,2.7963501E1,4.7037697E0,3.6459496E0,3.8259544E0,5.747696E0,6.622772E-1,8.368397E-1,5.294459E-1,8.524308E-1,3.5350323E-1,3.71624E-1,1.6205597E-1,0E0,0E0,0E0,0E0,0E0,0E0,0E0,0E0,0E0,0E0,0E0,0E0,0E0,0E0,0E0],"parents":[2147483647,0,0,1,1,2,2,3,3,4,4,5,5,6,6,7,7,8,8,9,9,10,10,11,11,12,12,13,13],"right_children":[2,4,6,8,10,12,14,16,18,20,22,24,26,28,-1,-1,-1,-1,-1,-1,-1,-1,-1,-1,-1,-1,-1,-1,-1],"split_conditions":[4.969026E0,2.721492E0,8.589682E0,1.4566594E0,3.5915897E0,6.23E0,1.111E1,5.712832E-1,2.18E0,3.4649656E0,4.2861004E0,5.5838118E0,2.011E-1,9.601939E0,1.0819379E-1,-4.1515745E-2,-2.8542697E-2,-2.0591453E-2,-1.353802E-2,-7.2876737E-3,-6.7642826E-4,3.0010156E-3,1.0591618E-2,1.581316E-2,2.3857238E-2,4.5956872E-2,3.2619677E-2,3.727341E-2,6.351008E-2],"split_indices":[22,22,27,22,22,12,12,27,12,23,23,27,51,21,0,0,0,0,0,0,0,0,0,0,0,0,0,0,0],"split_type":[0,0,0,0,0,0,0,0,0,0,0,0,0,0,0,0,0,0,0,0,0,0,0,0,0,0,0,0,0],"sum_hessian":[7.78E2,5.96E2,1.82E2,3.01E2,2.95E2,1.35E2,4.7E1,1.03E2,1.98E2,1.38E2,1.57E2,7.7E1,5.8E1,3.7E1,1E1,1.8E1,8.5E1,1.17E2,8.1E1,9.3E1,4.5E1,9.7E1,6E1,4E1,3.7E1,1.8E1,4E1,6E0,3.1E1],"tree_param":{"num_deleted":"0","num_feature":"60","num_nodes":"29","size_leaf_vector":"1"}},{"base_weights":[9.452521E-3,-2.1819782E-1,7.8571266E-1,-4.3298757E-1,3.046995E-3,5.469271E-1,1.4031904E0,-5.94772E-1,-3.4390447E-1,-9.782279E-2,1.4122257E-1,4.0656203E-1,7.3694897E-1,1.1651615E0,9.3252264E-2,-4.0883143E-2,-2.7356038E-2,-1.978735E-2,-1.3349198E-2,-8.511534E-3,-2.3724947E-3,3.4387794E-3,1.0356954E-2,1.48914745E-2,2.2966051E-2,1.3413168E-2,3.7962932E-2,1.5610707E-2,5.9053272E-2],"categories":[],"categories_nodes":[],"categories_segments":[],"categories_sizes":[],"default_left":[0,0,0,0,0,0,0,0,0,0,0,0,0,0,0,0,0,0,0,0,0,0,0,0,0,0,0,0,0],"id":31,"left_children":[1,3,5,7,9,11,13,15,17,19,21,23,25,27,-1,-1,-1,-1,-1,-1,-1,-1,-1,-1,-1,-1,-1,-1,-1],"loss_changes":[1.3871669E2,2.8846638E1,2.5477722E1,4.234432E0,4.195137E0,3.167801E0,3.2137299E0,6.9971085E-1,6.95879E-1,6.265693E-1,5.922363E-1,3.049202E-1,3.6095428E-1,1.06033325E-1,0E0,0E0,0E0,0E0,0E0,0E0,0E0,0E0,0E0,0E0,0E0,0E0,0E0,0E0,0E0],"parents":[2147483647,0,0,1,1,2,2,3,3,4,4,5,5,6,6,7,7,8,8,9,9,10,10,11,11,12,12,13,13],"right_children":[2,4,6,8,10,12,14,16,18,20,22,24,26,28,-1,-1,-1,-1,-1,-1,-1,-1,-1,-1,-1,-1,-1,-1,-1],"split_conditions":[4.969026E0,2.68E0,8.38E0,1.4566594E0,3.71385E0,6.328018E0,1.1173647E1,5.464691E-1,2.0954049E0,3.1275742E0,4.2337985E0,5.297103E0,1.8904613E1,4.43E-1,9.3252264E-2,-4.0883143E-2,-2.7356038E-2,-1.978735E-2,-1.3349198E-2,-8.511534E-3,-2.3724947E-3,3.4387794E-3,1.0356954E-2,1.48914745E-2,2.2966051E-2,1.3413168E-2,3.7962932E-2,1.5610707E-2,5.9053272E-2],"split_indices":[22,12,12,22,22,23,27,8,27,22,23,27,2,19,0,0,0,0,0,0,0,0,0,0,0,0,0,0,0],"split_type":[0,0,0,0,0,0,0,0,0,0,0,0,0,0,0,0,0,0,0,0,0,0,0,0,0,0,0,0,0],"sum_hessian":[7.83E2,6.06E2,1.77E2,3.07E2,2.99E2,1.29E2,4.8E1,1.07E2,2E2,1.73E2,1.26E2,7.6E1,5.3E1,3.4E1,1.4E1,1.6E1,9.1E1,1.17E2,8.3E1,7E1,1.03E2,6.1E1,6.5E1,2.7E1,4.9E1,3E0,5E1,1E0,3.3E1],"tree_param":{"num_deleted":"0","num_feature":"60","num_nodes":"29","size_leaf_vector":"1"}},{"base_weights":[3.004908E-3,-1.7440653E-1,8.582645E-1,-3.872763E-1,6.784299E-2,6.201099E-1,1.4224843E0,-5.165358E-1,-2.746981E-1,-3.97851E-2,2.0029649E-1,5.027456E-1,8.10295E-1,1.2193506E0,9.820568E-2,-3.7242305E-2,-2.4011528E-2,-1.7366868E-2,-1.0951017E-2,-4.1885627E-3,2.9974428E-3,6.4395308E-3,1.3600731E-2,1.9026762E-2,2.8495852E-2,4.1068166E-2,1.0849297E-2,2.3903457E-2,6.2699415E-2],"categories":[],"categories_nodes":[],"categories_segments":[],"categories_sizes":[],"default_left":[0,0,0,0,0,0,0,0,0,0,0,0,0,0,0,0,0,0,0,0,0,0,0,0,0,0,0,0,0],"id":32,"left_children":[1,3,5,7,9,11,13,15,17,19,21,23,25,27,-1,-1,-1,-1,-1,-1,-1,-1,-1,-1,-1,-1,-1,-1,-1],"loss_changes":[1.1834956E2,3.3338936E1,1.7123688E1,4.8639297E0,4.3274508E0,1.7354393E0,1.8959732E0,9.602356E-1,6.761818E-1,7.4202335E-1,6.624112E-1,2.920885E-1,5.1618576E-2,1.9646835E-1,0E0,0E0,0E0,0E0,0E0,0E0,0E0,0E0,0E0,0E0,0E0,0E0,0E0,0E0,0E0],"parents":[2147483647,0,0,1,1,2,2,3,3,4,4,5,5,6,6,7,7,8,8,9,9,10,10,11,11,12,12,13,13],"right_children":[2,4,6,8,10,12,14,16,18,20,22,24,26,28,-1,-1,-1,-1,-1,-1,-1,-1,-1,-1,-1,-1,-1,-1,-1],"split_conditions":[5.5E0,2.95E0,8.933028E0,1.74E0,4.004074E0,7.110805E0,1.144E1,6E-1,2.2084036E0,3.7671854E0,4.65E0,6.009527E0,8.207317E0,7.4028163E0,9.820568E-2,-3.7242305E-2,-2.4011528E-2,-1.7366868E-2,-1.0951017E-2,-4.1885627E-3,2.9974428E-3,6.4395308E-3,1.3600731E-2,1.9026762E-2,2.8495852E-2,4.1068166E-2,1.0849297E-2,2.3903457E-2,6.2699415E-2],"split_indices":[12,12,27,12,22,23,12,12,23,23,12,27,1,7,0,0,0,0,0,0,0,0,0,0,0,0,0,0,0],"split_type":[0,0,0,0,0,0,0,0,0,0,0,0,0,0,0,0,0,0,0,0,0,0,0,0,0,0,0,0,0],"sum_hessian":[7.78E2,6.45E2,1.33E2,3.43E2,3.02E2,9.5E1,3.8E1,1.58E2,1.85E2,1.67E2,1.35E2,6.1E1,3.4E1,3E1,8E0,1.9E1,1.39E2,7.8E1,1.07E2,1.16E2,5.1E1,6.9E1,6.6E1,2.4E1,3.7E1,3.3E1,1E0,2E0,2.8E1],"tree_param":{"num_deleted":"0","num_feature":"60","num_nodes":"29","size_leaf_vector":"1"}},{"base_weights":[1.1769337E-2,-1.8653873E-1,7.523671E-1,-3.6862305E-1,2.6014233E-2,5.422886E-1,1.3406779E0,-5.196204E-1,-2.8481513E-1,-6.246992E-2,1.4283188E-1,3.8412118E-1,6.993448E-1,1.084951E0,9.554466E-2,-3.4350317E-2,-2.3922488E-2,-1.6869461E-2,-1.0876622E-2,-4.9852366E-3,1.8660763E-4,3.9890776E-3,1.0437793E-2,1.6062487E-2,2.3467533E-2,2.8200066E-2,4.0606443E-2,1.5683461E-2,5.498564E-2],"categories":[],"categories_nodes":[],"categories_segments":[],"categories_sizes":[],"default_left":[0,0,0,0,0,0,0,0,0,0,0,0,0,0,0,0,0,0,0,0,0,0,0,0,0,0,0,0,0],"id":33,"left_children":[1,3,5,7,9,11,13,15,17,19,21,23,25,27,-1,-1,-1,-1,-1,-1,-1,-1,-1,-1,-1,-1,-1,-1,-1],"loss_changes":[1.1543056E2,2.4005177E1,1.9789146E1,4.078701E0,2.975501E0,2.8116684E0,4.197006E0,4.8448563E-1,6.9420624E-1,4.046356E-1,4.987545E-1,1.9216442E-1,4.7309685E-1,1.9386292E-2,0E0,0E0,0E0,0E0,0E0,0E0,0E0,0E0,0E0,0E0,0E0,0E0,0E0,0E0,0E0],"parents":[2147483647,0,0,1,1,2,2,3,3,4,4,5,5,6,6,7,7,8,8,9,9,10,10,11,11,12,12,13,13],"right_children":[2,4,6,8,10,12,14,16,18,20,22,24,26,28,-1,-1,-1,-1,-1,-1,-1,-1,-1,-1,-1,-1,-1,-1,-1],"split_conditions":[5.1064053E0,2.8420622E0,8.625574E0,1.4718599E0,3.8444967E0,6.28E0,1.111E1,7E-1,2.2084036E0,3.57E0,4.43E0,3E0,7.22E0,5.70522E0,9.554466E-2,-3.4350317E-2,-2.3922488E-2,-1.6869461E-2,-1.0876622E-2,-4.9852366E-3,1.8660763E-4,3.9890776E-3,1.0437793E-2,1.6062487E-2,2.3467533E-2,2.8200066E-2,4.0606443E-2,1.5683461E-2,5.498564E-2],"split_indices":[23,23,23,23,23,12,12,12,23,12,12,41,12,7,0,0,0,0,0,0,0,0,0,0,0,0,0,0,0],"split_type":[0,0,0,0,0,0,0,0,0,0,0,0,0,0,0,0,0,0,0,0,0,0,0,0,0,0,0,0,0],"sum_hessian":[7.84E2,6.19E2,1.65E2,3.33E2,2.86E2,1.23E2,4.2E1,1.17E2,2.16E2,1.63E2,1.23E2,6.3E1,6E1,3.1E1,1.1E1,2E1,9.7E1,1.19E2,9.7E1,1.04E2,5.9E1,6.4E1,5.9E1,3.9E1,2.4E1,3E1,3E1,1E0,3E1],"tree_param":{"num_deleted":"0","num_feature":"60","num_nodes":"29","size_leaf_vector":"1"}},{"base_weights":[-7.7928687E-3,-1.8015543E-1,7.161818E-1,-3.512719E-1,3.2255232E-2,5.346963E-1,1.3956037E0,-4.617488E-1,-2.4617869E-1,-5.4763988E-2,1.4518873E-1,3.7238863E-1,7.13541E-1,1.0798737E0,9.0276E-2,-3.4799095E-2,-2.1635247E-2,-1.4728084E-2,-9.208644E-3,-4.0154476E-3,1.9381285E-3,5.3562564E-3,1.2980754E-2,1.3001382E-2,2.0657292E-2,3.683842E-2,1.6463384E-2,5.521452E-2,1.5398956E-2],"categories":[],"categories_nodes":[],"categories_segments":[],"categories_sizes":[],"default_left":[0,0,0,0,0,0,0,0,0,0,0,0,0,0,0,0,0,0,0,0,0,0,0,0,0,0,0,0,0],"id":34,"left_children":[1,3,5,7,9,11,13,15,17,19,21,23,25,27,-1,-1,-1,-1,-1,-1,-1,-1,-1,-1,-1,-1,-1,-1,-1],"loss_changes":[9.733741E1,2.2909912E1,1.7749565E1,3.9383507E0,2.7792735E0,3.2176247E0,2.062374E0,8.485565E-1,4.8875427E-1,3.853742E-1,5.079124E-1,1.902399E-1,2.572441E-1,3.6842346E-2,0E0,0E0,0E0,0E0,0E0,0E0,0E0,0E0,0E0,0E0,0E0,0E0,0E0,0E0,0E0],"parents":[2147483647,0,0,1,1,2,2,3,3,4,4,5,5,6,6,7,7,8,8,9,9,10,10,11,11,12,12,13,13],"right_children":[2,4,6,8,10,12,14,16,18,20,22,24,26,28,-1,-1,-1,-1,-1,-1,-1,-1,-1,-1,-1,-1,-1,-1,-1],"split_conditions":[5.1064053E0,2.883705E0,9.361925E0,1.7044458E0,4.0534244E0,6.45E0,1.111E1,5.345256E-1,2.3132355E0,3.8444967E0,4.969026E0,5.0399156E0,3.28E0,8.1E-2,9.0276E-2,-3.4799095E-2,-2.1635247E-2,-1.4728084E-2,-9.208644E-3,-4.0154476E-3,1.9381285E-3,5.3562564E-3,1.2980754E-2,1.3001382E-2,2.0657292E-2,3.683842E-2,1.6463384E-2,5.521452E-2,1.5398956E-2],"split_indices":[23,23,23,23,27,12,12,22,23,23,22,27,17,57,0,0,0,0,0,0,0,0,0,0,0,0,0,0,0],"split_type":[0,0,0,0,0,0,0,0,0,0,0,0,0,0,0,0,0,0,0,0,0,0,0,0,0,0,0,0,0],"sum_hessian":[7.78E2,6.29E2,1.49E2,3.48E2,2.81E2,1.19E2,3E1,1.68E2,1.8E2,1.59E2,1.22E2,6.4E1,5.5E1,1.9E1,1.1E1,1.6E1,1.52E2,9.9E1,8.1E1,1.25E2,3.4E1,9.3E1,2.9E1,1.9E1,4.5E1,5.1E1,4E0,1.8E1,1E0],"tree_param":{"num_deleted":"0","num_feature":"60","num_nodes":"29","size_leaf_vector":"1"}},{"base_weights":[9.821643E-4,-1.6149944E-1,6.8319035E-1,-3.4012362E-1,3.238102E-2,5.0592566E-1,1.3043776E0,-4.9746785E-1,-2.7183515E-1,-6.826849E-2,1.3031192E-1,3.6910382E-1,6.528966E-1,1.0700462E0,9.18202E-2,-3.3110667E-2,-2.295587E-2,-1.646016E-2,-1.048663E-2,-5.241146E-3,-7.0418307E-4,1.5166972E-3,8.458498E-3,1.5392979E-2,2.317269E-2,2.750445E-2,3.8329948E-2,2.0150883E-2,5.5441976E-2],"categories":[],"categories_nodes":[],"categories_segments":[],"categories_sizes":[],"default_left":[0,0,0,0,0,0,0,0,0,0,0,0,0,0,0,0,0,0,0,0,0,0,0,0,0,0,0,0,0],"id":35,"left_children":[1,3,5,7,9,11,13,15,17,19,21,23,25,27,-1,-1,-1,-1,-1,-1,-1,-1,-1,-1,-1,-1,-1,-1,-1],"loss_changes":[8.989582E1,2.2694805E1,1.651796E1,3.5287476E0,3.1137555E0,2.232401E0,2.2737617E0,3.4040833E-1,7.860031E-1,3.0751216E-1,6.164603E-1,2.3869514E-1,2.5629044E-1,2.2590256E-1,0E0,0E0,0E0,0E0,0E0,0E0,0E0,0E0,0E0,0E0,0E0,0E0,0E0,0E0,0E0],"parents":[2147483647,0,0,1,1,2,2,3,3,4,4,5,5,6,6,7,7,8,8,9,9,10,10,11,11,12,12,13,13],"right_children":[2,4,6,8,10,12,14,16,18,20,22,24,26,28,-1,-1,-1,-1,-1,-1,-1,-1,-1,-1,-1,-1,-1,-1,-1],"split_conditions":[5.297103E0,2.8782322E0,8.865619E0,1.36E0,3.71385E0,6.45E0,1.144E1,5.345256E-1,2.0296533E0,3.3806276E0,4.00269E0,6.0782957E0,7.6139703E0,5.70522E0,9.18202E-2,-3.3110667E-2,-2.295587E-2,-1.646016E-2,-1.048663E-2,-5.241146E-3,-7.0418307E-4,1.5166972E-3,8.458498E-3,1.5392979E-2,2.317269E-2,2.750445E-2,3.8329948E-2,2.0150883E-2,5.5441976E-2],"split_indices":[27,22,22,12,22,12,12,22,22,22,27,22,27,7,0,0,0,0,0,0,0,0,0,0,0,0,0,0,0],"split_type":[0,0,0,0,0,0,0,0,0,0,0,0,0,0,0,0,0,0,0,0,0,0,0,0,0,0,0,0,0],"sum_hessian":[8.09E2,6.54E2,1.55E2,3.4E2,3.14E2,1.22E2,3.3E1,1.01E2,2.39E2,1.55E2,1.59E2,6.5E1,5.7E1,2.5E1,8E0,1.6E1,8.5E1,1.22E2,1.17E2,9.2E1,6.3E1,4.5E1,1.14E2,4.2E1,2.3E1,3.3E1,2.4E1,2E0,2.3E1],"tree_param":{"num_deleted":"0","num_feature":"60","num_nodes":"29","size_leaf_vector":"1"}},{"base_weights":[1.06240455E-2,-1.4585146E-1,7.208789E-1,-3.255548E-1,3.6605567E-2,5.7077426E-1,1.3825252E0,-4.6425918E-1,-2.597993E-1,-5.1033292E-2,1.4449604E-1,4.115703E-1,7.42994E-1,2.3791134E-2,1.4845381E0,-3.109771E-2,-2.147611E-2,-1.5402461E-2,-9.989194E-3,-6.6168057E-3,-6.1721454E-4,3.6503838E-3,9.983834E-3,1.7478649E-2,2.6214305E-2,2.9188266E-2,4.254591E-2,5.813833E-2,9.100615E-2],"categories":[],"categories_nodes":[],"categories_segments":[],"categories_sizes":[],"default_left":[0,0,0,0,0,0,0,0,0,0,0,0,0,0,0,0,0,0,0,0,0,0,0,0,0,0,0,0,0],"id":36,"left_children":[1,3,5,7,9,11,13,15,17,19,21,23,25,-1,27,-1,-1,-1,-1,-1,-1,-1,-1,-1,-1,-1,-1,-1,-1],"loss_changes":[8.556986E1,2.0701233E1,1.3015846E1,2.779728E0,2.976369E0,2.8472862E0,1.6060104E0,2.8611946E-1,5.697279E-1,5.456878E-1,5.4163504E-1,2.4998474E-1,4.3123245E-1,0E0,2.5922012E-1,0E0,0E0,0E0,0E0,0E0,0E0,0E0,0E0,0E0,0E0,0E0,0E0,0E0,0E0],"parents":[2147483647,0,0,1,1,2,2,3,3,4,4,5,5,6,6,7,7,8,8,9,9,10,10,11,11,12,12,14,14],"right_children":[2,4,6,8,10,12,14,16,18,20,22,24,26,-1,28,-1,-1,-1,-1,-1,-1,-1,-1,-1,-1,-1,-1,-1,-1],"split_conditions":[5.5603633E0,2.717032E0,9.721407E0,1.4566594E0,4E0,7.110805E0,5.17E0,5.2045316E-1,2.0815408E0,3.1275742E0,4.5185113E0,6.884573E0,8.036463E0,2.3791134E-2,1.144E1,-3.109771E-2,-2.147611E-2,-1.5402461E-2,-9.989194E-3,-6.6168057E-3,-6.1721454E-4,3.6503838E-3,9.983834E-3,1.7478649E-2,2.6214305E-2,2.9188266E-2,4.254591E-2,5.813833E-2,9.100615E-2],"split_indices":[23,27,23,22,12,23,37,27,23,22,22,27,27,0,12,0,0,0,0,0,0,0,0,0,0,0,0,0,0],"split_type":[0,0,0,0,0,0,0,0,0,0,0,0,0,0,0,0,0,0,0,0,0,0,0,0,0,0,0,0,0],"sum_hessian":[7.68E2,6.3E2,1.38E2,3.17E2,3.13E2,1.14E2,2.4E1,1E2,2.17E2,1.73E2,1.4E2,6.1E1,5.3E1,3E0,2.1E1,1.5E1,8.5E1,1.18E2,9.9E1,5.5E1,1.18E2,6.2E1,7.8E1,4.2E1,1.9E1,2.4E1,2.9E1,1.3E1,8E0],"tree_param":{"num_deleted":"0","num_feature":"60","num_nodes":"29","size_leaf_vector":"1"}},{"base_weights":[9.549677E-3,-1.5479267E-1,5.9329164E-1,-3.2402346E-1,-2.896396E-3,3.897857E-1,1.0191172E0,-4.654637E-1,-2.6574537E-1,-6.6828586E-2,1.1814397E-1,3.0483985E-1,5.031822E-1,8.9168733E-1,8.2815364E-2,-3.073428E-2,-2.1448491E-2,-1.5432197E-2,-1.0438367E-2,-5.8172834E-3,-4.5669443E-4,3.987626E-3,9.3979975E-3,1.3457537E-3,1.5630914E-2,2.6853299E-2,1.31197125E-2,2.6295144E-2,4.657104E-2],"categories":[],"categories_nodes":[],"categories_segments":[],"categories_sizes":[],"default_left":[0,0,0,0,0,0,0,0,0,0,0,0,0,0,0,0,0,0,0,0,0,0,0,0,0,0,0,0,0],"id":37,"left_children":[1,3,5,7,9,11,13,15,17,19,21,23,25,27,-1,-1,-1,-1,-1,-1,-1,-1,-1,-1,-1,-1,-1,-1,-1],"loss_changes":[7.511185E1,1.5705136E1,1.4507946E1,2.2584972E0,2.5073907E0,9.832535E-1,2.9889336E0,1.8831062E-1,4.4152927E-1,6.0459447E-1,2.852075E-1,1.4291382E-1,2.5885868E-1,2.0778275E-1,0E0,0E0,0E0,0E0,0E0,0E0,0E0,0E0,0E0,0E0,0E0,0E0,0E0,0E0,0E0],"parents":[2147483647,0,0,1,1,2,2,3,3,4,4,5,5,6,6,7,7,8,8,9,9,10,10,11,11,12,12,13,13],"right_children":[2,4,6,8,10,12,14,16,18,20,22,24,26,28,-1,-1,-1,-1,-1,-1,-1,-1,-1,-1,-1,-1,-1,-1,-1],"split_conditions":[5.1064053E0,2.5787427E0,8.036463E0,1.27E0,4.05E0,6.413131E0,1.144E1,4.9414438E-1,1.9553702E0,3.3440716E0,4.65E0,4.56E0,3E0,9.259478E0,8.2815364E-2,-3.073428E-2,-2.1448491E-2,-1.5432197E-2,-1.0438367E-2,-5.8172834E-3,-4.5669443E-4,3.987626E-3,9.3979975E-3,1.3457537E-3,1.5630914E-2,2.6853299E-2,1.31197125E-2,2.6295144E-2,4.657104E-2],"split_indices":[23,23,27,12,12,23,12,8,27,23,12,11,6,21,0,0,0,0,0,0,0,0,0,0,0,0,0,0,0],"split_type":[0,0,0,0,0,0,0,0,0,0,0,0,0,0,0,0,0,0,0,0,0,0,0,0,0,0,0,0,0],"sum_hessian":[7.81E2,6.1E2,1.71E2,2.88E2,3.22E2,1.17E2,5.4E1,8.2E1,2.06E2,2.11E2,1.11E2,6.9E1,4.8E1,4.7E1,7E0,1.3E1,6.9E1,1.15E2,9.1E1,1.13E2,9.8E1,7.3E1,3.8E1,2E0,6.7E1,4.1E1,7E0,6E0,4.1E1],"tree_param":{"num_deleted":"0","num_feature":"60","num_nodes":"29","size_leaf_vector":"1"}},{"base_weights":[8.546579E-4,-1.6510727E-1,5.1445866E-1,-2.9795712E-1,-3.168892E-3,3.1495124E-1,9.0231776E-1,-4.239541E-1,-2.403783E-1,-1.00466974E-1,4.6322614E-2,2.3168497E-1,4.1974187E-1,7.504991E-1,6.954601E-2,-2.8495967E-2,-1.9468322E-2,-1.3794913E-2,-8.775178E-3,-5.6220014E-3,-2.1284493E-4,7.6341303E-4,6.594639E-3,3.7123E-3,1.2233792E-2,2.2504749E-2,1.1907177E-2,3.94168E-2,2.2429213E-2],"categories":[],"categories_nodes":[],"categories_segments":[],"categories_sizes":[],"default_left":[0,0,0,0,0,0,0,0,0,0,0,0,0,0,0,0,0,0,0,0,0,0,0,0,0,0,0,0,0],"id":38,"left_children":[1,3,5,7,9,11,13,15,17,19,21,23,25,27,-1,-1,-1,-1,-1,-1,-1,-1,-1,-1,-1,-1,-1,-1,-1],"loss_changes":[6.6315414E1,1.2648985E1,1.4418163E1,2.2413788E0,1.2855579E0,1.0108938E0,3.7035675E0,2.8295326E-1,4.6775246E-1,1.0319483E-1,4.68333E-1,1.3113832E-1,1.9597626E-1,2.2896385E-1,0E0,0E0,0E0,0E0,0E0,0E0,0E0,0E0,0E0,0E0,0E0,0E0,0E0,0E0,0E0],"parents":[2147483647,0,0,1,1,2,2,3,3,4,4,5,5,6,6,7,7,8,8,9,9,10,10,11,11,12,12,13,13],"right_children":[2,4,6,8,10,12,14,16,18,20,22,24,26,28,-1,-1,-1,-1,-1,-1,-1,-1,-1,-1,-1,-1,-1,-1,-1],"split_conditions":[4.68E0,2.7069418E0,7.57E0,1.3752362E0,3.37E0,5.9460945E0,1.1173647E1,5.345256E-1,2.192391E0,3.5484655E0,4.341807E0,-2.4E0,3E0,6.4E0,6.954601E-2,-2.8495967E-2,-1.9468322E-2,-1.3794913E-2,-8.775178E-3,-5.6220014E-3,-2.1284493E-4,7.6341303E-4,6.594639E-3,3.7123E-3,1.2233792E-2,2.2504749E-2,1.1907177E-2,3.94168E-2,2.2429213E-2],"split_indices":[12,27,12,22,12,22,27,22,27,27,27,32,6,42,0,0,0,0,0,0,0,0,0,0,0,0,0,0,0],"split_type":[0,0,0,0,0,0,0,0,0,0,0,0,0,0,0,0,0,0,0,0,0,0,0,0,0,0,0,0,0],"sum_hessian":[7.76E2,5.87E2,1.89E2,3.22E2,2.65E2,1.26E2,6.3E1,9.9E1,2.23E2,8.9E1,1.76E2,7.2E1,5.4E1,5E1,1.3E1,1.6E1,8.3E1,1.42E2,8.1E1,7.9E1,1E1,1.3E2,4.6E1,6E0,6.6E1,4.5E1,9E0,4.3E1,7E0],"tree_param":{"num_deleted":"0","num_feature":"60","num_nodes":"29","size_leaf_vector":"1"}},{"base_weights":[1.42699005E-2,-1.1659796E-1,6.663282E-1,-2.7297238E-1,4.016255E-2,5.00625E-1,1.2525272E0,-3.7364832E-1,-2.1080291E-1,-4.4553526E-2,1.452895E-1,3.6909842E-1,6.9166297E-1,9.783248E-1,7.967093E-2,-2.3960937E-2,-1.693046E-2,-1.2375333E-2,-7.940448E-3,-4.8409747E-3,-1.6245376E-5,4.870663E-3,1.1501787E-2,1.612619E-2,2.6231948E-2,1.6080802E-2,3.5709612E-2,5.0191022E-2,1.4259863E-2],"categories":[],"categories_nodes":[],"categories_segments":[],"categories_sizes":[],"default_left":[0,0,0,0,0,0,0,0,0,0,0,0,0,0,0,0,0,0,0,0,0,0,0,0,0,0,0,0,0],"id":39,"left_children":[1,3,5,7,9,11,13,15,17,19,21,23,25,27,-1,-1,-1,-1,-1,-1,-1,-1,-1,-1,-1,-1,-1,-1,-1],"loss_changes":[6.1773796E1,1.4792503E1,1.1126289E1,1.8114433E0,2.6960678E0,2.1568584E0,8.714256E-1,2.5942993E-1,3.213768E-1,3.88326E-1,5.25331E-1,2.5820255E-1,8.71048E-2,1.4131546E-2,0E0,0E0,0E0,0E0,0E0,0E0,0E0,0E0,0E0,0E0,0E0,0E0,0E0,0E0,0E0],"parents":[2147483647,0,0,1,1,2,2,3,3,4,4,5,5,6,6,7,7,8,8,9,9,10,10,11,11,12,12,13,13],"right_children":[2,4,6,8,10,12,14,16,18,20,22,24,26,28,-1,-1,-1,-1,-1,-1,-1,-1,-1,-1,-1,-1,-1,-1,-1],"split_conditions":[5.64E0,2.776838E0,9.700319E0,1.5368611E0,3.9969766E0,7.6139703E0,1.1339115E1,8.3E-1,2.192391E0,3.4850955E0,4.909806E0,2.28E0,4.67E-1,5.671875E0,7.967093E-2,-2.3960937E-2,-1.693046E-2,-1.2375333E-2,-7.940448E-3,-4.8409747E-3,-1.6245376E-5,4.870663E-3,1.1501787E-2,1.612619E-2,2.6231948E-2,1.6080802E-2,3.5709612E-2,5.0191022E-2,1.4259863E-2],"split_indices":[12,27,27,23,22,27,23,12,27,27,27,38,19,1,0,0,0,0,0,0,0,0,0,0,0,0,0,0,0],"split_type":[0,0,0,0,0,0,0,0,0,0,0,0,0,0,0,0,0,0,0,0,0,0,0,0,0,0,0,0,0],"sum_hessian":[7.22E2,6.02E2,1.2E2,3.01E2,3.01E2,9.5E1,2.5E1,1.13E2,1.88E2,1.67E2,1.34E2,5.8E1,3.7E1,1.6E1,9E0,2.5E1,8.8E1,1.08E2,8E1,7.6E1,9.1E1,8.7E1,4.7E1,4.7E1,1.1E1,3E0,3.4E1,1.5E1,1E0],"tree_param":{"num_deleted":"0","num_feature":"60","num_nodes":"29","size_leaf_vector":"1"}},{"base_weights":[1.2033765E-3,-1.4506936E-1,4.5464253E-1,-2.9884982E-1,-2.918947E-2,3.1098458E-1,8.731518E-1,-4.0199342E-1,-2.4612679E-1,-1.2044737E-1,3.2395996E-2,2.5823528E-1,4.7249743E-1,7.3881906E-1,8.451721E-2,-2.8706422E-2,-1.8409524E-2,-1.2826561E-2,-6.8698465E-3,-7.114152E-3,-3.9387085E-3,-5.639325E-4,3.9894474E-3,1.0323661E-2,1.5811017E-2,1.4171192E-2,2.5988651E-2,8.510888E-3,3.741522E-2],"categories":[],"categories_nodes":[],"categories_segments":[],"categories_sizes":[],"default_left":[0,0,0,0,0,0,0,0,0,0,0,0,0,0,0,0,0,0,0,0,0,0,0,0,0,0,0,0,0],"id":40,"left_children":[1,3,5,7,9,11,13,15,17,19,21,23,25,27,-1,-1,-1,-1,-1,-1,-1,-1,-1,-1,-1,-1,-1,-1,-1],"loss_changes":[5.1667416E1,1.0487293E1,1.1151676E1,1.2768841E0,1.897896E0,1.0963001E0,4.0203743E0,2.7737904E-1,1.570692E-1,1.1254668E-1,4.190137E-1,2.6486588E-1,1.5659475E-1,1.0454178E-1,0E0,0E0,0E0,0E0,0E0,0E0,0E0,0E0,0E0,0E0,0E0,0E0,0E0,0E0,0E0],"parents":[2147483647,0,0,1,1,2,2,3,3,4,4,5,5,6,6,7,7,8,8,9,9,10,10,11,11,12,12,13,13],"right_children":[2,4,6,8,10,12,14,16,18,20,22,24,26,28,-1,-1,-1,-1,-1,-1,-1,-1,-1,-1,-1,-1,-1,-1,-1],"split_conditions":[4.68E0,2.275087E0,8.13E0,1.27E0,3.200857E0,6.9002733E0,1.144E1,4.7E-1,2.05344E1,1.1E0,3.92E0,5.5E0,2.3473696E1,-2E0,8.451721E-2,-2.8706422E-2,-1.8409524E-2,-1.2826561E-2,-6.8698465E-3,-7.114152E-3,-3.9387085E-3,-5.639325E-4,3.9894474E-3,1.0323661E-2,1.5811017E-2,1.4171192E-2,2.5988651E-2,8.510888E-3,3.741522E-2],"split_indices":[12,22,12,12,22,22,12,12,2,17,12,12,10,32,0,0,0,0,0,0,0,0,0,0,0,0,0,0,0],"split_type":[0,0,0,0,0,0,0,0,0,0,0,0,0,0,0,0,0,0,0,0,0,0,0,0,0,0,0,0,0],"sum_hessian":[7.77E2,5.88E2,1.89E2,2.52E2,3.36E2,1.42E2,4.7E1,8.3E1,1.69E2,1.35E2,2.01E2,1.09E2,3.3E1,4.2E1,5E0,1.1E1,7.2E1,1.53E2,1.6E1,8.7E1,4.8E1,1.05E2,9.6E1,6E1,4.9E1,8E0,2.5E1,1E0,4.1E1],"tree_param":{"num_deleted":"0","num_feature":"60","num_nodes":"29","size_leaf_vector":"1"}},{"base_weights":[1.0054251E-2,-1.1850504E-1,5.283736E-1,-2.391409E-1,3.9960776E-2,3.6901763E-1,9.219985E-1,-3.1871852E-1,-1.6087998E-1,-4.180212E-3,1.3999313E-1,2.4565352E-1,4.6106824E-1,7.5392455E-1,6.1415263E-2,-2.0506427E-2,-1.389075E-2,-1.0063044E-2,-6.617998E-3,-1.0257689E-3,6.0375533E-3,9.770399E-3,6.02443E-3,2.3147226E-3,1.3338788E-2,2.3971552E-2,1.0335831E-2,2.0378327E-2,4.024281E-2],"categories":[],"categories_nodes":[],"categories_segments":[],"categories_sizes":[],"default_left":[0,0,0,0,0,0,0,0,0,0,0,0,0,0,0,0,0,0,0,0,0,0,0,0,0,0,0,0,0],"id":41,"left_children":[1,3,5,7,9,11,13,15,17,19,21,23,25,27,-1,-1,-1,-1,-1,-1,-1,-1,-1,-1,-1,-1,-1,-1,-1],"loss_changes":[5.19711E1,1.1957469E1,9.382366E0,2.1595993E0,1.197193E0,1.1585789E0,1.3391647E0,5.403843E-1,1.8181181E-1,3.881834E-1,6.616533E-2,1.9819546E-1,1.9514179E-1,2.188263E-1,0E0,0E0,0E0,0E0,0E0,0E0,0E0,0E0,0E0,0E0,0E0,0E0,0E0,0E0,0E0],"parents":[2147483647,0,0,1,1,2,2,3,3,4,4,5,5,6,6,7,7,8,8,9,9,10,10,11,11,12,12,13,13],"right_children":[2,4,6,8,10,12,14,16,18,20,22,24,26,28,-1,-1,-1,-1,-1,-1,-1,-1,-1,-1,-1,-1,-1,-1,-1],"split_conditions":[5.297103E0,3.0267932E0,8.84343E0,1.8099508E0,4.341807E0,6.297199E0,1.1037274E1,1.0193273E0,2.275087E0,4.5185113E0,-4.4E0,1.103E2,4.94E0,5.17E0,6.1415263E-2,-2.0506427E-2,-1.389075E-2,-1.0063044E-2,-6.617998E-3,-1.0257689E-3,6.0375533E-3,9.770399E-3,6.02443E-3,2.3147226E-3,1.3338788E-2,2.3971552E-2,1.0335831E-2,2.0378327E-2,4.024281E-2],"split_indices":[27,27,27,22,27,22,22,27,22,22,42,18,30,37,0,0,0,0,0,0,0,0,0,0,0,0,0,0,0],"split_type":[0,0,0,0,0,0,0,0,0,0,0,0,0,0,0,0,0,0,0,0,0,0,0,0,0,0,0,0,0],"sum_hessian":[7.78E2,6.24E2,1.54E2,3.54E2,2.7E2,1.11E2,4.3E1,1.74E2,1.8E2,1.88E2,8.2E1,4.9E1,6.2E1,3E1,1.3E1,5.1E1,1.23E2,7.2E1,1.08E2,1.67E2,2.1E1,1.9E1,6.3E1,5E0,4.4E1,5.7E1,5E0,5E0,2.5E1],"tree_param":{"num_deleted":"0","num_feature":"60","num_nodes":"29","size_leaf_vector":"1"}},{"base_weights":[9.644857E-3,-1.0672386E-1,5.554801E-1,-2.267328E-1,4.65499E-2,3.8648877E-1,9.2449677E-1,-3.2116944E-1,-1.6603541E-1,-1.0273569E-2,1.4950311E-1,3.0697456E-1,5.1402813E-1,7.6269794E-1,6.555695E-2,-2.1490058E-2,-1.4300424E-2,-1.0066824E-2,-6.54135E-3,-1.9299306E-3,2.7916664E-3,-3.6384028E-3,8.098379E-3,1.6016843E-2,4.66248E-3,2.6236778E-2,3.7493587E-3,1.9611215E-2,4.0080737E-2],"categories":[],"categories_nodes":[],"categories_segments":[],"categories_sizes":[],"default_left":[0,0,0,0,0,0,0,0,0,0,0,0,0,0,0,0,0,0,0,0,0,0,0,0,0,0,0,0,0],"id":42,"left_children":[1,3,5,7,9,11,13,15,17,19,21,23,25,27,-1,-1,-1,-1,-1,-1,-1,-1,-1,-1,-1,-1,-1,-1,-1],"loss_changes":[4.915881E1,1.1746067E1,8.123737E0,1.9987526E0,1.6454306E0,8.0561924E-1,1.6274414E0,4.0799713E-1,2.4709606E-1,3.4294662E-1,2.8883505E-1,1.4433575E-1,1.2518692E-1,1.4695168E-1,0E0,0E0,0E0,0E0,0E0,0E0,0E0,0E0,0E0,0E0,0E0,0E0,0E0,0E0,0E0],"parents":[2147483647,0,0,1,1,2,2,3,3,4,4,5,5,6,6,7,7,8,8,9,9,10,10,11,11,12,12,13,13],"right_children":[2,4,6,8,10,12,14,16,18,20,22,24,26,28,-1,-1,-1,-1,-1,-1,-1,-1,-1,-1,-1,-1,-1,-1,-1],"split_conditions":[5.6473393E0,3.02E0,8.865619E0,1.6232551E0,4.2861004E0,7.110805E0,1.1339115E1,8.019477E-1,2.275087E0,4.00269E0,4.4418607E0,2.835443E0,1.912E-1,6E-1,6.555695E-2,-2.1490058E-2,-1.4300424E-2,-1.0066824E-2,-6.54135E-3,-1.9299306E-3,2.7916664E-3,-3.6384028E-3,8.098379E-3,1.6016843E-2,4.66248E-3,2.6236778E-2,3.7493587E-3,1.9611215E-2,4.0080737E-2],"split_indices":[27,12,22,22,23,23,23,23,22,27,0,3,58,40,0,0,0,0,0,0,0,0,0,0,0,0,0,0,0],"split_type":[0,0,0,0,0,0,0,0,0,0,0,0,0,0,0,0,0,0,0,0,0,0,0,0,0,0,0,0,0],"sum_hessian":[7.72E2,6.37E2,1.35E2,3.57E2,2.8E2,9.4E1,4.1E1,1.38E2,2.19E2,1.81E2,9.9E1,6E1,3.4E1,3.1E1,1E1,3.1E1,1.07E2,1.07E2,1.12E2,1.27E2,5.4E1,5E0,9.4E1,5.6E1,4E0,3.3E1,1E0,4E0,2.7E1],"tree_param":{"num_deleted":"0","num_feature":"60","num_nodes":"29","size_leaf_vector":"1"}},{"base_weights":[4.563555E-3,-1.0615088E-1,4.873698E-1,-2.3115784E-1,1.8005224E-2,3.5141265E-1,9.0073895E-1,-3.2504243E-1,-1.7868322E-1,-3.826685E-2,9.472003E-2,2.5409105E-1,4.6738258E-1,7.396793E-1,6.759276E-2,-2.4791896E-2,-1.5161134E-2,-1.1289062E-2,-7.3428205E-3,-3.6083504E-3,4.0426643E-5,-6.066721E-3,5.2897753E-3,1.4754163E-2,6.411222E-3,7.247911E-3,2.4641061E-2,1.8528892E-2,4.0190335E-2],"categories":[],"categories_nodes":[],"categories_segments":[],"categories_sizes":[],"default_left":[0,0,0,0,0,0,0,0,0,0,0,0,0,0,0,0,0,0,0,0,0,0,0,0,0,0,0,0,0],"id":43,"left_children":[1,3,5,7,9,11,13,15,17,19,21,23,25,27,-1,-1,-1,-1,-1,-1,-1,-1,-1,-1,-1,-1,-1,-1,-1],"loss_changes":[4.1264477E1,9.750958E0,7.7763405E0,1.4839344E0,1.3677654E0,1.1227446E0,1.5430431E0,2.633152E-1,2.711358E-1,2.4247146E-1,3.3348596E-1,2.8205585E-1,3.3046055E-1,3.648739E-1,0E0,0E0,0E0,0E0,0E0,0E0,0E0,0E0,0E0,0E0,0E0,0E0,0E0,0E0,0E0],"parents":[2147483647,0,0,1,1,2,2,3,3,4,4,5,5,6,6,7,7,8,8,9,9,10,10,11,11,12,12,13,13],"right_children":[2,4,6,8,10,12,14,16,18,20,22,24,26,28,-1,-1,-1,-1,-1,-1,-1,-1,-1,-1,-1,-1,-1,-1,-1],"split_conditions":[5.270168E0,2.721492E0,9.029279E0,1.49E0,4.00269E0,6.9002733E0,1.144E1,4.7E-1,1.94E0,3.3806276E0,4.4418607E0,2.24E0,3.583E-1,9.49024E0,6.759276E-2,-2.4791896E-2,-1.5161134E-2,-1.1289062E-2,-7.3428205E-3,-3.6083504E-3,4.0426643E-5,-6.066721E-3,5.2897753E-3,1.4754163E-2,6.411222E-3,7.247911E-3,2.4641061E-2,1.8528892E-2,4.0190335E-2],"split_indices":[22,22,27,12,27,22,12,12,12,22,0,17,55,7,0,0,0,0,0,0,0,0,0,0,0,0,0,0,0],"split_type":[0,0,0,0,0,0,0,0,0,0,0,0,0,0,0,0,0,0,0,0,0,0,0,0,0,0,0,0,0],"sum_hessian":[7.7E2,6.27E2,1.43E2,3.12E2,3.15E2,1.09E2,3.4E1,1.1E2,2.02E2,1.82E2,1.33E2,6.1E1,4.8E1,2.7E1,7E0,1E1,1E2,7.9E1,1.23E2,9.7E1,8.5E1,6E0,1.27E2,4.5E1,1.6E1,4E0,4.4E1,5E0,2.2E1],"tree_param":{"num_deleted":"0","num_feature":"60","num_nodes":"29","size_leaf_vector":"1"}},{"base_weights":[1.7407922E-3,-1.0665311E-1,4.5324546E-1,-2.0809478E-1,2.655735E-2,3.52888E-1,9.4451076E-1,-2.8011325E-1,-1.3486642E-1,-2.5379209E-2,8.545622E-2,2.6652706E-1,5.170028E-1,7.7978456E-1,7.0725664E-2,-2.0919738E-2,-1.2797989E-2,-6.9390195E-3,-1.7250578E-4,-2.1814604E-3,3.0157976E-3,3.0875127E-3,8.7956805E-3,7.756406E-3,1.4883059E-2,1.3827967E-2,2.7135778E-2,4.0871028E-2,1.4702034E-2],"categories":[],"categories_nodes":[],"categories_segments":[],"categories_sizes":[],"default_left":[0,0,0,0,0,0,0,0,0,0,0,0,0,0,0,0,0,0,0,0,0,0,0,0,0,0,0,0,0],"id":44,"left_children":[1,3,5,7,9,11,13,15,17,19,21,23,25,27,-1,-1,-1,-1,-1,-1,-1,-1,-1,-1,-1,-1,-1,-1,-1],"loss_changes":[3.6655727E1,8.167433E0,6.815504E0,1.7711353E0,8.03628E-1,1.5913239E0,7.5510406E-1,4.6738434E-1,8.7991E-2,2.2158268E-1,2.5289595E-1,2.3822594E-1,1.0338783E-1,1.252737E-1,0E0,0E0,0E0,0E0,0E0,0E0,0E0,0E0,0E0,0E0,0E0,0E0,0E0,0E0,0E0],"parents":[2147483647,0,0,1,1,2,2,3,3,4,4,5,5,6,6,7,7,8,8,9,9,10,10,11,11,12,12,13,13],"right_children":[2,4,6,8,10,12,14,16,18,20,22,24,26,28,-1,-1,-1,-1,-1,-1,-1,-1,-1,-1,-1,-1,-1,-1,-1],"split_conditions":[5.3445883E0,2.9964702E0,9.700319E0,1.85E0,4.00269E0,7.484797E0,3.380766E1,6.336637E-1,6.74004E0,3E0,5.0073605E0,5.34E0,9.8E-1,7.716E-1,7.0725664E-2,-2.0919738E-2,-1.2797989E-2,-6.9390195E-3,-1.7250578E-4,-2.1814604E-3,3.0157976E-3,3.0875127E-3,8.7956805E-3,7.756406E-3,1.4883059E-2,1.3827967E-2,2.7135778E-2,4.0871028E-2,1.4702034E-2],"split_indices":[27,22,27,12,27,23,2,8,9,30,23,12,13,59,0,0,0,0,0,0,0,0,0,0,0,0,0,0,0],"split_type":[0,0,0,0,0,0,0,0,0,0,0,0,0,0,0,0,0,0,0,0,0,0,0,0,0,0,0,0,0],"sum_hessian":[7.47E2,6.03E2,1.44E2,3.42E2,2.61E2,1.21E2,2.3E1,1.71E2,1.71E2,1.39E2,1.22E2,8.1E1,4E1,1.9E1,4E0,2.3E1,1.48E2,1.66E2,5E0,1.15E2,2.4E1,9.8E1,2.4E1,1.9E1,6.2E1,5E0,3.5E1,1.7E1,2E0],"tree_param":{"num_deleted":"0","num_feature":"60","num_nodes":"29","size_leaf_vector":"1"}},{"base_weights":[4.0868516E-3,-9.125717E-2,4.635713E-1,-1.9544171E-1,3.956788E-2,3.6851925E-1,1.0144879E0,-3.0639932E-1,-1.5227476E-1,-1.6428364E-2,1.0279072E-1,2.4600129E-1,4.5897922E-1,1.0914302E-2,1.0465943E0,-2.1686563E-2,-1.39248995E-2,-9.933213E-3,-5.8889925E-3,-3.7406532E-3,1.1230898E-3,-2.7557209E-3,5.5964063E-3,1.346564E-2,5.364532E-3,2.8869411E-2,1.9248512E-2,4.2410966E-2,6.963627E-2],"categories":[],"categories_nodes":[],"categories_segments":[],"categories_sizes":[],"default_left":[0,0,0,0,0,0,0,0,0,0,0,0,0,0,0,0,0,0,0,0,0,0,0,0,0,0,0,0,0],"id":45,"left_children":[1,3,5,7,9,11,13,15,17,19,21,23,25,-1,27,-1,-1,-1,-1,-1,-1,-1,-1,-1,-1,-1,-1,-1,-1],"loss_changes":[3.3906734E1,8.74453E0,6.590784E0,1.6632671E0,1.0106575E0,1.1616306E0,2.572422E-1,2.3092651E-1,3.9105368E-1,3.468101E-1,1.9950998E-1,1.360166E-1,3.4733963E-1,0E0,5.4611206E-2,0E0,0E0,0E0,0E0,0E0,0E0,0E0,0E0,0E0,0E0,0E0,0E0,0E0,0E0],"parents":[2147483647,0,0,1,1,2,2,3,3,4,4,5,5,6,6,7,7,8,8,9,9,10,10,11,11,12,12,14,14],"right_children":[2,4,6,8,10,12,14,16,18,20,22,24,26,-1,28,-1,-1,-1,-1,-1,-1,-1,-1,-1,-1,-1,-1,-1,-1],"split_conditions":[5.430473E0,2.9964702E0,4.04E0,1.4108729E0,3.9969766E0,6.9604077E0,1.106E2,4.9414438E-1,2.0149438E0,1.2281E0,4.4418607E0,4.358E-1,1.895E-1,1.0914302E-2,2.4E0,-2.1686563E-2,-1.39248995E-2,-9.933213E-3,-5.8889925E-3,-3.7406532E-3,1.1230898E-3,-2.7557209E-3,5.5964063E-3,1.346564E-2,5.364532E-3,2.8869411E-2,1.9248512E-2,4.2410966E-2,6.963627E-2],"split_indices":[22,22,38,22,22,22,18,8,22,52,0,56,51,0,33,0,0,0,0,0,0,0,0,0,0,0,0,0,0],"split_type":[0,0,0,0,0,0,0,0,0,0,0,0,0,0,0,0,0,0,0,0,0,0,0,0,0,0,0,0,0],"sum_hessian":[7.72E2,6.4E2,1.32E2,3.56E2,2.84E2,1.14E2,1.8E1,9.8E1,2.58E2,1.51E2,1.33E2,5E1,6.4E1,1E0,1.7E1,1.5E1,8.3E1,1.08E2,1.5E2,6E1,9.1E1,7E0,1.26E2,4.2E1,8E0,2.2E1,4.2E1,1.3E1,4E0],"tree_param":{"num_deleted":"0","num_feature":"60","num_nodes":"29","size_leaf_vector":"1"}},{"base_weights":[7.144487E-3,-9.959699E-2,3.7766665E-1,-1.9664003E-1,7.09262E-3,2.8375417E-1,7.9140544E-1,-2.8173226E-1,-1.5495232E-1,-3.868708E-2,6.60501E-2,2.199835E-1,4.3490648E-1,5.9553385E-1,5.0035108E-2,-1.9566467E-2,-1.3228066E-2,-9.249765E-3,-6.2297997E-3,-4.1431193E-3,-7.923067E-4,-1.062529E-3,4.218479E-3,9.225356E-3,1.6527517E-2,2.8603718E-2,1.8708212E-2,4.968977E-3,3.0878846E-2],"categories":[],"categories_nodes":[],"categories_segments":[],"categories_sizes":[],"default_left":[0,0,0,0,0,0,0,0,0,0,0,0,0,0,0,0,0,0,0,0,0,0,0,0,0,0,0,0,0],"id":46,"left_children":[1,3,5,7,9,11,13,15,17,19,21,23,25,27,-1,-1,-1,-1,-1,-1,-1,-1,-1,-1,-1,-1,-1,-1,-1],"loss_changes":[3.112398E1,6.3273735E0,6.6139565E0,1.0914812E0,7.906795E-1,1.3019962E0,7.158966E-1,9.218502E-2,1.7485332E-1,1.6517289E-1,2.0650381E-1,3.4695196E-1,1.3589E-1,1.4642382E-1,0E0,0E0,0E0,0E0,0E0,0E0,0E0,0E0,0E0,0E0,0E0,0E0,0E0,0E0,0E0],"parents":[2147483647,0,0,1,1,2,2,3,3,4,4,5,5,6,6,7,7,8,8,9,9,10,10,11,11,12,12,13,13],"right_children":[2,4,6,8,10,12,14,16,18,20,22,24,26,28,-1,-1,-1,-1,-1,-1,-1,-1,-1,-1,-1,-1,-1,-1,-1],"split_conditions":[4.969026E0,2.7069418E0,9.361925E0,1.4566594E0,3.823101E0,7.484797E0,1.1173647E1,4.8847836E-1,2.0149438E0,3.1152153E0,-5.6E0,6.884573E0,1.681E-1,5.3333336E-1,5.0035108E-2,-1.9566467E-2,-1.3228066E-2,-9.249765E-3,-6.2297997E-3,-4.1431193E-3,-7.923067E-4,-1.062529E-3,4.218479E-3,9.225356E-3,1.6527517E-2,2.8603718E-2,1.8708212E-2,4.968977E-3,3.0878846E-2],"split_indices":[22,27,23,22,23,23,27,27,22,22,41,27,50,4,0,0,0,0,0,0,0,0,0,0,0,0,0,0,0],"split_type":[0,0,0,0,0,0,0,0,0,0,0,0,0,0,0,0,0,0,0,0,0,0,0,0,0,0,0,0,0],"sum_hessian":[7.85E2,6.1E2,1.75E2,3.19E2,2.91E2,1.44E2,3.1E1,1.03E2,2.16E2,1.64E2,1.27E2,1.03E2,4.1E1,1.8E1,1.3E1,1.1E1,9.2E1,1.06E2,1.1E2,5.5E1,1.09E2,2.2E1,1.05E2,8E1,2.3E1,1E1,3.1E1,1E0,1.7E1],"tree_param":{"num_deleted":"0","num_feature":"60","num_nodes":"29","size_leaf_vector":"1"}},{"base_weights":[4.4822774E-4,-1.0450095E-1,3.315689E-1,-1.9977483E-1,-7.244576E-3,2.3719092E-1,6.724782E-1,-2.871984E-1,-1.6295584E-1,-6.859723E-2,2.9473014E-2,1.8163079E-1,3.6032563E-1,4.9877772E-1,8.5706896E-1,-2.1170033E-2,-1.3095694E-2,-9.174632E-3,-5.979355E-3,-7.3468806E-3,-3.0923274E-3,8.6185616E-4,7.432935E-3,3.823905E-3,1.01375105E-2,4.909837E-3,1.8835556E-2,2.8288616E-2,1.5122068E-2,4.3989923E-2,1.176672E-2],"categories":[],"categories_nodes":[],"categories_segments":[],"categories_sizes":[],"default_left":[0,0,0,0,0,0,0,0,0,0,0,0,0,0,0,0,0,0,0,0,0,0,0,0,0,0,0,0,0,0,0],"id":47,"left_children":[1,3,5,7,9,11,13,15,17,19,21,23,25,27,29,-1,-1,-1,-1,-1,-1,-1,-1,-1,-1,-1,-1,-1,-1,-1,-1],"loss_changes":[2.70013E1,5.465488E0,5.857094E0,9.1241646E-1,6.6206926E-1,9.470787E-1,8.5505486E-1,1.8871784E-1,1.6687489E-1,4.9085975E-2,2.6577264E-1,2.1545339E-1,1.5628815E-1,1.314168E-1,4.7323227E-2,0E0,0E0,0E0,0E0,0E0,0E0,0E0,0E0,0E0,0E0,0E0,0E0,0E0,0E0,0E0,0E0],"parents":[2147483647,0,0,1,1,2,2,3,3,4,4,5,5,6,6,7,7,8,8,9,9,10,10,11,11,12,12,13,13,14,14],"right_children":[2,4,6,8,10,12,14,16,18,20,22,24,26,28,30,-1,-1,-1,-1,-1,-1,-1,-1,-1,-1,-1,-1,-1,-1,-1,-1],"split_conditions":[4.7951674E0,2.5674732E0,8.625574E0,1.32E0,3.3440716E0,6.9002733E0,9.9530325E0,4.5575705E-1,2.0815408E0,3.0715468E0,4.93E0,4.789651E0,3.583E-1,3E-2,7.568E-1,-2.1170033E-2,-1.3095694E-2,-9.174632E-3,-5.979355E-3,-7.3468806E-3,-3.0923274E-3,8.6185616E-4,7.432935E-3,3.823905E-3,1.01375105E-2,4.909837E-3,1.8835556E-2,2.8288616E-2,1.5122068E-2,4.3989923E-2,1.176672E-2],"split_indices":[22,23,23,12,23,22,22,22,23,26,12,23,55,36,59,0,0,0,0,0,0,0,0,0,0,0,0,0,0,0,0],"split_type":[0,0,0,0,0,0,0,0,0,0,0,0,0,0,0,0,0,0,0,0,0,0,0,0,0,0,0,0,0,0,0],"sum_hessian":[7.75E2,5.89E2,1.86E2,2.97E2,2.92E2,1.47E2,3.9E1,8.6E1,2.11E2,1.09E2,1.83E2,1.03E2,4.4E1,2.2E1,1.7E1,1.1E1,7.5E1,1.41E2,7E1,7E0,1.02E2,1.67E2,1.6E1,1.8E1,8.5E1,3E0,4.1E1,1.5E1,7E0,1.6E1,1E0],"tree_param":{"num_deleted":"0","num_feature":"60","num_nodes":"31","size_leaf_vector":"1"}},{"base_weights":[2.866645E-3,-8.174882E-2,3.893987E-1,-1.763158E-1,2.443869E-2,3.187047E-1,9.525555E-1,-2.676693E-1,-1.3919443E-1,-1.6973874E-2,8.176218E-2,2.1033151E-1,4.2895967E-1,3.3180013E-2,6.3769415E-2,-1.9731456E-2,-1.2329826E-2,-8.175836E-3,-4.362426E-3,-1.5123476E-3,2.2828707E-3,6.781936E-4,4.967905E-3,1.1309319E-2,2.3325172E-3,2.7670583E-2,1.7228296E-2],"categories":[],"categories_nodes":[],"categories_segments":[],"categories_sizes":[],"default_left":[0,0,0,0,0,0,0,0,0,0,0,0,0,0,0,0,0,0,0,0,0,0,0,0,0,0,0],"id":48,"left_children":[1,3,5,7,9,11,13,15,17,19,21,23,25,-1,-1,-1,-1,-1,-1,-1,-1,-1,-1,-1,-1,-1,-1],"loss_changes":[2.5314028E1,6.3808722E0,5.230257E0,1.1021738E0,7.1356165E-1,1.4033613E0,5.529156E-1,1.5952444E-1,2.902236E-1,1.4686021E-1,1.4985389E-1,1.5813255E-1,4.4999504E-1,0E0,0E0,0E0,0E0,0E0,0E0,0E0,0E0,0E0,0E0,0E0,0E0,0E0,0E0],"parents":[2147483647,0,0,1,1,2,2,3,3,4,4,5,5,6,6,7,7,8,8,9,9,10,10,11,11,12,12],"right_children":[2,4,6,8,10,12,14,16,18,20,22,24,26,-1,-1,-1,-1,-1,-1,-1,-1,-1,-1,-1,-1,-1,-1],"split_conditions":[5.6473393E0,2.9443238E0,1.1173647E1,1.36E0,4.004074E0,7.110805E0,1.144E1,4.7E-1,2.3835883E0,3E0,5.827E-1,2.7105262E0,1.895E-1,3.3180013E-2,6.3769415E-2,-1.9731456E-2,-1.2329826E-2,-8.175836E-3,-4.362426E-3,-1.5123476E-3,2.2828707E-3,6.781936E-4,4.967905E-3,1.1309319E-2,2.3325172E-3,2.7670583E-2,1.7228296E-2],"split_indices":[27,23,27,12,22,23,12,12,27,30,59,3,51,0,0,0,0,0,0,0,0,0,0,0,0,0,0],"split_type":[0,0,0,0,0,0,0,0,0,0,0,0,0,0,0,0,0,0,0,0,0,0,0,0,0,0,0],"sum_hessian":[7.72E2,6.34E2,1.38E2,3.35E2,2.99E2,1.24E2,1.4E1,9.5E1,2.4E2,1.74E2,1.25E2,6.4E1,6E1,9E0,5E0,1.1E1,8.4E1,1.62E2,7.8E1,1.44E2,3E1,2.6E1,9.9E1,5.8E1,6E0,2.2E1,3.8E1],"tree_param":{"num_deleted":"0","num_feature":"60","num_nodes":"27","size_leaf_vector":"1"}},{"base_weights":[4.782582E-3,-8.2782656E-2,3.527821E-1,-1.5777189E-1,2.4917038E-2,2.5144723E-1,6.5293777E-1,-2.1813974E-1,-1.1080238E-1,-3.442449E-3,9.0042554E-2,2.1158281E-1,3.7344998E-1,5.397509E-1,4.6360236E-2,-1.3795202E-2,-9.305489E-3,-6.210984E-3,-2.9571676E-3,-1.749797E-3,2.0599526E-3,3.4274329E-3,7.6589473E-3,3.9166724E-3,1.1625919E-2,1.1023999E-3,1.9282414E-2,1.3652213E-2,2.9108522E-2],"categories":[],"categories_nodes":[],"categories_segments":[],"categories_sizes":[],"default_left":[0,0,0,0,0,0,0,0,0,0,0,0,0,0,0,0,0,0,0,0,0,0,0,0,0,0,0,0,0],"id":49,"left_children":[1,3,5,7,9,11,13,15,17,19,21,23,25,27,-1,-1,-1,-1,-1,-1,-1,-1,-1,-1,-1,-1,-1,-1,-1],"loss_changes":[2.3797882E1,5.043554E0,4.61117E0,1.0192747E0,4.7497004E-1,4.9974966E-1,7.102356E-1,2.4468184E-1,1.3751626E-1,2.5498897E-1,9.534943E-2,2.3843384E-1,1.11519575E-1,1.8044853E-1,0E0,0E0,0E0,0E0,0E0,0E0,0E0,0E0,0E0,0E0,0E0,0E0,0E0,0E0,0E0],"parents":[2147483647,0,0,1,1,2,2,3,3,4,4,5,5,6,6,7,7,8,8,9,9,10,10,11,11,12,12,13,13],"right_children":[2,4,6,8,10,12,14,16,18,20,22,24,26,28,-1,-1,-1,-1,-1,-1,-1,-1,-1,-1,-1,-1,-1,-1,-1],"split_conditions":[5.297103E0,3.0267932E0,8.625574E0,1.7044458E0,4.341807E0,7.6139703E0,1.111E1,1.0193273E0,2.8545454E0,1.1425975E1,1.58E0,-6E0,1.5E-1,1.3749918E0,4.6360236E-2,-1.3795202E-2,-9.305489E-3,-6.210984E-3,-2.9571676E-3,-1.749797E-3,2.0599526E-3,3.4274329E-3,7.6589473E-3,3.9166724E-3,1.1625919E-2,1.1023999E-3,1.9282414E-2,1.3652213E-2,2.9108522E-2],"split_indices":[27,27,23,23,27,27,12,27,1,7,38,41,29,28,0,0,0,0,0,0,0,0,0,0,0,0,0,0,0],"split_type":[0,0,0,0,0,0,0,0,0,0,0,0,0,0,0,0,0,0,0,0,0,0,0,0,0,0,0,0,0],"sum_hessian":[7.79E2,6.23E2,1.56E2,3.67E2,2.56E2,1.18E2,3.8E1,1.59E2,2.08E2,1.79E2,7.7E1,9.1E1,2.7E1,2.9E1,9E0,5.4E1,1.05E2,1.64E2,4.4E1,1.05E2,7.4E1,5.9E1,1.8E1,1.3E1,7.8E1,1E0,2.6E1,5E0,2.4E1],"tree_param":{"num_deleted":"0","num_feature":"60","num_nodes":"29","size_leaf_vector":"1"}},{"base_weights":[1.278241E-2,-7.608535E-2,3.8569823E-1,-1.5553974E-1,2.2644663E-2,2.9196244E-1,7.270333E-1,-2.4703774E-1,-1.280213E-1,-1.3260147E-2,9.699527E-2,2.2847663E-1,3.884625E-1,5.8842725E-1,5.5909663E-2,-1.8121218E-2,-1.1336739E-2,-7.655114E-3,-4.4477745E-3,-2.0256222E-3,1.1451754E-3,5.5658557E-3,-2.2134914E-3,1.2250884E-2,1.465877E-4,8.042717E-3,2.064461E-2,3.077243E-2,9.256061E-3],"categories":[],"categories_nodes":[],"categories_segments":[],"categories_sizes":[],"default_left":[0,0,0,0,0,0,0,0,0,0,0,0,0,0,0,0,0,0,0,0,0,0,0,0,0,0,0,0,0],"id":50,"left_children":[1,3,5,7,9,11,13,15,17,19,21,23,25,27,-1,-1,-1,-1,-1,-1,-1,-1,-1,-1,-1,-1,-1,-1,-1],"loss_changes":[2.5315317E1,4.8435984E0,4.491045E0,8.2948875E-1,7.380805E-1,6.280327E-1,1.0227547E0,1.0055542E-1,2.4602985E-1,1.8522435E-1,1.8701375E-1,2.716267E-1,1.838026E-1,1.5851402E-1,0E0,0E0,0E0,0E0,0E0,0E0,0E0,0E0,0E0,0E0,0E0,0E0,0E0,0E0,0E0],"parents":[2147483647,0,0,1,1,2,2,3,3,4,4,5,5,6,6,7,7,8,8,9,9,10,10,11,11,12,12,13,13],"right_children":[2,4,6,8,10,12,14,16,18,20,22,24,26,28,-1,-1,-1,-1,-1,-1,-1,-1,-1,-1,-1,-1,-1,-1,-1],"split_conditions":[5.5838118E0,2.8697784E0,9.361925E0,1.2743042E0,4.2861004E0,7.484797E0,1.2265759E1,4.7E-1,2.2084036E0,3.6441512E0,7.455E-1,2.835443E0,9.8E-1,7.568E-1,5.5909663E-2,-1.8121218E-2,-1.1336739E-2,-7.655114E-3,-4.4477745E-3,-2.0256222E-3,1.1451754E-3,5.5658557E-3,-2.2134914E-3,1.2250884E-2,1.465877E-4,8.042717E-3,2.064461E-2,3.077243E-2,9.256061E-3],"split_indices":[27,27,23,23,23,23,27,12,23,22,59,3,13,59,0,0,0,0,0,0,0,0,0,0,0,0,0,0,0],"split_type":[0,0,0,0,0,0,0,0,0,0,0,0,0,0,0,0,0,0,0,0,0,0,0,0,0,0,0,0,0],"sum_hessian":[7.62E2,6.16E2,1.46E2,3.41E2,2.75E2,1.16E2,3E1,7.7E1,2.64E2,1.86E2,8.9E1,7.2E1,4.4E1,2.4E1,6E0,9E0,6.8E1,1.59E2,1.05E2,1.06E2,8E1,8.1E1,8E0,6.7E1,5E0,5E0,3.9E1,2.2E1,2E0],"tree_param":{"num_deleted":"0","num_feature":"60","num_nodes":"29","size_leaf_vector":"1"}},{"base_weights":[1.6471557E-3,-7.289005E-2,3.2618314E-1,-1.4432804E-1,2.9169826E-2,2.4989542E-1,6.793169E-1,-2.1659434E-1,-1.1158317E-1,-1.5681537E-2,6.74055E-2,1.7045364E-1,3.3470908E-1,5.615875E-1,4.5091137E-2,-1.590557E-2,-9.960042E-3,-7.0633017E-3,-4.217685E-3,-1.1794068E-3,4.897967E-3,-3.2227244E-3,3.902219E-3,1.01005165E-2,5.4721017E-3,1.4733431E-2,2.3015257E-2,2.9239384E-2,3.599596E-3],"categories":[],"categories_nodes":[],"categories_segments":[],"categories_sizes":[],"default_left":[0,0,0,0,0,0,0,0,0,0,0,0,0,0,0,0,0,0,0,0,0,0,0,0,0,0,0,0,0],"id":51,"left_children":[1,3,5,7,9,11,13,15,17,19,21,23,25,27,-1,-1,-1,-1,-1,-1,-1,-1,-1,-1,-1,-1,-1,-1,-1],"loss_changes":[1.865008E1,4.575638E0,3.709569E0,8.490157E-1,4.4522178E-1,7.514782E-1,1.4843464E-1,1.3792515E-1,1.9499516E-1,1.1013219E-1,2.0142817E-1,1.01112366E-1,1.5101147E-1,1.7371559E-1,0E0,0E0,0E0,0E0,0E0,0E0,0E0,0E0,0E0,0E0,0E0,0E0,0E0,0E0,0E0],"parents":[2147483647,0,0,1,1,2,2,3,3,4,4,5,5,6,6,7,7,8,8,9,9,10,10,11,11,12,12,13,13],"right_children":[2,4,6,8,10,12,14,16,18,20,22,24,26,28,-1,-1,-1,-1,-1,-1,-1,-1,-1,-1,-1,-1,-1,-1,-1],"split_conditions":[5.5838118E0,3.100132E0,9.700319E0,1.4718599E0,3.934112E0,6.816296E0,3.380766E1,5.345256E-1,2.192391E0,4.46581E0,4.77E0,1.61E0,3.3167995E1,1.076E1,4.5091137E-2,-1.590557E-2,-9.960042E-3,-7.0633017E-3,-4.217685E-3,-1.1794068E-3,4.897967E-3,-3.2227244E-3,3.902219E-3,1.01005165E-2,5.4721017E-3,1.4733431E-2,2.3015257E-2,2.9239384E-2,3.599596E-3],"split_indices":[27,23,27,23,27,23,2,22,27,23,11,17,10,37,0,0,0,0,0,0,0,0,0,0,0,0,0,0,0],"split_type":[0,0,0,0,0,0,0,0,0,0,0,0,0,0,0,0,0,0,0,0,0,0,0,0,0,0,0,0,0],"sum_hessian":[7.69E2,6.26E2,1.43E2,3.68E2,2.58E2,1.19E2,2.4E1,1.13E2,2.55E2,1.19E2,1.39E2,6.3E1,5.6E1,1.8E1,6E0,1.4E1,9.9E1,1.2E2,1.35E2,1.12E2,7E0,1E1,1.29E2,4E1,2.3E1,4.5E1,1.1E1,1.7E1,1E0],"tree_param":{"num_deleted":"0","num_feature":"60","num_nodes":"29","size_leaf_vector":"1"}},{"base_weights":[5.113819E-3,-7.290595E-2,2.9460216E-1,-1.4672935E-1,8.447331E-3,2.1797556E-1,6.490804E-1,-2.252589E-1,-1.2123328E-1,-1.4652996E-2,7.858193E-2,1.5343468E-1,2.9932147E-1,4.9291897E-1,4.986946E-2,-1.7313868E-2,-1.0222769E-2,-7.408369E-3,-4.8424774E-3,-1.8229008E-3,1.080178E-3,4.374322E-3,-4.844624E-3,3.458937E-3,9.041174E-3,1.7945057E-2,1.0077695E-2,2.802286E-2,1.0970378E-2],"categories":[],"categories_nodes":[],"categories_segments":[],"categories_sizes":[],"default_left":[0,0,0,0,0,0,0,0,0,0,0,0,0,0,0,0,0,0,0,0,0,0,0,0,0,0,0,0,0],"id":52,"left_children":[1,3,5,7,9,11,13,15,17,19,21,23,25,27,-1,-1,-1,-1,-1,-1,-1,-1,-1,-1,-1,-1,-1,-1,-1],"loss_changes":[1.7661E1,3.7007976E0,4.367484E0,6.194E-1,4.7747034E-1,6.785927E-1,1.0857477E0,1.255753E-1,1.4721131E-1,1.7629525E-1,1.22540236E-1,1.697967E-1,2.771592E-1,2.834258E-1,0E0,0E0,0E0,0E0,0E0,0E0,0E0,0E0,0E0,0E0,0E0,0E0,0E0,0E0,0E0],"parents":[2147483647,0,0,1,1,2,2,3,3,4,4,5,5,6,6,7,7,8,8,9,9,10,10,11,11,12,12,13,13],"right_children":[2,4,6,8,10,12,14,16,18,20,22,24,26,28,-1,-1,-1,-1,-1,-1,-1,-1,-1,-1,-1,-1,-1,-1,-1],"split_conditions":[5.0073605E0,2.717032E0,9.361925E0,1.2743042E0,4.341807E0,6.58E0,1.2400975E1,4.7E-1,1.94E0,1.0903493E1,4.967882E0,4.42E-1,2.172E-1,1.55E0,4.986946E-2,-1.7313868E-2,-1.0222769E-2,-7.408369E-3,-4.8424774E-3,-1.8229008E-3,1.080178E-3,4.374322E-3,-4.844624E-3,3.458937E-3,9.041174E-3,1.7945057E-2,1.0077695E-2,2.802286E-2,1.0970378E-2],"split_indices":[23,27,23,23,27,12,22,12,12,7,23,19,50,14,0,0,0,0,0,0,0,0,0,0,0,0,0,0,0],"split_type":[0,0,0,0,0,0,0,0,0,0,0,0,0,0,0,0,0,0,0,0,0,0,0,0,0,0,0,0,0],"sum_hessian":[7.8E2,6.15E2,1.65E2,3.22E2,2.93E2,1.37E2,2.8E1,7.7E1,2.45E2,2.21E2,7.2E1,7.8E1,5.9E1,2.1E1,7E0,9E0,6.8E1,1.14E2,1.31E2,1.38E2,8.3E1,6.9E1,3E0,2E1,5.8E1,3.5E1,2.4E1,1.6E1,5E0],"tree_param":{"num_deleted":"0","num_feature":"60","num_nodes":"29","size_leaf_vector":"1"}},{"base_weights":[4.714456E-3,-5.4691017E-2,3.7331745E-1,-1.4080094E-1,2.3433419E-2,2.9296893E-1,7.814584E-1,-2.0797582E-1,-1.09195925E-1,-1.6744616E-2,9.7392604E-2,1.904427E-1,3.4534857E-1,2.859254E-2,4.996025E-2,-1.6657382E-2,-9.5183095E-3,-6.0995417E-3,-2.949015E-3,-1.9876405E-3,3.6174047E-4,-1.2856061E-3,5.4257186E-3,1.1212008E-2,3.770028E-3,1.8828025E-2,9.586092E-3],"categories":[],"categories_nodes":[],"categories_segments":[],"categories_sizes":[],"default_left":[0,0,0,0,0,0,0,0,0,0,0,0,0,0,0,0,0,0,0,0,0,0,0,0,0,0,0],"id":53,"left_children":[1,3,5,7,9,11,13,15,17,19,21,23,25,-1,-1,-1,-1,-1,-1,-1,-1,-1,-1,-1,-1,-1,-1],"loss_changes":[1.6881132E1,4.4702196E0,3.2799635E0,6.481781E-1,1.0386964E0,4.2292643E-1,2.0450687E-1,1.5700293E-1,1.3222837E-1,1.2552881E-1,1.7119455E-1,1.11400604E-1,2.107091E-1,0E0,0E0,0E0,0E0,0E0,0E0,0E0,0E0,0E0,0E0,0E0,0E0,0E0,0E0],"parents":[2147483647,0,0,1,1,2,2,3,3,4,4,5,5,6,6,7,7,8,8,9,9,10,10,11,11,12,12],"right_children":[2,4,6,8,10,12,14,16,18,20,22,24,26,-1,-1,-1,-1,-1,-1,-1,-1,-1,-1,-1,-1,-1,-1],"split_conditions":[6.297199E0,2.7551942E0,1.022E1,1.4566594E0,4.2861004E0,8.2E-1,3.380766E1,4.7E-1,2.05344E1,3.4649656E0,4.7260437E0,1.912E-1,1.59E0,2.859254E-2,4.996025E-2,-1.6657382E-2,-9.5183095E-3,-6.0995417E-3,-2.949015E-3,-1.9876405E-3,3.6174047E-4,-1.2856061E-3,5.4257186E-3,1.1212008E-2,3.770028E-3,1.8828025E-2,9.586092E-3],"split_indices":[22,22,12,22,23,38,2,12,2,23,7,58,14,0,0,0,0,0,0,0,0,0,0,0,0,0,0],"split_type":[0,0,0,0,0,0,0,0,0,0,0,0,0,0,0,0,0,0,0,0,0,0,0,0,0,0,0],"sum_hessian":[7.69E2,6.63E2,1.06E2,3.15E2,3.48E2,9E1,1.6E1,9.9E1,2.16E2,2.26E2,1.22E2,3.2E1,5.8E1,1E1,6E0,1E1,8.9E1,1.71E2,4.5E1,1.15E2,1.11E2,1E1,1.12E2,2.4E1,8E0,4.7E1,1.1E1],"tree_param":{"num_deleted":"0","num_feature":"60","num_nodes":"27","size_leaf_vector":"1"}},{"base_weights":[-1.1925099E-3,-6.5113164E-2,2.8305885E-1,-1.4305428E-1,6.763166E-4,2.2991943E-1,7.1410197E-1,-2.2717322E-1,-1.21219695E-1,-3.1859707E-2,5.7871293E-2,1.6328505E-1,3.1697544E-1,