{"learner":{"attributes":{"scikit_learn":"{\"_estimator_type\": \"regressor\"}"},"feature_names":[],"feature_types":[],"gradient_booster":{"model":{"cats":{"enc":[],"feature_segments":[],"sorted_idx":[]},"gbtree_model_param":{"num_parallel_tree":"1","num_trees":"200"},"iteration_indptr":[0,1,2,3,4,5,6,7,8,9,10,11,12,13,14,15,16,17,18,19,20,21,22,23,24,25,26,27,28,29,30,31,32,33,34,35,36,37,38,39,40,41,42,43,44,45,46,47,48,49,50,51,52,53,54,55,56,57,58,59,60,61,62,63,64,65,66,67,68,69,70,71,72,73,74,75,76,77,78,79,80,81,82,83,84,85,86,87,88,89,90,91,92,93,94,95,96,97,98,99,100,101,102,103,104,105,106,107,108,109,110,111,112,113,114,115,116,117,118,119,120,121,122,123,124,125,126,127,128,129,130,131,132,133,134,135,136,137,138,139,140,141,142,143,144,145,146,147,148,149,150,151,152,153,154,155,156,157,158,159,160,161,162,163,164,165,166,167,168,169,170,171,172,173,174,175,176,177,178,179,180,181,182,183,184,185,186,187,188,189,190,191,192,193,194,195,196,197,198,199,200],"tree_info":[0,0,0,0,0,0,0,0,0,0,0,0,0,0,0,0,0,0,0,0,0,0,0,0,0,0,0,0,0,0,0,0,0,0,0,0,0,0,0,0,0,0,0,0,0,0,0,0,0,0,0,0,0,0,0,0,0,0,0,0,0,0,0,0,0,0,0,0,0,0,0,0,0,0,0,0,0,0,0,0,0,0,0,0,0,0,0,0,0,0,0,0,0,0,0,0,0,0,0,0,0,0,0,0,0,0,0,0,0,0,0,0,0,0,0,0,0,0,0,0,0,0,0,0,0,0,0,0,0,0,0,0,0,0,0,0,0,0,0,0,0,0,0,0,0,0,0,0,0,0,0,0,0,0,0,0,0,0,0,0,0,0,0,0,0,0,0,0,0,0,0,0,0,0,0,0,0,0,0,0,0,0,0,0,0,0,0,0,0,0,0,0,0,0,0,0,0,0,0,0],"trees":[{"base_weights":[6.5704007E-3,-8.627654E-1,2.8533702E0,-1.2800236E0,1.0100355E-1,2.0147915E0,4.753092E0,-1.6220783E0,-9.6190923E-1,-2.2371593E-1,5.525728E-1,1.4444017E0,1.3499685E-1,1.9852082E-1,3.134524E-1,-8.7400064E-2,-7.0216306E-2,-5.654561E-2,-4.0317595E-2,-2.1756671E-2,2.100485E-4,1.348377E-2,3.2439597E-2,5.4098297E-2,8.070831E-2],"categories":[],"categories_nodes":[],"categories_segments":[],"categories_sizes":[],"default_left":[0,0,0,0,0,0,0,0,0,0,0,0,0,0,0,0,0,0,0,0,0,0,0,0,0],"id":0,"left_children":[1,3,5,7,9,11,13,15,17,19,21,23,-1,-1,-1,-1,-1,-1,-1,-1,-1,-1,-1,-1,-1],"loss_changes":[1.9254006E3,2.3980505E2,2.8036157E2,4.3705627E1,2.6664251E1,4.612256E1,4.036682E1,3.001831E0,4.8192444E0,5.109503E0,1.8937683E0,2.6835938E0,0E0,0E0,0E0,0E0,0E0,0E0,0E0,0E0,0E0,0E0,0E0,0E0,0E0],"parents":[2147483647,0,0,1,1,2,2,3,3,4,4,5,5,6,6,7,7,8,8,9,9,10,10,11,11],"right_children":[2,4,6,8,10,12,14,16,18,20,22,24,-1,-1,-1,-1,-1,-1,-1,-1,-1,-1,-1,-1,-1],"split_conditions":[3.2015033E0,1.5673155E0,5.75E0,8.8E-1,2.3626943E0,4.1722083E0,7.83E0,6.0820884E-1,1.2E0,1.9849935E0,2.58E0,3.42E0,1.3499685E-1,1.9852082E-1,3.134524E-1,-8.7400064E-2,-7.0216306E-2,-5.654561E-2,-4.0317595E-2,-2.1756671E-2,2.100485E-4,1.348377E-2,3.2439597E-2,5.4098297E-2,8.070831E-2],"split_indices":[25,25,13,13,25,25,13,25,13,25,13,13,0,0,0,0,0,0,0,0,0,0,0,0,0],"split_type":[0,0,0,0,0,0,0,0,0,0,0,0,0,0,0,0,0,0,0,0,0,0,0,0,0],"sum_hessian":[7.76E2,5.95E2,1.81E2,4.15E2,1.8E2,1.27E2,5.4E1,1.98E2,2.17E2,1.05E2,7.5E1,7.1E1,5.6E1,3.8E1,1.6E1,1.21E2,7.7E1,1.01E2,1.16E2,5.4E1,5.1E1,2E1,5.5E1,2.5E1,4.6E1],"tree_param":{"num_deleted":"0","num_feature":"32","num_nodes":"25","size_leaf_vector":"1"}},{"base_weights":[-3.0176034E-2,-8.277138E-1,2.8238456E0,-1.2311602E0,1.0705281E-1,2.0777516E0,4.562932E0,-1.5550406E0,-9.1968834E-1,-2.7842933E-1,4.8712248E-1,1.5492029E0,1.3483708E-1,1.8702117E-1,2.94558E-1,-8.552633E-2,-6.896698E-2,-5.3157326E-2,-3.7587136E-2,-2.3014704E-2,-5.485411E-3,1.2663997E-2,3.213288E-2,6.0103733E-2,8.793501E-2],"categories":[],"categories_nodes":[],"categories_segments":[],"categories_sizes":[],"default_left":[0,0,0,0,0,0,0,0,0,0,0,0,0,0,0,0,0,0,0,0,0,0,0,0,0],"id":1,"left_children":[1,3,5,7,9,11,13,15,17,19,21,23,-1,-1,-1,-1,-1,-1,-1,-1,-1,-1,-1,-1,-1],"loss_changes":[1.7299656E3,2.24146E2,2.0590796E2,4.0434875E1,2.6507442E1,3.4427826E1,3.1495972E1,3.1590576E0,4.35672E0,2.7110996E0,3.1469631E0,2.6855774E0,0E0,0E0,0E0,0E0,0E0,0E0,0E0,0E0,0E0,0E0,0E0,0E0,0E0],"parents":[2147483647,0,0,1,1,2,2,3,3,4,4,5,5,6,6,7,7,8,8,9,9,10,10,11,11],"right_children":[2,4,6,8,10,12,14,16,18,20,22,24,-1,-1,-1,-1,-1,-1,-1,-1,-1,-1,-1,-1,-1],"split_conditions":[3.3E0,1.5673155E0,5.75E0,8.7064284E-1,2.2981956E0,4.65E0,7.215994E0,5.6E-1,1.2259514E0,1.8685237E0,2.61E0,3.7889714E0,1.3483708E-1,1.8702117E-1,2.94558E-1,-8.552633E-2,-6.896698E-2,-5.3157326E-2,-3.7587136E-2,-2.3014704E-2,-5.485411E-3,1.2663997E-2,3.213288E-2,6.0103733E-2,8.793501E-2],"split_indices":[13,25,13,24,24,13,25,13,24,25,13,28,0,0,0,0,0,0,0,0,0,0,0,0,0],"split_type":[0,0,0,0,0,0,0,0,0,0,0,0,0,0,0,0,0,0,0,0,0,0,0,0,0],"sum_hessian":[7.58E2,5.93E2,1.65E2,4.14E2,1.79E2,1.17E2,4.8E1,2.01E2,2.13E2,8.9E1,9E1,6.5E1,5.2E1,3.2E1,1.6E1,1.02E2,9.9E1,1.12E2,1.01E2,4.2E1,4.7E1,3.7E1,5.3E1,2.7E1,3.8E1],"tree_param":{"num_deleted":"0","num_feature":"32","num_nodes":"25","size_leaf_vector":"1"}},{"base_weights":[1.9014329E-2,-8.1968635E-1,2.6567612E0,-1.1879976E0,2.9137706E-2,1.9291136E0,4.5450606E0,-1.524484E0,-9.209582E-1,-3.1031483E-1,4.3947366E-1,1.3262607E0,2.5124626E0,1.8704376E-1,2.9057878E-1,-8.242989E-2,-6.7698434E-2,-5.3604495E-2,-3.6860395E-2,-2.3500003E-2,-6.7092213E-3,1.2031993E-2,3.2371607E-2,4.7207665E-2,7.2130464E-2,9.067409E-2,1.3077693E-1],"categories":[],"categories_nodes":[],"categories_segments":[],"categories_sizes":[],"default_left":[0,0,0,0,0,0,0,0,0,0,0,0,0,0,0,0,0,0,0,0,0,0,0,0,0,0,0],"id":2,"left_children":[1,3,5,7,9,11,13,15,17,19,21,23,25,-1,-1,-1,-1,-1,-1,-1,-1,-1,-1,-1,-1,-1,-1],"loss_changes":[1.7056332E3,1.8292401E2,2.467992E2,3.5256958E1,2.4929922E1,4.4495422E1,3.0203735E1,1.5560913E0,5.596863E0,2.693224E0,3.1934862E0,1.7055359E0,1.5603638E-1,0E0,0E0,0E0,0E0,0E0,0E0,0E0,0E0,0E0,0E0,0E0,0E0,0E0,0E0],"parents":[2147483647,0,0,1,1,2,2,3,3,4,4,5,5,6,6,7,7,8,8,9,9,10,10,11,11,12,12],"right_children":[2,4,6,8,10,12,14,16,18,20,22,24,26,-1,-1,-1,-1,-1,-1,-1,-1,-1,-1,-1,-1,-1,-1],"split_conditions":[3.1953695E0,1.57E0,5.85E0,8.082698E-1,2.282362E0,4.1722083E0,7.83E0,5.25643E-1,1.1715448E0,1.8685237E0,2.6771436E0,3.4E0,4.65E0,1.8704376E-1,2.9057878E-1,-8.242989E-2,-6.7698434E-2,-5.3604495E-2,-3.6860395E-2,-2.3500003E-2,-6.7092213E-3,1.2031993E-2,3.2371607E-2,4.7207665E-2,7.2130464E-2,9.067409E-2,1.3077693E-1],"split_indices":[24,13,13,24,24,25,13,25,25,25,25,13,13,0,0,0,0,0,0,0,0,0,0,0,0,0,0],"split_type":[0,0,0,0,0,0,0,0,0,0,0,0,0,0,0,0,0,0,0,0,0,0,0,0,0,0,0],"sum_hessian":[7.69E2,5.84E2,1.85E2,4.07E2,1.77E2,1.35E2,5E1,1.78E2,2.29E2,9.7E1,8E1,6.8E1,6.7E1,3.3E1,1.7E1,9.8E1,8E1,1.23E2,1.06E2,5E1,4.7E1,4.2E1,3.8E1,1.8E1,5E1,1.1E1,5.6E1],"tree_param":{"num_deleted":"0","num_feature":"32","num_nodes":"27","size_leaf_vector":"1"}},{"base_weights":[-4.3857347E-2,-7.6766735E-1,2.4773893E0,-1.1100386E0,1.09519884E-1,1.7506862E0,4.003348E0,-1.3659213E0,-7.948705E-1,-2.1080992E-1,4.5142657E-1,1.2802373E0,1.1751578E-1,1.7277876E-1,2.9650477E-1,-7.479788E-2,-5.744802E-2,-4.5429345E-2,-3.2848563E-2,-1.9111551E-2,-1.1454931E-3,1.1513108E-2,2.9154984E-2,4.6465706E-2,7.0101015E-2],"categories":[],"categories_nodes":[],"categories_segments":[],"categories_sizes":[],"default_left":[0,0,0,0,0,0,0,0,0,0,0,0,0,0,0,0,0,0,0,0,0,0,0,0,0],"id":3,"left_children":[1,3,5,7,9,11,13,15,17,19,21,23,-1,-1,-1,-1,-1,-1,-1,-1,-1,-1,-1,-1,-1],"loss_changes":[1.4399258E3,1.8422006E2,1.8816125E2,3.4479126E1,1.904263E1,3.1124512E1,3.8611633E1,5.1087036E0,2.5393677E0,2.890146E0,2.3119297E0,1.6886444E0,0E0,0E0,0E0,0E0,0E0,0E0,0E0,0E0,0E0,0E0,0E0,0E0,0E0],"parents":[2147483647,0,0,1,1,2,2,3,3,4,4,5,5,6,6,7,7,8,8,9,9,10,10,11,11],"right_children":[2,4,6,8,10,12,14,16,18,20,22,24,-1,-1,-1,-1,-1,-1,-1,-1,-1,-1,-1,-1,-1],"split_conditions":[3.210872E0,1.5815885E0,5.697395E0,9.44036E-1,2.3261569E0,4.3399677E0,8.27E0,6.8135476E-1,1.3003719E0,1.9737443E0,2.61E0,3.4E0,1.1751578E-1,1.7277876E-1,2.9650477E-1,-7.479788E-2,-5.744802E-2,-4.5429345E-2,-3.2848563E-2,-1.9111551E-2,-1.1454931E-3,1.1513108E-2,2.9154984E-2,4.6465706E-2,7.0101015E-2],"split_indices":[24,24,24,24,25,24,13,24,24,25,13,13,0,0,0,0,0,0,0,0,0,0,0,0,0],"split_type":[0,0,0,0,0,0,0,0,0,0,0,0,0,0,0,0,0,0,0,0,0,0,0,0,0],"sum_hessian":[7.87E2,6.12E2,1.75E2,4.4E2,1.72E2,1.2E2,5.5E1,2.41E2,1.99E2,8.9E1,8.3E1,6.9E1,5.1E1,4.5E1,1E1,1.47E2,9.4E1,1.06E2,9.3E1,4.6E1,4.3E1,3.2E1,5.1E1,2E1,4.9E1],"tree_param":{"num_deleted":"0","num_feature":"32","num_nodes":"25","size_leaf_vector":"1"}},{"base_weights":[-4.7582254E-2,-7.5271875E-1,2.275715E0,-1.1061729E0,-6.30814E-2,1.6310654E0,3.874318E0,-1.3815613E0,-8.706556E-1,-3.9529473E-1,3.0060616E-1,1.1347108E0,2.2276657E0,1.6704369E-1,2.5883132E-1,-7.638034E-2,-6.3204266E-2,-5.146287E-2,-3.7695136E-2,-2.380882E-2,-1.0097254E-2,4.452105E-3,2.176793E-2,4.525208E-2,6.4133994E-2,8.189921E-2,1.1729437E-1],"categories":[],"categories_nodes":[],"categories_segments":[],"categories_sizes":[],"default_left":[0,0,0,0,0,0,0,0,0,0,0,0,0,0,0,0,0,0,0,0,0,0,0,0,0,0,0],"id":4,"left_children":[1,3,5,7,9,11,13,15,17,19,21,23,25,-1,-1,-1,-1,-1,-1,-1,-1,-1,-1,-1,-1,-1,-1],"loss_changes":[1.2664357E3,1.4447705E2,1.7917773E2,2.422174E1,2.4524843E1,3.5968536E1,1.8135742E1,1.1400452E0,3.1867065E0,1.5615139E0,2.7265854E0,1.3199539E0,2.0083618E-1,0E0,0E0,0E0,0E0,0E0,0E0,0E0,0E0,0E0,0E0,0E0,0E0,0E0,0E0],"parents":[2147483647,0,0,1,1,2,2,3,3,4,4,5,5,6,6,7,7,8,8,9,9,10,10,11,11,12,12],"right_children":[2,4,6,8,10,12,14,16,18,20,22,24,26,-1,-1,-1,-1,-1,-1,-1,-1,-1,-1,-1,-1,-1,-1],"split_conditions":[3.1061952E0,1.4495847E0,5.75E0,7.7934605E-1,2.0653746E0,4.1722083E0,7.7049637E0,4.6959075E-1,1.0722915E0,1.79E0,2.46E0,3.5E0,4.65E0,1.6704369E-1,2.5883132E-1,-7.638034E-2,-6.3204266E-2,-5.146287E-2,-3.7695136E-2,-2.380882E-2,-1.0097254E-2,4.452105E-3,2.176793E-2,4.525208E-2,6.4133994E-2,8.189921E-2,1.1729437E-1],"split_indices":[24,24,13,25,25,25,25,24,24,13,13,13,13,0,0,0,0,0,0,0,0,0,0,0,0,0,0],"split_type":[0,0,0,0,0,0,0,0,0,0,0,0,0,0,0,0,0,0,0,0,0,0,0,0,0,0,0],"sum_hessian":[7.71E2,5.92E2,1.79E2,3.91E2,2.01E2,1.29E2,5E1,1.78E2,2.13E2,1.05E2,9.6E1,7.2E1,5.7E1,3.8E1,1.2E1,7.4E1,1.04E2,8.7E1,1.26E2,7.3E1,3.2E1,3.8E1,5.8E1,3.1E1,4.1E1,1.2E1,4.5E1],"tree_param":{"num_deleted":"0","num_feature":"32","num_nodes":"27","size_leaf_vector":"1"}},{"base_weights":[9.053829E-3,-6.5733045E-1,2.422707E0,-9.9624455E-1,1.566887E-1,1.8649312E0,4.552717E0,-1.2441084E0,-7.1379966E-1,-2.0282479E-1,4.5413867E-1,1.3297932E0,1.2497293E-1,1.881508E-1,2.7342415E-1,-6.941925E-2,-5.507302E-2,-3.930217E-2,-2.5901541E-2,-1.6773565E-2,-2.4263419E-3,1.3428367E-2,3.267226E-2,5.3732038E-2,8.026361E-2],"categories":[],"categories_nodes":[],"categories_segments":[],"categories_sizes":[],"default_left":[0,0,0,0,0,0,0,0,0,0,0,0,0,0,0,0,0,0,0,0,0,0,0,0,0],"id":5,"left_children":[1,3,5,7,9,11,13,15,17,19,21,23,-1,-1,-1,-1,-1,-1,-1,-1,-1,-1,-1,-1,-1],"loss_changes":[1.2786785E3,1.7203091E2,1.9585724E2,2.9915436E1,1.9768568E1,4.3535492E1,4.7333374E0,3.2661133E0,2.5345612E0,1.7029555E0,3.560051E0,3.6871643E0,0E0,0E0,0E0,0E0,0E0,0E0,0E0,0E0,0E0,0E0,0E0,0E0,0E0],"parents":[2147483647,0,0,1,1,2,2,3,3,4,4,5,5,6,6,7,7,8,8,9,9,10,10,11,11],"right_children":[2,4,6,8,10,12,14,16,18,20,22,24,-1,-1,-1,-1,-1,-1,-1,-1,-1,-1,-1,-1,-1],"split_conditions":[3.3685503E0,1.5815885E0,6.48E0,9.3E-1,2.282362E0,4.688784E0,8.60911E0,5.6822944E-1,1.3724092E0,1.9477507E0,2.7987635E0,3.927826E0,1.2497293E-1,1.881508E-1,2.7342415E-1,-6.941925E-2,-5.507302E-2,-3.930217E-2,-2.5901541E-2,-1.6773565E-2,-2.4263419E-3,1.3428367E-2,3.267226E-2,5.3732038E-2,8.026361E-2],"split_indices":[24,24,13,13,24,25,25,24,25,25,24,24,0,0,0,0,0,0,0,0,0,0,0,0,0],"split_type":[0,0,0,0,0,0,0,0,0,0,0,0,0,0,0,0,0,0,0,0,0,0,0,0,0],"sum_hessian":[7.93E2,6.22E2,1.71E2,4.39E2,1.83E2,1.37E2,3.4E1,2.32E2,2.07E2,8.3E1,1E2,7.6E1,6.1E1,2.1E1,1.3E1,1.11E2,1.21E2,1.49E2,5.8E1,4.4E1,3.9E1,5.3E1,4.7E1,4.2E1,3.4E1],"tree_param":{"num_deleted":"0","num_feature":"32","num_nodes":"25","size_leaf_vector":"1"}},{"base_weights":[4.9119566E-2,-6.628582E-1,2.2146165E0,-9.755658E-1,5.640426E-2,1.5763202E0,3.8468542E0,-1.2407899E0,-7.4689645E-1,-2.1865545E-1,3.7773752E-1,1.1342583E0,1.053519E-1,1.5919043E-1,2.5318342E-1,-6.971853E-2,-5.6804575E-2,-4.326561E-2,-2.9671276E-2,-1.7903E-2,-3.2850243E-3,9.127753E-3,2.5273068E-2,4.4777356E-2,6.587727E-2],"categories":[],"categories_nodes":[],"categories_segments":[],"categories_sizes":[],"default_left":[0,0,0,0,0,0,0,0,0,0,0,0,0,0,0,0,0,0,0,0,0,0,0,0,0],"id":6,"left_children":[1,3,5,7,9,11,13,15,17,19,21,23,-1,-1,-1,-1,-1,-1,-1,-1,-1,-1,-1,-1,-1],"loss_changes":[1.1901847E3,1.3073285E2,1.9292969E2,2.3635986E1,1.5726886E1,3.0220917E1,2.6638794E1,1.4066772E0,3.4846344E0,2.0234466E0,1.9519405E0,2.2327805E0,0E0,0E0,0E0,0E0,0E0,0E0,0E0,0E0,0E0,0E0,0E0,0E0,0E0],"parents":[2147483647,0,0,1,1,2,2,3,3,4,4,5,5,6,6,7,7,8,8,9,9,10,10,11,11],"right_children":[2,4,6,8,10,12,14,16,18,20,22,24,-1,-1,-1,-1,-1,-1,-1,-1,-1,-1,-1,-1,-1],"split_conditions":[3.1638436E0,1.57E0,5.85E0,8.1E-1,2.2981956E0,4.56E0,7.9620385E0,4.3172693E-1,1.2E0,1.8500274E0,2.61E0,3.661859E0,1.053519E-1,1.5919043E-1,2.5318342E-1,-6.971853E-2,-5.6804575E-2,-4.326561E-2,-2.9671276E-2,-1.7903E-2,-3.2850243E-3,9.127753E-3,2.5273068E-2,4.4777356E-2,6.587727E-2],"split_indices":[24,13,13,13,24,13,24,24,13,24,13,28,0,0,0,0,0,0,0,0,0,0,0,0,0],"split_type":[0,0,0,0,0,0,0,0,0,0,0,0,0,0,0,0,0,0,0,0,0,0,0,0,0],"sum_hessian":[7.7E2,5.8E2,1.9E2,4.04E2,1.76E2,1.38E2,5.2E1,1.85E2,2.19E2,9.5E1,8.1E1,7.7E1,6.1E1,3.6E1,1.6E1,7E1,1.15E2,1.21E2,9.8E1,4.9E1,4.6E1,3.3E1,4.8E1,3.6E1,4.1E1],"tree_param":{"num_deleted":"0","num_feature":"32","num_nodes":"25","size_leaf_vector":"1"}},{"base_weights":[4.829762E-3,-5.9971505E-1,2.1295466E0,-8.761863E-1,1.5489656E-1,1.5151479E0,3.4326859E0,-1.1277739E0,-6.0765165E-1,-1.0112559E-1,3.997987E-1,1.0944695E0,9.8855816E-2,1.4270909E-1,2.261945E-1,-6.279968E-2,-4.8802625E-2,-3.5803698E-2,-2.3023447E-2,-1.145428E-2,1.6280776E-3,1.1471215E-2,2.6270842E-2,4.701934E-2,6.417494E-2],"categories":[],"categories_nodes":[],"categories_segments":[],"categories_sizes":[],"default_left":[0,0,0,0,0,0,0,0,0,0,0,0,0,0,0,0,0,0,0,0,0,0,0,0,0],"id":7,"left_children":[1,3,5,7,9,11,13,15,17,19,21,23,-1,-1,-1,-1,-1,-1,-1,-1,-1,-1,-1,-1,-1],"loss_changes":[9.916163E2,1.2552142E2,1.317096E2,2.9041107E1,1.0197887E1,2.0768219E1,2.1176392E1,3.1706238E0,3.1012115E0,1.375988E0,1.6558332E0,6.5708923E-1,0E0,0E0,0E0,0E0,0E0,0E0,0E0,0E0,0E0,0E0,0E0,0E0,0E0],"parents":[2147483647,0,0,1,1,2,2,3,3,4,4,5,5,6,6,7,7,8,8,9,9,10,10,11,11],"right_children":[2,4,6,8,10,12,14,16,18,20,22,24,-1,-1,-1,-1,-1,-1,-1,-1,-1,-1,-1,-1,-1],"split_conditions":[3.3E0,1.7278595E0,5.85E0,9.5E-1,2.36E0,4.49E0,7.83E0,6E-1,1.36E0,1.99E0,2.7053623E0,3.908677E0,9.8855816E-2,1.4270909E-1,2.261945E-1,-6.279968E-2,-4.8802625E-2,-3.5803698E-2,-2.3023447E-2,-1.145428E-2,1.6280776E-3,1.1471215E-2,2.6270842E-2,4.701934E-2,6.417494E-2],"split_indices":[13,28,13,13,13,13,13,13,13,13,28,28,0,0,0,0,0,0,0,0,0,0,0,0,0],"split_type":[0,0,0,0,0,0,0,0,0,0,0,0,0,0,0,0,0,0,0,0,0,0,0,0,0],"sum_hessian":[7.7E2,6E2,1.7E2,4.39E2,1.61E2,1.17E2,5.3E1,2.25E2,2.14E2,7.9E1,8.2E1,6.3E1,5.4E1,3.7E1,1.6E1,1.18E2,1.07E2,1.21E2,9.3E1,4E1,3.9E1,3.6E1,4.6E1,3.8E1,2.5E1],"tree_param":{"num_deleted":"0","num_feature":"32","num_nodes":"25","size_leaf_vector":"1"}},{"base_weights":[-8.181315E-2,-6.261101E-1,1.7309397E0,-9.1481316E-1,-6.686286E-2,1.0929E0,2.6214974E0,-1.1315068E0,-7.1463674E-1,-3.243314E-1,2.094859E-1,8.206972E-1,1.4578066E0,1.1113428E-1,1.6798717E-1,-6.327813E-2,-5.2024286E-2,-4.1886453E-2,-3.0734831E-2,-1.9289954E-2,-7.787671E-3,3.4951263E-3,1.8439531E-2,2.8169477E-2,4.5177076E-2,2.013886E-2,7.3648766E-2],"categories":[],"categories_nodes":[],"categories_segments":[],"categories_sizes":[],"default_left":[0,0,0,0,0,0,0,0,0,0,0,0,0,0,0,0,0,0,0,0,0,0,0,0,0,0,0],"id":8,"left_children":[1,3,5,7,9,11,13,15,17,19,21,23,25,-1,-1,-1,-1,-1,-1,-1,-1,-1,-1,-1,-1,-1,-1],"loss_changes":[7.647709E2,9.616684E1,9.884473E1,1.6238556E1,1.4582769E1,9.33242E0,1.4319519E1,9.6495056E-1,2.03154E0,1.0382919E0,2.1756134E0,8.338928E-1,1.1086273E-1,0E0,0E0,0E0,0E0,0E0,0E0,0E0,0E0,0E0,0E0,0E0,0E0,0E0,0E0],"parents":[2147483647,0,0,1,1,2,2,3,3,4,4,5,5,6,6,7,7,8,8,9,9,10,10,11,11,12,12],"right_children":[2,4,6,8,10,12,14,16,18,20,22,24,26,-1,-1,-1,-1,-1,-1,-1,-1,-1,-1,-1,-1,-1,-1],"split_conditions":[3.0310204E0,1.4495847E0,4.98763E0,7.860678E-1,2.0412323E0,4.01E0,6.48E0,4.4E-1,1.0722915E0,1.81E0,2.5392053E0,3.22E0,5.2093024E0,1.1113428E-1,1.6798717E-1,-6.327813E-2,-5.2024286E-2,-4.1886453E-2,-3.0734831E-2,-1.9289954E-2,-7.787671E-3,3.4951263E-3,1.8439531E-2,2.8169477E-2,4.5177076E-2,2.013886E-2,7.3648766E-2],"split_indices":[24,24,24,24,24,13,13,13,24,13,24,13,0,0,0,0,0,0,0,0,0,0,0,0,0,0,0],"split_type":[0,0,0,0,0,0,0,0,0,0,0,0,0,0,0,0,0,0,0,0,0,0,0,0,0,0,0],"sum_hessian":[7.73E2,5.95E2,1.78E2,3.92E2,2.03E2,1.05E2,7.3E1,1.86E2,2.06E2,1.05E2,9.8E1,6.2E1,4.3E1,5E1,2.3E1,7E1,1.16E2,8.9E1,1.17E2,7.6E1,2.9E1,5.3E1,4.5E1,1.7E1,4.5E1,1E0,4.2E1],"tree_param":{"num_deleted":"0","num_feature":"32","num_nodes":"27","size_leaf_vector":"1"}},{"base_weights":[2.3527503E-2,-5.450949E-1,1.9567093E0,-8.197775E-1,7.779578E-2,1.5449021E0,3.681913E0,-1.0102087E0,-5.725257E-1,-1.9173081E-1,3.2948074E-1,9.8824835E-1,1.9353957E0,1.4662126E-1,2.3745742E-1,-5.5342376E-2,-4.2555936E-2,-3.354103E-2,-2.4167044E-2,-1.2666285E-2,-1.9830542E-4,9.292357E-3,2.361081E-2,4.0717155E-2,5.6513727E-2,7.409563E-2,1.0473732E-1],"categories":[],"categories_nodes":[],"categories_segments":[],"categories_sizes":[],"default_left":[0,0,0,0,0,0,0,0,0,0,0,0,0,0,0,0,0,0,0,0,0,0,0,0,0,0,0],"id":9,"left_children":[1,3,5,7,9,11,13,15,17,19,21,23,25,-1,-1,-1,-1,-1,-1,-1,-1,-1,-1,-1,-1,-1,-1],"loss_changes":[8.4639026E2,1.0186661E2,1.1864075E2,1.8867523E1,1.2477121E1,2.9171204E1,1.2469513E1,2.6247864E0,1.2712479E0,1.0283113E0,1.8598928E0,5.86216E-1,2.8935852E0,0E0,0E0,0E0,0E0,0E0,0E0,0E0,0E0,0E0,0E0,0E0,0E0,0E0,0E0],"parents":[2147483647,0,0,1,1,2,2,3,3,4,4,5,5,6,6,7,7,8,8,9,9,10,10,11,11,12,12],"right_children":[2,4,6,8,10,12,14,16,18,20,22,24,26,-1,-1,-1,-1,-1,-1,-1,-1,-1,-1,-1,-1,-1,-1],"split_conditions":[3.2683294E0,1.5598367E0,6.48E0,9.467334E-1,2.282362E0,4.2710466E0,8.27E0,6.6990453E-1,1.2422894E0,2.09E0,2.6771436E0,3.7520154E0,4.9249988E0,1.4662126E-1,2.3745742E-1,-5.5342376E-2,-4.2555936E-2,-3.354103E-2,-2.4167044E-2,-1.2666285E-2,-1.9830542E-4,9.292357E-3,2.361081E-2,4.0717155E-2,5.6513727E-2,7.409563E-2,1.0473732E-1],"split_indices":[24,25,13,24,24,25,13,24,24,13,25,24,25,0,0,0,0,0,0,0,0,0,0,0,0,0,0],"split_type":[0,0,0,0,0,0,0,0,0,0,0,0,0,0,0,0,0,0,0,0,0,0,0,0,0,0,0],"sum_hessian":[7.68E2,5.94E2,1.74E2,4.12E2,1.82E2,1.42E2,3.2E1,2.31E2,1.81E2,8.8E1,9.4E1,6E1,8.2E1,2.1E1,1.1E1,1.4E2,9.1E1,8.3E1,9.8E1,6.6E1,2.2E1,4.8E1,4.6E1,3E1,3E1,2.4E1,5.8E1],"tree_param":{"num_deleted":"0","num_feature":"32","num_nodes":"27","size_leaf_vector":"1"}},{"base_weights":[2.4101479E-2,-5.1477206E-1,1.8370843E0,-7.969488E-1,3.70733E-2,1.3066219E0,3.0285687E0,-1.0356361E0,-6.3220614E-1,-1.8694179E-1,3.3618253E-1,9.2154694E-1,1.6954658E0,1.2215566E-1,1.9654801E-1,-5.838385E-2,-4.736912E-2,-3.6794182E-2,-2.5512531E-2,-1.5461862E-2,-1.7003836E-3,1.26613295E-2,2.6372585E-2,3.5035074E-2,4.9488302E-2,6.9345675E-2,9.2093535E-2],"categories":[],"categories_nodes":[],"categories_segments":[],"categories_sizes":[],"default_left":[0,0,0,0,0,0,0,0,0,0,0,0,0,0,0,0,0,0,0,0,0,0,0,0,0,0,0],"id":10,"left_children":[1,3,5,7,9,11,13,15,17,19,21,23,25,-1,-1,-1,-1,-1,-1,-1,-1,-1,-1,-1,-1,-1,-1],"loss_changes":[7.717738E2,9.486177E1,1.1044165E2,1.5192017E1,1.3932878E1,1.7453781E1,1.9453278E1,7.9319763E-1,2.67173E0,2.2151585E0,1.2785902E0,3.0081558E-1,2.4624634E-1,0E0,0E0,0E0,0E0,0E0,0E0,0E0,0E0,0E0,0E0,0E0,0E0,0E0,0E0],"parents":[2147483647,0,0,1,1,2,2,3,3,4,4,5,5,6,6,7,7,8,8,9,9,10,10,11,11,12,12],"right_children":[2,4,6,8,10,12,14,16,18,20,22,24,26,-1,-1,-1,-1,-1,-1,-1,-1,-1,-1,-1,-1,-1,-1],"split_conditions":[3.2677326E0,1.4964021E0,5.75E0,7.5769955E-1,2.3261569E0,4.1722083E0,7.215994E0,3.9919674E-1,1.12E0,1.9477507E0,2.9013612E0,3.42E0,4.9249988E0,1.2215566E-1,1.9654801E-1,-5.838385E-2,-4.736912E-2,-3.6794182E-2,-2.5512531E-2,-1.5461862E-2,-1.7003836E-3,1.26613295E-2,2.6372585E-2,3.5035074E-2,4.9488302E-2,6.9345675E-2,9.2093535E-2],"split_indices":[25,25,13,25,25,25,25,25,13,25,25,13,25,0,0,0,0,0,0,0,0,0,0,0,0,0,0],"split_type":[0,0,0,0,0,0,0,0,0,0,0,0,0,0,0,0,0,0,0,0,0,0,0,0,0,0,0],"sum_hessian":[7.88E2,6.08E2,1.8E2,4.02E2,2.06E2,1.26E2,5.4E1,1.62E2,2.4E2,1.18E2,8.8E1,6.5E1,6.1E1,3.5E1,1.9E1,6E1,1.02E2,1.27E2,1.13E2,6.5E1,5.3E1,6.3E1,2.5E1,1.8E1,4.7E1,2.3E1,3.8E1],"tree_param":{"num_deleted":"0","num_feature":"32","num_nodes":"27","size_leaf_vector":"1"}},{"base_weights":[7.497071E-3,-5.117904E-1,1.703207E0,-7.390032E-1,7.122989E-2,1.1579978E0,2.8018603E0,-9.473051E-1,-5.47301E-1,-1.6168953E-1,2.8686994E-1,8.2339466E-1,1.4899876E0,1.1285601E-1,1.7663388E-1,-5.4489713E-2,-4.3132097E-2,-3.2419834E-2,-2.2597268E-2,-1.2817633E-2,-2.365283E-3,8.562842E-3,2.1267919E-2,3.568553E-2,4.8366155E-2,6.0255893E-2,8.07851E-2],"categories":[],"categories_nodes":[],"categories_segments":[],"categories_sizes":[],"default_left":[0,0,0,0,0,0,0,0,0,0,0,0,0,0,0,0,0,0,0,0,0,0,0,0,0,0,0],"id":11,"left_children":[1,3,5,7,9,11,13,15,17,19,21,23,25,-1,-1,-1,-1,-1,-1,-1,-1,-1,-1,-1,-1,-1,-1],"loss_changes":[6.6481464E2,7.66201E1,1.0277771E2,1.6093216E1,8.233345E0,1.2103348E1,1.5116425E1,1.4485016E0,1.8181229E0,8.4327984E-1,1.2880964E0,2.883873E-1,1.65802E-1,0E0,0E0,0E0,0E0,0E0,0E0,0E0,0E0,0E0,0E0,0E0,0E0,0E0,0E0],"parents":[2147483647,0,0,1,1,2,2,3,3,4,4,5,5,6,6,7,7,8,8,9,9,10,10,11,11,12,12],"right_children":[2,4,6,8,10,12,14,16,18,20,22,24,26,-1,-1,-1,-1,-1,-1,-1,-1,-1,-1,-1,-1,-1,-1],"split_conditions":[3.2015033E0,1.5815885E0,5.697395E0,8.565714E-1,2.282362E0,4.130652E0,7.23E0,4.318972E-1,1.1911718E0,1.95E0,2.7386029E0,3.7520154E0,4.82E0,1.1285601E-1,1.7663388E-1,-5.4489713E-2,-4.3132097E-2,-3.2419834E-2,-2.2597268E-2,-1.2817633E-2,-2.365283E-3,8.562842E-3,2.1267919E-2,3.568553E-2,4.8366155E-2,6.0255893E-2,8.07851E-2],"split_indices":[25,24,24,28,24,25,13,28,25,13,24,24,13,0,0,0,0,0,0,0,0,0,0,0,0,0,0],"split_type":[0,0,0,0,0,0,0,0,0,0,0,0,0,0,0,0,0,0,0,0,0,0,0,0,0,0,0],"sum_hessian":[7.53E2,5.77E2,1.76E2,4.15E2,1.62E2,1.19E2,5.7E1,1.97E2,2.18E2,7.8E1,8.4E1,6.1E1,5.8E1,3.5E1,2.2E1,6.9E1,1.28E2,1.03E2,1.15E2,4.2E1,3.6E1,4.7E1,3.7E1,3.8E1,2.3E1,2.1E1,3.7E1],"tree_param":{"num_deleted":"0","num_feature":"32","num_nodes":"27","size_leaf_vector":"1"}},{"base_weights":[1.9088073E-3,-4.9227643E-1,1.6684006E0,-7.4148166E-1,-4.0979125E-2,1.159012E0,2.8355112E0,-9.291E-1,-5.8988595E-1,-2.7197206E-1,1.9903204E-1,8.1686693E-1,1.5274594E0,1.1195608E-1,1.9081374E-1,-5.2343637E-2,-4.2606566E-2,-3.2871958E-2,-2.3674587E-2,-1.5652152E-2,-6.6300766E-3,3.2329836E-3,1.6735986E-2,3.526066E-2,4.713522E-2,6.31974E-2,8.397846E-2],"categories":[],"categories_nodes":[],"categories_segments":[],"categories_sizes":[],"default_left":[0,0,0,0,0,0,0,0,0,0,0,0,0,0,0,0,0,0,0,0,0,0,0,0,0,0,0],"id":12,"left_children":[1,3,5,7,9,11,13,15,17,19,21,23,25,-1,-1,-1,-1,-1,-1,-1,-1,-1,-1,-1,-1,-1,-1],"loss_changes":[6.4813605E2,6.823627E1,1.0372592E2,1.0572815E1,1.2084803E1,1.4762207E1,2.3040405E1,6.7614746E-1,1.4106598E0,5.9386253E-1,1.9292536E0,2.9060745E-1,2.8207397E-1,0E0,0E0,0E0,0E0,0E0,0E0,0E0,0E0,0E0,0E0,0E0,0E0,0E0,0E0],"parents":[2147483647,0,0,1,1,2,2,3,3,4,4,5,5,6,6,7,7,8,8,9,9,10,10,11,11,12,12],"right_children":[2,4,6,8,10,12,14,16,18,20,22,24,26,-1,-1,-1,-1,-1,-1,-1,-1,-1,-1,-1,-1,-1,-1],"split_conditions":[3.2015033E0,1.43E0,5.85E0,7.5769955E-1,2.1103077E0,4.1722083E0,7.83E0,3.9919674E-1,1.1715448E0,1.8112881E0,2.58E0,3.8601115E0,4.9249988E0,1.1195608E-1,1.9081374E-1,-5.2343637E-2,-4.2606566E-2,-3.2871958E-2,-2.3674587E-2,-1.5652152E-2,-6.6300766E-3,3.2329836E-3,1.6735986E-2,3.526066E-2,4.713522E-2,6.31974E-2,8.397846E-2],"split_indices":[25,13,13,25,25,25,13,25,25,25,13,28,25,0,0,0,0,0,0,0,0,0,0,0,0,0,0],"split_type":[0,0,0,0,0,0,0,0,0,0,0,0,0,0,0,0,0,0,0,0,0,0,0,0,0,0,0],"sum_hessian":[7.85E2,6.06E2,1.79E2,3.9E2,2.16E2,1.26E2,5.3E1,1.72E2,2.18E2,1.1E2,1.06E2,6.7E1,5.9E1,3.5E1,1.8E1,6.3E1,1.09E2,1.35E2,8.3E1,8.4E1,2.6E1,5.4E1,5.2E1,3.9E1,2.8E1,2.5E1,3.4E1],"tree_param":{"num_deleted":"0","num_feature":"32","num_nodes":"27","size_leaf_vector":"1"}},{"base_weights":[1.1888618E-2,-4.4838658E-1,1.5741262E0,-6.673042E-1,8.821247E-2,1.0805414E0,2.5511758E0,-8.306753E-1,-4.5555022E-1,-1.10971786E-1,3.055324E-1,7.732655E-1,1.3549917E0,1.0701644E-1,1.7931247E-1,-4.7836136E-2,-3.6501594E-2,-2.5252787E-2,-1.6259199E-2,-9.680984E-3,1.3398415E-3,9.121631E-3,2.106788E-2,3.3087905E-2,4.6282616E-2,5.685624E-2,7.472794E-2],"categories":[],"categories_nodes":[],"categories_segments":[],"categories_sizes":[],"default_left":[0,0,0,0,0,0,0,0,0,0,0,0,0,0,0,0,0,0,0,0,0,0,0,0,0,0,0],"id":13,"left_children":[1,3,5,7,9,11,13,15,17,19,21,23,25,-1,-1,-1,-1,-1,-1,-1,-1,-1,-1,-1,-1,-1,-1],"loss_changes":[5.529433E2,6.983666E1,8.1638306E1,1.4220444E1,7.522506E0,8.903412E0,1.6989166E1,2.3080902E0,1.0361786E0,1.0413404E0,1.1065488E0,3.7299728E-1,1.5532684E-1,0E0,0E0,0E0,0E0,0E0,0E0,0E0,0E0,0E0,0E0,0E0,0E0,0E0,0E0],"parents":[2147483647,0,0,1,1,2,2,3,3,4,4,5,5,6,6,7,7,8,8,9,9,10,10,11,11,12,12],"right_children":[2,4,6,8,10,12,14,16,18,20,22,24,26,-1,-1,-1,-1,-1,-1,-1,-1,-1,-1,-1,-1,-1,-1],"split_conditions":[3.2683294E0,1.62E0,5.697395E0,9.7232896E-1,2.371656E0,4.2361636E0,7.9257884E0,5.190862E-1,1.4495847E0,2.0412323E0,2.79E0,3.9E0,4.97E0,1.0701644E-1,1.7931247E-1,-4.7836136E-2,-3.6501594E-2,-2.5252787E-2,-1.6259199E-2,-9.680984E-3,1.3398415E-3,9.121631E-3,2.106788E-2,3.3087905E-2,4.6282616E-2,5.685624E-2,7.472794E-2],"split_indices":[24,13,24,24,24,24,28,24,24,24,13,13,13,0,0,0,0,0,0,0,0,0,0,0,0,0,0],"split_type":[0,0,0,0,0,0,0,0,0,0,0,0,0,0,0,0,0,0,0,0,0,0,0,0,0,0,0],"sum_hessian":[7.67E2,5.93E2,1.74E2,4.21E2,1.72E2,1.17E2,5.7E1,2.36E2,1.85E2,9E1,8.2E1,5.7E1,6E1,4.3E1,1.4E1,1.01E2,1.35E2,1.32E2,5.3E1,5.6E1,3.4E1,4.1E1,4.1E1,3.6E1,2.1E1,2.7E1,3.3E1],"tree_param":{"num_deleted":"0","num_feature":"32","num_nodes":"27","size_leaf_vector":"1"}},{"base_weights":[1.8743253E-3,-4.178627E-1,1.4623519E0,-6.126416E-1,1.1552132E-1,1.0290926E0,2.3574245E0,-7.770243E-1,-4.2013806E-1,-9.8049335E-2,2.7853698E-1,7.379556E-1,1.3027872E0,9.6406E-2,1.6416733E-1,-4.3051634E-2,-3.289372E-2,-2.4448259E-2,-1.5630659E-2,-9.227428E-3,-1.4280607E-3,8.679012E-3,2.0400865E-2,3.2522406E-2,4.4397384E-2,5.428355E-2,7.1525E-2],"categories":[],"categories_nodes":[],"categories_segments":[],"categories_sizes":[],"default_left":[0,0,0,0,0,0,0,0,0,0,0,0,0,0,0,0,0,0,0,0,0,0,0,0,0,0,0],"id":14,"left_children":[1,3,5,7,9,11,13,15,17,19,21,23,25,-1,-1,-1,-1,-1,-1,-1,-1,-1,-1,-1,-1,-1,-1],"loss_changes":[4.695687E2,6.1886467E1,6.3887543E1,1.3470444E1,5.597768E0,8.361465E0,1.5531952E1,1.7757874E0,1.3494682E0,4.154758E-1,1.1658516E0,1.9683456E-1,8.293915E-2,0E0,0E0,0E0,0E0,0E0,0E0,0E0,0E0,0E0,0E0,0E0,0E0,0E0,0E0],"parents":[2147483647,0,0,1,1,2,2,3,3,4,4,5,5,6,6,7,7,8,8,9,9,10,10,11,11,12,12],"right_children":[2,4,6,8,10,12,14,16,18,20,22,24,26,-1,-1,-1,-1,-1,-1,-1,-1,-1,-1,-1,-1,-1,-1],"split_conditions":[3.2677326E0,1.7364541E0,5.697395E0,9.696622E-1,2.3261569E0,4.2361636E0,7.6512494E0,6.4871955E-1,1.3724092E0,1.9849935E0,2.7987635E0,3.8069758E0,4.708799E0,9.6406E-2,1.6416733E-1,-4.3051634E-2,-3.289372E-2,-2.4448259E-2,-1.5630659E-2,-9.227428E-3,-1.4280607E-3,8.679012E-3,2.0400865E-2,3.2522406E-2,4.4397384E-2,5.428355E-2,7.1525E-2],"split_indices":[25,24,24,25,25,24,24,25,25,25,24,25,25,0,0,0,0,0,0,0,0,0,0,0,0,0,0],"split_type":[0,0,0,0,0,0,0,0,0,0,0,0,0,0,0,0,0,0,0,0,0,0,0,0,0,0,0],"sum_hessian":[7.64E2,5.94E2,1.7E2,4.35E2,1.59E2,1.16E2,5.4E1,2.33E2,2.02E2,6.9E1,9E1,5.8E1,5.8E1,3.9E1,1.5E1,1.33E2,1E2,1.21E2,8.1E1,3E1,3.9E1,5.1E1,3.9E1,4E1,1.8E1,2.5E1,3.3E1],"tree_param":{"num_deleted":"0","num_feature":"32","num_nodes":"27","size_leaf_vector":"1"}},{"base_weights":[7.360214E-4,-4.0835902E-1,1.4421902E0,-6.042488E-1,4.024429E-2,1.1361781E0,2.7776575E0,-7.856137E-1,-4.6721885E-1,-1.488812E-1,2.373282E-1,7.410475E-1,1.459169E0,1.1166654E-1,1.7821564E-1,-4.558279E-2,-3.616862E-2,-2.767621E-2,-1.8740576E-2,-1.1037634E-2,-1.8578032E-3,6.5739998E-3,1.861869E-2,3.1652205E-2,4.22975E-2,5.499016E-2,7.881926E-2],"categories":[],"categories_nodes":[],"categories_segments":[],"categories_sizes":[],"default_left":[0,0,0,0,0,0,0,0,0,0,0,0,0,0,0,0,0,0,0,0,0,0,0,0,0,0,0],"id":15,"left_children":[1,3,5,7,9,11,13,15,17,19,21,23,25,-1,-1,-1,-1,-1,-1,-1,-1,-1,-1,-1,-1,-1,-1],"loss_changes":[4.534722E2,5.266253E1,6.631784E1,9.996414E0,6.856401E0,1.6785995E1,5.3138275E0,7.369461E-1,1.7065887E0,7.466037E-1,1.2375298E0,2.0091629E-1,1.4676666E0,0E0,0E0,0E0,0E0,0E0,0E0,0E0,0E0,0E0,0E0,0E0,0E0,0E0,0E0],"parents":[2147483647,0,0,1,1,2,2,3,3,4,4,5,5,6,6,7,7,8,8,9,9,10,10,11,11,12,12],"right_children":[2,4,6,8,10,12,14,16,18,20,22,24,26,-1,-1,-1,-1,-1,-1,-1,-1,-1,-1,-1,-1,-1,-1],"split_conditions":[3.2677326E0,1.5598367E0,6.6671076E0,8.07627E-1,2.282362E0,4.450048E0,8.60911E0,4.068931E-1,1.1871346E0,1.8861179E0,2.7199292E0,3.7520154E0,4.8034034E0,1.1166654E-1,1.7821564E-1,-4.558279E-2,-3.616862E-2,-2.767621E-2,-1.8740576E-2,-1.1037634E-2,-1.8578032E-3,6.5739998E-3,1.861869E-2,3.1652205E-2,4.22975E-2,5.499016E-2,7.881926E-2],"split_indices":[25,25,24,25,24,24,25,24,24,24,25,24,25,0,0,0,0,0,0,0,0,0,0,0,0,0,0],"split_type":[0,0,0,0,0,0,0,0,0,0,0,0,0,0,0,0,0,0,0,0,0,0,0,0,0,0,0],"sum_hessian":[7.67E2,5.98E2,1.69E2,4.16E2,1.82E2,1.39E2,3E1,1.77E2,2.39E2,9.3E1,8.9E1,6.4E1,7.5E1,2E1,1E1,5.4E1,1.23E2,1.21E2,1.18E2,5.6E1,3.7E1,5.1E1,3.8E1,3.5E1,2.9E1,2.1E1,5.4E1],"tree_param":{"num_deleted":"0","num_feature":"32","num_nodes":"27","size_leaf_vector":"1"}},{"base_weights":[-1.1405273E-2,-4.062791E-1,1.2336963E0,-6.0614276E-1,-4.3388013E-2,8.504669E-1,2.1576464E0,-7.5951284E-1,-4.689943E-1,-2.1368359E-1,1.3926212E-1,5.6771976E-1,1.1466429E0,8.7774284E-2,1.4210494E-1,-4.3382183E-2,-3.5112265E-2,-2.663025E-2,-1.9613689E-2,-1.2905523E-2,-5.745827E-3,1.6687624E-3,1.07681705E-2,2.4092685E-2,3.497849E-2,4.397295E-2,6.131331E-2],"categories":[],"categories_nodes":[],"categories_segments":[],"categories_sizes":[],"default_left":[0,0,0,0,0,0,0,0,0,0,0,0,0,0,0,0,0,0,0,0,0,0,0,0,0,0,0],"id":16,"left_children":[1,3,5,7,9,11,13,15,17,19,21,23,25,-1,-1,-1,-1,-1,-1,-1,-1,-1,-1,-1,-1,-1,-1],"loss_changes":[3.7366965E2,4.1822777E1,6.2962524E1,7.468628E0,6.437287E0,1.0319351E1,9.599503E0,4.681778E-1,7.6223755E-1,4.398451E-1,7.986249E-1,4.4408798E-1,2.6181793E-1,0E0,0E0,0E0,0E0,0E0,0E0,0E0,0E0,0E0,0E0,0E0,0E0,0E0,0E0],"parents":[2147483647,0,0,1,1,2,2,3,3,4,4,5,5,6,6,7,7,8,8,9,9,10,10,11,11,12,12],"right_children":[2,4,6,8,10,12,14,16,18,20,22,24,26,-1,-1,-1,-1,-1,-1,-1,-1,-1,-1,-1,-1,-1,-1],"split_conditions":[3.0310204E0,1.43E0,5.697395E0,7.7E-1,2.1103077E0,4.091344E0,7.215994E0,3.9E-1,1.12E0,1.7670056E0,2.4408607E0,3.6308856E0,4.495059E0,8.7774284E-2,1.4210494E-1,-4.3382183E-2,-3.5112265E-2,-2.663025E-2,-1.9613689E-2,-1.2905523E-2,-5.745827E-3,1.6687624E-3,1.07681705E-2,2.4092685E-2,3.497849E-2,4.397295E-2,6.131331E-2],"split_indices":[24,13,24,13,25,25,25,13,13,28,24,24,25,0,0,0,0,0,0,0,0,0,0,0,0,0,0],"split_type":[0,0,0,0,0,0,0,0,0,0,0,0,0,0,0,0,0,0,0,0,0,0,0,0,0,0,0],"sum_hessian":[7.58E2,5.76E2,1.82E2,3.71E2,2.05E2,1.3E2,5.2E1,1.73E2,1.98E2,1.06E2,9.9E1,6.8E1,6.2E1,3.5E1,1.7E1,5.5E1,1.18E2,1.05E2,9.3E1,7.2E1,3.4E1,4.2E1,5.7E1,4.4E1,2.4E1,1.7E1,4.5E1],"tree_param":{"num_deleted":"0","num_feature":"32","num_nodes":"27","size_leaf_vector":"1"}},{"base_weights":[1.4242008E-2,-3.3557653E-1,1.3818278E0,-5.140589E-1,1.5265492E-1,1.125344E0,2.7349126E0,-6.593028E-1,-3.335648E-1,7.8054974E-3,3.225075E-1,8.45977E-1,1.4893782E0,1.0370051E-1,1.6114904E-1,-3.693388E-2,-2.7588734E-2,-1.9504951E-2,-1.1706987E-2,-2.4719804E-3,5.8252034E-3,1.0459976E-2,2.08211E-2,3.297345E-2,5.0100513E-2,6.153601E-2,8.291364E-2],"categories":[],"categories_nodes":[],"categories_segments":[],"categories_sizes":[],"default_left":[0,0,0,0,0,0,0,0,0,0,0,0,0,0,0,0,0,0,0,0,0,0,0,0,0,0,0],"id":17,"left_children":[1,3,5,7,9,11,13,15,17,19,21,23,25,-1,-1,-1,-1,-1,-1,-1,-1,-1,-1,-1,-1,-1,-1],"loss_changes":[3.6405298E2,5.2885735E1,5.071411E1,1.141983E1,4.00778E0,1.2164307E1,1.0570679E0,1.6834946E0,1.0328465E0,5.595589E-1,7.1097946E-1,1.5800209E0,4.0554047E-1,0E0,0E0,0E0,0E0,0E0,0E0,0E0,0E0,0E0,0E0,0E0,0E0,0E0,0E0],"parents":[2147483647,0,0,1,1,2,2,3,3,4,4,5,5,6,6,7,7,8,8,9,9,10,10,11,11,12,12],"right_children":[2,4,6,8,10,12,14,16,18,20,22,24,26,-1,-1,-1,-1,-1,-1,-1,-1,-1,-1,-1,-1,-1,-1],"split_conditions":[3.45E0,1.79E0,7.09E0,1.030208E0,2.5972636E0,5.25E0,8.60911E0,6.8135476E-1,1.4495847E0,2.3261569E0,2.9013612E0,4.091344E0,5.697395E0,1.0370051E-1,1.6114904E-1,-3.693388E-2,-2.7588734E-2,-1.9504951E-2,-1.1706987E-2,-2.4719804E-3,5.8252034E-3,1.0459976E-2,2.08211E-2,3.297345E-2,5.0100513E-2,6.153601E-2,8.291364E-2],"split_indices":[13,13,13,24,24,13,25,24,24,25,25,25,24,0,0,0,0,0,0,0,0,0,0,0,0,0,0],"split_type":[0,0,0,0,0,0,0,0,0,0,0,0,0,0,0,0,0,0,0,0,0,0,0,0,0,0,0],"sum_hessian":[7.59E2,6.05E2,1.54E2,4.43E2,1.62E2,1.31E2,2.3E1,2.44E2,1.99E2,8.8E1,7.4E1,7.6E1,5.5E1,1.2E1,1.1E1,1.37E2,1.07E2,1.25E2,7.4E1,5.8E1,3E1,3.5E1,3.9E1,3.7E1,3.9E1,2.5E1,3E1],"tree_param":{"num_deleted":"0","num_feature":"32","num_nodes":"27","size_leaf_vector":"1"}},{"base_weights":[1.6268691E-2,-3.4321907E-1,1.2380317E0,-4.9886414E-1,1.0027595E-1,9.669963E-1,2.3575058E0,-6.309354E-1,-3.319412E-1,-5.068519E-2,2.5187868E-1,6.371842E-1,1.2270038E0,9.5306754E-2,1.5639979E-1,-3.7581965E-2,-2.8246535E-2,-1.8893106E-2,-1.2252798E-2,-6.422809E-3,1.1368756E-3,6.0360827E-3,1.5518196E-2,2.7316963E-2,3.7408493E-2,4.735619E-2,6.685008E-2],"categories":[],"categories_nodes":[],"categories_segments":[],"categories_sizes":[],"default_left":[0,0,0,0,0,0,0,0,0,0,0,0,0,0,0,0,0,0,0,0,0,0,0,0,0,0,0],"id":18,"left_children":[1,3,5,7,9,11,13,15,17,19,21,23,25,-1,-1,-1,-1,-1,-1,-1,-1,-1,-1,-1,-1,-1,-1],"loss_changes":[3.438863E2,4.181185E1,5.1728577E1,9.667038E0,3.6287732E0,1.1652451E1,5.86203E0,1.559166E0,7.0537186E-1,4.5973325E-1,5.6852245E-1,2.5669098E-1,1.1965866E0,0E0,0E0,0E0,0E0,0E0,0E0,0E0,0E0,0E0,0E0,0E0,0E0,0E0,0E0],"parents":[2147483647,0,0,1,1,2,2,3,3,4,4,5,5,6,6,7,7,8,8,9,9,10,10,11,11,12,12],"right_children":[2,4,6,8,10,12,14,16,18,20,22,24,26,-1,-1,-1,-1,-1,-1,-1,-1,-1,-1,-1,-1,-1,-1],"split_conditions":[3.3040128E0,1.7581087E0,6.48E0,1.03E0,2.36E0,4.2710466E0,8.60911E0,5.2E-1,1.43E0,2.0418622E0,2.642933E0,3.908677E0,4.9249988E0,9.5306754E-2,1.5639979E-1,-3.7581965E-2,-2.8246535E-2,-1.8893106E-2,-1.2252798E-2,-6.422809E-3,1.1368756E-3,6.0360827E-3,1.5518196E-2,2.7316963E-2,3.7408493E-2,4.735619E-2,6.685008E-2],"split_indices":[25,28,13,13,13,25,25,13,13,25,28,28,25,0,0,0,0,0,0,0,0,0,0,0,0,0,0],"split_type":[0,0,0,0,0,0,0,0,0,0,0,0,0,0,0,0,0,0,0,0,0,0,0,0,0,0,0],"sum_hessian":[7.81E2,6.04E2,1.77E2,4.47E2,1.57E2,1.44E2,3.3E1,2.48E2,1.99E2,7.9E1,7.8E1,6.5E1,7.9E1,2.3E1,1E1,8.4E1,1.64E2,1.28E2,7.1E1,3.8E1,4.1E1,2.5E1,5.3E1,3.9E1,2.6E1,2.5E1,5.4E1],"tree_param":{"num_deleted":"0","num_feature":"32","num_nodes":"27","size_leaf_vector":"1"}},{"base_weights":[1.7908214E-2,-3.45666E-1,1.1376988E0,-5.0888854E-1,4.8347153E-3,9.150661E-1,2.4231122E0,-6.5004176E-1,-4.017088E-1,-1.399562E-1,1.6787696E-1,6.168512E-1,1.2323804E0,9.341072E-2,1.480525E-1,-3.96969E-2,-3.05173E-2,-2.3132041E-2,-1.6015403E-2,-9.727517E-3,-2.6188307E-3,4.6384255E-3,1.2690509E-2,2.3999764E-2,3.6673352E-2,5.4019984E-2,7.061704E-2],"categories":[],"categories_nodes":[],"categories_segments":[],"categories_sizes":[],"default_left":[0,0,0,0,0,0,0,0,0,0,0,0,0,0,0,0,0,0,0,0,0,0,0,0,0,0,0],"id":19,"left_children":[1,3,5,7,9,11,13,15,17,19,21,23,25,-1,-1,-1,-1,-1,-1,-1,-1,-1,-1,-1,-1,-1,-1],"loss_changes":[3.1062402E2,3.2955208E1,5.1297424E1,5.684471E0,4.36719E0,1.4474869E1,2.5276337E0,4.7505188E-1,9.727516E-1,4.5838046E-1,5.379796E-1,1.0045052E0,5.8010864E-1,0E0,0E0,0E0,0E0,0E0,0E0,0E0,0E0,0E0,0E0,0E0,0E0,0E0,0E0],"parents":[2147483647,0,0,1,1,2,2,3,3,4,4,5,5,6,6,7,7,8,8,9,9,10,10,11,11,12,12],"right_children":[2,4,6,8,10,12,14,16,18,20,22,24,26,-1,-1,-1,-1,-1,-1,-1,-1,-1,-1,-1,-1,-1,-1],"split_conditions":[3.154002E0,1.4964021E0,6.6671076E0,7.77872E-1,2.2277174E0,4.639706E0,8.60911E0,3.4333274E-1,1.1871346E0,1.8219229E0,2.6461792E0,3.7026145E0,5.697395E0,9.341072E-2,1.480525E-1,-3.96969E-2,-3.05173E-2,-2.3132041E-2,-1.6015403E-2,-9.727517E-3,-2.6188307E-3,4.6384255E-3,1.2690509E-2,2.3999764E-2,3.6673352E-2,5.4019984E-2,7.061704E-2],"split_indices":[25,25,24,24,24,24,25,24,24,24,25,25,24,0,0,0,0,0,0,0,0,0,0,0,0,0,0],"split_type":[0,0,0,0,0,0,0,0,0,0,0,0,0,0,0,0,0,0,0,0,0,0,0,0,0,0,0],"sum_hessian":[7.61E2,5.75E2,1.86E2,3.92E2,1.83E2,1.6E2,2.6E1,1.67E2,2.25E2,9.7E1,8.6E1,8.4E1,7.6E1,1.5E1,1.1E1,3.2E1,1.35E2,1.26E2,9.9E1,5.9E1,3.8E1,4.7E1,3.9E1,4.1E1,4.3E1,4.5E1,3.1E1],"tree_param":{"num_deleted":"0","num_feature":"32","num_nodes":"27","size_leaf_vector":"1"}},{"base_weights":[1.2786901E-3,-3.04105E-1,1.1886632E0,-4.6610218E-1,8.162004E-2,9.705205E-1,2.596733E0,-6.1287796E-1,-3.5255527E-1,-5.5246595E-2,2.521322E-1,6.9177365E-1,1.2857971E0,8.71731E-2,1.4494179E-1,-3.7110183E-2,-2.8275667E-2,-2.0715803E-2,-1.3673204E-2,-6.1877626E-3,1.5235726E-3,8.941407E-3,1.7888997E-2,2.4758318E-2,3.9114784E-2,5.4410983E-2,7.336956E-2],"categories":[],"categories_nodes":[],"categories_segments":[],"categories_sizes":[],"default_left":[0,0,0,0,0,0,0,0,0,0,0,0,0,0,0,0,0,0,0,0,0,0,0,0,0,0,0],"id":20,"left_children":[1,3,5,7,9,11,13,15,17,19,21,23,25,-1,-1,-1,-1,-1,-1,-1,-1,-1,-1,-1,-1,-1,-1],"loss_changes":[2.8537128E2,3.9154507E1,4.6932602E1,7.133606E0,4.3546906E0,1.1501938E1,3.592682E-1,7.502365E-1,1.1127663E0,6.145035E-1,5.788045E-1,9.830208E-1,7.352829E-1,0E0,0E0,0E0,0E0,0E0,0E0,0E0,0E0,0E0,0E0,0E0,0E0,0E0,0E0],"parents":[2147483647,0,0,1,1,2,2,3,3,4,4,5,5,6,6,7,7,8,8,9,9,10,10,11,11,12,12],"right_children":[2,4,6,8,10,12,14,16,18,20,22,24,26,-1,-1,-1,-1,-1,-1,-1,-1,-1,-1,-1,-1,-1,-1],"split_conditions":[3.4E0,1.64E0,7.23E0,8.26264E-1,2.46E0,4.97E0,7.9257884E0,3.6E-1,1.24E0,2.0412323E0,2.9506624E0,3.9E0,5.776554E0,8.71731E-2,1.4494179E-1,-3.7110183E-2,-2.8275667E-2,-2.0715803E-2,-1.3673204E-2,-6.1877626E-3,1.5235726E-3,8.941407E-3,1.7888997E-2,2.4758318E-2,3.9114784E-2,5.4410983E-2,7.336956E-2],"split_indices":[13,13,13,24,13,13,28,13,13,24,24,13,24,0,0,0,0,0,0,0,0,0,0,0,0,0,0],"split_type":[0,0,0,0,0,0,0,0,0,0,0,0,0,0,0,0,0,0,0,0,0,0,0,0,0,0,0],"sum_hessian":[7.85E2,6.25E2,1.6E2,4.4E2,1.85E2,1.4E2,2E1,1.9E2,2.5E2,1.03E2,8.2E1,7.6E1,6.4E1,7E0,1.3E1,4.7E1,1.43E2,1.38E2,1.12E2,5.7E1,4.6E1,5E1,3.2E1,2.6E1,5E1,3.4E1,3E1],"tree_param":{"num_deleted":"0","num_feature":"32","num_nodes":"27","size_leaf_vector":"1"}},{"base_weights":[-4.6934052E-3,-3.1138176E-1,1.0284785E0,-4.4859448E-1,2.9496722E-2,6.955535E-1,1.6771872E0,-5.795031E-1,-3.3542493E-1,-8.9406975E-2,1.913856E-1,4.827049E-1,9.301892E-1,1.3424414E0,1.0971822E-1,-3.449966E-2,-2.6497168E-2,-1.9280769E-2,-1.2786152E-2,-7.642345E-3,-9.48182E-4,7.1877935E-3,1.4871529E-2,2.0935213E-2,3.0780843E-2,4.703996E-2,8.666051E-3,6.792435E-2,1.8317794E-2],"categories":[],"categories_nodes":[],"categories_segments":[],"categories_sizes":[],"default_left":[0,0,0,0,0,0,0,0,0,0,0,0,0,0,0,0,0,0,0,0,0,0,0,0,0,0,0,0,0],"id":21,"left_children":[1,3,5,7,9,11,13,15,17,19,21,23,25,27,-1,-1,-1,-1,-1,-1,-1,-1,-1,-1,-1,-1,-1,-1,-1],"loss_changes":[2.4778929E2,2.8217274E1,3.749231E1,6.17601E0,3.3664696E0,5.544018E0,7.441559E0,7.185669E-1,8.3345413E-1,4.4846237E-1,3.3100843E-1,2.951584E-1,2.8664017E-1,1.1312103E-1,0E0,0E0,0E0,0E0,0E0,0E0,0E0,0E0,0E0,0E0,0E0,0E0,0E0,0E0,0E0],"parents":[2147483647,0,0,1,1,2,2,3,3,4,4,5,5,6,6,7,7,8,8,9,9,10,10,11,11,12,12,13,13],"right_children":[2,4,6,8,10,12,14,16,18,20,22,24,26,28,-1,-1,-1,-1,-1,-1,-1,-1,-1,-1,-1,-1,-1,-1,-1],"split_conditions":[3.1638436E0,1.6E0,5.697395E0,8.462728E-1,2.3261569E0,4.2361636E0,7.23E0,3.9E-1,1.2660713E0,1.8861179E0,2.9013612E0,3.8069758E0,1.7826087E0,3.6810432E1,1.0971822E-1,-3.449966E-2,-2.6497168E-2,-1.9280769E-2,-1.2786152E-2,-7.642345E-3,-9.48182E-4,7.1877935E-3,1.4871529E-2,2.0935213E-2,3.0780843E-2,4.703996E-2,8.666051E-3,6.792435E-2,1.8317794E-2],"split_indices":[24,13,24,25,25,24,13,13,25,24,25,25,4,2,0,0,0,0,0,0,0,0,0,0,0,0,0,0,0],"split_type":[0,0,0,0,0,0,0,0,0,0,0,0,0,0,0,0,0,0,0,0,0,0,0,0,0,0,0,0,0],"sum_hessian":[7.8E2,6.02E2,1.78E2,4.29E2,1.73E2,1.19E2,5.9E1,1.97E2,2.32E2,1E2,7.3E1,6.4E1,5.5E1,3.8E1,2.1E1,5.7E1,1.4E2,1.4E2,9.2E1,5.2E1,4.8E1,5.2E1,2.1E1,4.6E1,1.8E1,5.4E1,1E0,3.7E1,1E0],"tree_param":{"num_deleted":"0","num_feature":"32","num_nodes":"29","size_leaf_vector":"1"}},{"base_weights":[-4.2555616E-3,-2.8526622E-1,9.502361E-1,-4.403113E-1,-1.7962847E-2,6.4038396E-1,1.5588993E0,-5.5875283E-1,-3.4616572E-1,-1.4822988E-1,1.2892006E-1,4.6720052E-1,8.3377945E-1,1.3663702E0,1.2957053E-1,-3.387907E-2,-2.5812883E-2,-2.001997E-2,-1.448553E-2,-8.58004E-3,-1.3734723E-3,2.6956827E-3,1.08571155E-2,1.8061657E-2,2.6087506E-2,4.209429E-2,1.0103608E-2,3.212253E-2,6.991154E-2],"categories":[],"categories_nodes":[],"categories_segments":[],"categories_sizes":[],"default_left":[0,0,0,0,0,0,0,0,0,0,0,0,0,0,0,0,0,0,0,0,0,0,0,0,0,0,0,0,0],"id":22,"left_children":[1,3,5,7,9,11,13,15,17,19,21,23,25,27,-1,-1,-1,-1,-1,-1,-1,-1,-1,-1,-1,-1,-1,-1,-1],"loss_changes":[2.0519292E2,2.4485542E1,3.1817352E1,3.9769592E0,4.1903224E0,3.5291252E0,7.988907E0,4.7833633E-1,5.300312E-1,3.2267094E-1,6.69868E-1,1.8147755E-1,1.0640335E-1,2.7799988E-1,0E0,0E0,0E0,0E0,0E0,0E0,0E0,0E0,0E0,0E0,0E0,0E0,0E0,0E0,0E0],"parents":[2147483647,0,0,1,1,2,2,3,3,4,4,5,5,6,6,7,7,8,8,9,9,10,10,11,11,12,12,13,13],"right_children":[2,4,6,8,10,12,14,16,18,20,22,24,26,28,-1,-1,-1,-1,-1,-1,-1,-1,-1,-1,-1,-1,-1,-1,-1],"split_conditions":[3.1638436E0,1.4495847E0,5.697395E0,7.768462E-1,2.0931878E0,4.2361636E0,9.469245E0,3.5493442E-1,1.0958043E0,2.0412323E0,2.7053623E0,3.5661068E0,5.83E-1,4.0634484E0,1.2957053E-1,-3.387907E-2,-2.5812883E-2,-2.001997E-2,-1.448553E-2,-8.58004E-3,-1.3734723E-3,2.6956827E-3,1.08571155E-2,1.8061657E-2,2.6087506E-2,4.209429E-2,1.0103608E-2,3.212253E-2,6.991154E-2],"split_indices":[24,24,24,28,28,24,28,28,28,24,28,24,19,9,0,0,0,0,0,0,0,0,0,0,0,0,0,0,0],"split_type":[0,0,0,0,0,0,0,0,0,0,0,0,0,0,0,0,0,0,0,0,0,0,0,0,0,0,0,0,0],"sum_hessian":[7.63E2,5.9E2,1.73E2,3.73E2,2.17E2,1.16E2,5.7E1,1.63E2,2.1E2,1.15E2,1.02E2,6.3E1,5.3E1,5E1,7E0,3.9E1,1.24E2,1.04E2,1.06E2,9.6E1,1.9E1,5.6E1,4.6E1,2.4E1,3.9E1,5.2E1,1E0,3E0,4.7E1],"tree_param":{"num_deleted":"0","num_feature":"32","num_nodes":"29","size_leaf_vector":"1"}},{"base_weights":[1.1610855E-2,-2.6493862E-1,1.0010474E0,-3.973508E-1,6.534856E-2,7.713246E-1,1.9175221E0,-5.2716553E-1,-2.9177824E-1,-5.2195355E-2,1.8889675E-1,5.550602E-1,1.0194657E0,7.79022E-2,2.7429566E0,-3.2416195E-2,-2.4456285E-2,-1.7216967E-2,-1.1013991E-2,-6.3033435E-3,-1.039234E-5,5.6863674E-3,1.371888E-2,2.372985E-2,3.359377E-2,5.1547557E-2,7.397044E-3,1.5413232E-1,5.1801424E-2],"categories":[],"categories_nodes":[],"categories_segments":[],"categories_sizes":[],"default_left":[0,0,0,0,0,0,0,0,0,0,0,0,0,0,0,0,0,0,0,0,0,0,0,0,0,0,0,0,0],"id":23,"left_children":[1,3,5,7,9,11,13,15,17,19,21,23,25,-1,27,-1,-1,-1,-1,-1,-1,-1,-1,-1,-1,-1,-1,-1,-1],"loss_changes":[2.1670508E2,2.7097343E1,3.4943542E1,5.90374E0,2.5948355E0,6.9471054E0,5.8150406E0,5.9082794E-1,8.486252E-1,3.5329023E-1,5.2781796E-1,4.048767E-1,4.8810577E-1,0E0,2.0247192E0,0E0,0E0,0E0,0E0,0E0,0E0,0E0,0E0,0E0,0E0,0E0,0E0,0E0,0E0],"parents":[2147483647,0,0,1,1,2,2,3,3,4,4,5,5,6,6,7,7,8,8,9,9,10,10,11,11,12,12,14,14],"right_children":[2,4,6,8,10,12,14,16,18,20,22,24,26,-1,28,-1,-1,-1,-1,-1,-1,-1,-1,-1,-1,-1,-1,-1,-1],"split_conditions":[3.2870576E0,1.67E0,6.48E0,8.6E-1,2.371656E0,4.82E0,8.885892E0,3.4E-1,1.3032892E0,1.8861179E0,2.7987635E0,4.17E0,1.84E0,7.79022E-2,5.45E-1,-3.2416195E-2,-2.4456285E-2,-1.7216967E-2,-1.1013991E-2,-6.3033435E-3,-1.039234E-5,5.6863674E-3,1.371888E-2,2.372985E-2,3.359377E-2,5.1547557E-2,7.397044E-3,1.5413232E-1,5.1801424E-2],"split_indices":[24,13,13,13,24,13,24,13,24,24,24,13,4,0,29,0,0,0,0,0,0,0,0,0,0,0,0,0,0],"split_type":[0,0,0,0,0,0,0,0,0,0,0,0,0,0,0,0,0,0,0,0,0,0,0,0,0,0,0,0,0],"sum_hessian":[7.9E2,6.18E2,1.72E2,4.41E2,1.77E2,1.39E2,3.3E1,1.96E2,2.45E2,9.1E1,8.6E1,7.6E1,6.3E1,2.5E1,8E0,4.3E1,1.53E2,1.39E2,1.06E2,3.7E1,5.4E1,4.7E1,3.9E1,4.8E1,2.8E1,6.2E1,1E0,6E0,2E0],"tree_param":{"num_deleted":"0","num_feature":"32","num_nodes":"29","size_leaf_vector":"1"}},{"base_weights":[1.5699488E-4,-2.3667984E-1,1.0055041E0,-3.7616873E-1,8.3921984E-2,8.0437374E-1,2.0027819E0,-4.7786358E-1,-2.6079988E-1,-3.359995E-2,2.2643223E-1,5.8512455E-1,5.4834854E-2,7.967322E-2,1.3846001E-1,-2.8018981E-2,-2.128137E-2,-1.5097804E-2,-9.933018E-3,-4.8643523E-3,1.1931761E-3,6.3352794E-3,1.3747372E-2,2.4751795E-2,3.4887522E-2],"categories":[],"categories_nodes":[],"categories_segments":[],"categories_sizes":[],"default_left":[0,0,0,0,0,0,0,0,0,0,0,0,0,0,0,0,0,0,0,0,0,0,0,0,0],"id":24,"left_children":[1,3,5,7,9,11,13,15,17,19,21,23,-1,-1,-1,-1,-1,-1,-1,-1,-1,-1,-1,-1,-1],"loss_changes":[1.8357747E2,2.7937092E1,2.7874695E1,4.978977E0,3.189743E0,7.3056564E0,3.1163788E0,7.5286484E-1,4.6684265E-1,3.8658816E-1,3.8125277E-1,3.952694E-1,0E0,0E0,0E0,0E0,0E0,0E0,0E0,0E0,0E0,0E0,0E0,0E0,0E0],"parents":[2147483647,0,0,1,1,2,2,3,3,4,4,5,5,6,6,7,7,8,8,9,9,10,10,11,11],"right_children":[2,4,6,8,10,12,14,16,18,20,22,24,-1,-1,-1,-1,-1,-1,-1,-1,-1,-1,-1,-1,-1],"split_conditions":[3.5661068E0,1.65E0,7.09E0,9.467334E-1,2.5392053E0,5.27E0,8.885892E0,5.1E-1,1.38E0,2.0412323E0,2.7987635E0,4.3E0,5.4834854E-2,7.967322E-2,1.3846001E-1,-2.8018981E-2,-2.128137E-2,-1.5097804E-2,-9.933018E-3,-4.8643523E-3,1.1931761E-3,6.3352794E-3,1.3747372E-2,2.4751795E-2,3.4887522E-2],"split_indices":[24,13,13,24,24,13,24,13,13,24,24,13,0,0,0,0,0,0,0,0,0,0,0,0,0],"split_type":[0,0,0,0,0,0,0,0,0,0,0,0,0,0,0,0,0,0,0,0,0,0,0,0,0],"sum_hessian":[7.69E2,6.23E2,1.46E2,4.34E2,1.89E2,1.23E2,2.3E1,2.29E2,2.05E2,1.04E2,8.5E1,7.2E1,5.1E1,1.7E1,6E0,8.5E1,1.44E2,1.21E2,8.4E1,4.9E1,5.5E1,2.9E1,5.6E1,4.3E1,2.9E1],"tree_param":{"num_deleted":"0","num_feature":"32","num_nodes":"25","size_leaf_vector":"1"}},{"base_weights":[4.847993E-3,-2.4346413E-1,9.0658474E-1,-3.532774E-1,7.783778E-2,6.92776E-1,1.8883932E0,-4.504311E-1,-2.3612638E-1,-1.1515901E-2,2.2157839E-1,5.186047E-1,4.835035E-2,6.691483E-2,2.230332E0,-2.6470656E-2,-1.9659696E-2,-1.3898917E-2,-8.925769E-3,-4.2166575E-3,1.9640548E-3,8.827939E-3,1.3586529E-2,2.2335265E-2,3.3358123E-2,1.17293596E-1,4.5459382E-2],"categories":[],"categories_nodes":[],"categories_segments":[],"categories_sizes":[],"default_left":[0,0,0,0,0,0,0,0,0,0,0,0,0,0,0,0,0,0,0,0,0,0,0,0,0,0,0],"id":25,"left_children":[1,3,5,7,9,11,13,15,17,19,21,23,-1,-1,25,-1,-1,-1,-1,-1,-1,-1,-1,-1,-1,-1,-1],"loss_changes":[1.7733525E2,2.193837E1,3.458795E1,5.163349E0,2.0447083E0,6.280876E0,2.6581345E0,9.3105316E-1,4.6153736E-1,3.6950356E-1,8.975148E-2,6.5260315E-1,0E0,0E0,4.621277E-1,0E0,0E0,0E0,0E0,0E0,0E0,0E0,0E0,0E0,0E0,0E0,0E0],"parents":[2147483647,0,0,1,1,2,2,3,3,4,4,5,5,6,6,7,7,8,8,9,9,10,10,11,11,14,14],"right_children":[2,4,6,8,10,12,14,16,18,20,22,24,-1,-1,26,-1,-1,-1,-1,-1,-1,-1,-1,-1,-1,-1,-1],"split_conditions":[3.3040128E0,1.7581087E0,6.8E0,1.01E0,2.61E0,4.97E0,7.9257884E0,5.1420975E-1,1.3457472E0,2.0653746E0,3.01E0,4.3688674E0,4.835035E-2,6.691483E-2,5.45E-1,-2.6470656E-2,-1.9659696E-2,-1.3898917E-2,-8.925769E-3,-4.2166575E-3,1.9640548E-3,8.827939E-3,1.3586529E-2,2.2335265E-2,3.3358123E-2,1.17293596E-1,4.5459382E-2],"split_indices":[25,28,13,13,13,13,28,25,25,25,13,25,0,0,29,0,0,0,0,0,0,0,0,0,0,0,0],"split_type":[0,0,0,0,0,0,0,0,0,0,0,0,0,0,0,0,0,0,0,0,0,0,0,0,0,0,0],"sum_hessian":[7.9E2,6.2E2,1.7E2,4.62E2,1.58E2,1.41E2,2.9E1,2.51E2,2.11E2,9.8E1,6E1,8.8E1,5.3E1,1.3E1,1.6E1,1.02E2,1.49E2,1.2E2,9.1E1,4E1,5.8E1,3.4E1,2.6E1,6.2E1,2.6E1,1.4E1,2E0],"tree_param":{"num_deleted":"0","num_feature":"32","num_nodes":"27","size_leaf_vector":"1"}},{"base_weights":[-1.6566078E-3,-2.4603981E-1,7.592427E-1,-3.653367E-1,-2.165338E-2,5.4420424E-1,1.3790535E0,-4.6878952E-1,-2.898484E-1,-1.426236E-1,5.621899E-2,3.8437107E-1,7.4824506E-1,1.1921486E0,1.228773E-1,-2.8979128E-2,-2.1846553E-2,-1.591154E-2,-1.0532556E-2,-7.6530017E-3,-3.2096494E-3,6.383768E-5,6.3199657E-3,1.63413E-2,2.3469267E-2,3.7859716E-2,5.505979E-3,4.4087064E-2,6.434601E-2],"categories":[],"categories_nodes":[],"categories_segments":[],"categories_sizes":[],"default_left":[0,0,0,0,0,0,0,0,0,0,0,0,0,0,0,0,0,0,0,0,0,0,0,0,0,0,0,0,0],"id":26,"left_children":[1,3,5,7,9,11,13,15,17,19,21,23,25,27,-1,-1,-1,-1,-1,-1,-1,-1,-1,-1,-1,-1,-1,-1,-1],"loss_changes":[1.4150957E2,1.5410805E1,2.390689E1,2.8004875E0,1.901486E0,4.245533E0,6.544304E0,3.009224E-1,4.274845E-1,5.4838777E-2,4.7410986E-1,2.3796463E-1,2.592659E-1,1.0081482E-1,0E0,0E0,0E0,0E0,0E0,0E0,0E0,0E0,0E0,0E0,0E0,0E0,0E0,0E0,0E0],"parents":[2147483647,0,0,1,1,2,2,3,3,4,4,5,5,6,6,7,7,8,8,9,9,10,10,11,11,12,12,13,13],"right_children":[2,4,6,8,10,12,14,16,18,20,22,24,26,28,-1,-1,-1,-1,-1,-1,-1,-1,-1,-1,-1,-1,-1,-1,-1],"split_conditions":[3.1E0,1.4439417E0,5.831003E0,7.215055E-1,1.8685237E0,4.3399677E0,9.469245E0,3.2E-1,1.2713143E0,1.8219229E0,2.46E0,3.7026145E0,2.05E0,5.694832E0,1.228773E-1,-2.8979128E-2,-2.1846553E-2,-1.591154E-2,-1.0532556E-2,-7.6530017E-3,-3.2096494E-3,6.383768E-5,6.3199657E-3,1.63413E-2,2.3469267E-2,3.7859716E-2,5.505979E-3,4.4087064E-2,6.434601E-2],"split_indices":[13,28,25,25,25,24,28,13,25,24,13,25,4,28,0,0,0,0,0,0,0,0,0,0,0,0,0,0,0],"split_type":[0,0,0,0,0,0,0,0,0,0,0,0,0,0,0,0,0,0,0,0,0,0,0,0,0,0,0,0,0],"sum_hessian":[7.59E2,5.75E2,1.84E2,3.75E2,2E2,1.38E2,4.6E1,1.56E2,2.19E2,7.8E1,1.22E2,7.9E1,5.9E1,4.1E1,5E0,3.1E1,1.25E2,1.59E2,6E1,6.8E1,1E1,6.9E1,5.3E1,5E1,2.9E1,5.8E1,1E0,1.2E1,2.9E1],"tree_param":{"num_deleted":"0","num_feature":"32","num_nodes":"29","size_leaf_vector":"1"}},{"base_weights":[1.7887363E-2,-2.126374E-1,8.4281874E-1,-3.270071E-1,4.506316E-2,6.788075E-1,1.8686818E0,-4.1800806E-1,-2.3049651E-1,-6.2114537E-2,1.563661E-1,4.7815537E-1,9.3782747E-1,6.6691704E-2,2.1775005E0,-2.344199E-2,-1.7913466E-2,-1.3572839E-2,-9.132843E-3,-4.184711E-3,2.2180032E-3,3.6388568E-3,1.0903948E-2,1.9466527E-2,2.9263292E-2,3.8281575E-2,5.2524507E-2,1.172707E-1,4.1799214E-2],"categories":[],"categories_nodes":[],"categories_segments":[],"categories_sizes":[],"default_left":[0,0,0,0,0,0,0,0,0,0,0,0,0,0,0,0,0,0,0,0,0,0,0,0,0,0,0,0,0],"id":27,"left_children":[1,3,5,7,9,11,13,15,17,19,21,23,25,-1,27,-1,-1,-1,-1,-1,-1,-1,-1,-1,-1,-1,-1,-1,-1],"loss_changes":[1.4888988E2,1.80523E1,2.7502792E1,3.6274567E0,2.2643301E0,7.295532E0,8.9450836E-1,4.9097443E-1,3.579979E-1,2.2658834E-1,4.6387053E-1,5.903492E-1,4.373169E-1,0E0,9.676323E-1,0E0,0E0,0E0,0E0,0E0,0E0,0E0,0E0,0E0,0E0,0E0,0E0,0E0,0E0],"parents":[2147483647,0,0,1,1,2,2,3,3,4,4,5,5,6,6,7,7,8,8,9,9,10,10,11,11,12,12,14,14],"right_children":[2,4,6,8,10,12,14,16,18,20,22,24,26,-1,28,-1,-1,-1,-1,-1,-1,-1,-1,-1,-1,-1,-1,-1,-1],"split_conditions":[3.330347E0,1.5815885E0,7.215994E0,9.0928155E-1,2.3448052E0,4.9249988E0,8.60911E0,5.743487E-1,1.2312504E0,2.250624E0,2.6771436E0,4.091344E0,5.776554E0,6.6691704E-2,5.45E-1,-2.344199E-2,-1.7913466E-2,-1.3572839E-2,-9.132843E-3,-4.184711E-3,2.2180032E-3,3.6388568E-3,1.0903948E-2,1.9466527E-2,2.9263292E-2,3.8281575E-2,5.2524507E-2,1.172707E-1,4.1799214E-2],"split_indices":[25,24,25,25,25,25,25,28,28,24,25,25,24,0,29,0,0,0,0,0,0,0,0,0,0,0,0,0,0],"split_type":[0,0,0,0,0,0,0,0,0,0,0,0,0,0,0,0,0,0,0,0,0,0,0,0,0,0,0,0,0],"sum_hessian":[7.81E2,6.11E2,1.7E2,4.23E2,1.88E2,1.48E2,2.2E1,2.16E2,2.07E2,9.6E1,9.2E1,8.5E1,6.3E1,1E1,1.2E1,1.13E2,1.03E2,1.09E2,9.8E1,8E1,1.6E1,4E1,5.2E1,4.9E1,3.6E1,2.8E1,3.5E1,1E1,2E0],"tree_param":{"num_deleted":"0","num_feature":"32","num_nodes":"29","size_leaf_vector":"1"}},{"base_weights":[7.870897E-3,-2.0745163E-1,7.5769836E-1,-3.1382176E-1,3.6066413E-2,5.814138E-1,1.4311147E0,-4.1270232E-1,-2.3548578E-1,-4.1619528E-2,1.6206828E-1,4.187842E-1,8.051719E-1,1.2466329E0,1.1443392E-1,-2.633748E-2,-1.9108629E-2,-1.42292995E-2,-9.261596E-3,-4.4767256E-3,1.4294895E-3,6.6635064E-3,1.390428E-2,1.5656592E-2,2.417737E-2,4.0814005E-2,4.5778514E-3,2.6556287E-2,6.388318E-2],"categories":[],"categories_nodes":[],"categories_segments":[],"categories_sizes":[],"default_left":[0,0,0,0,0,0,0,0,0,0,0,0,0,0,0,0,0,0,0,0,0,0,0,0,0,0,0,0,0],"id":28,"left_children":[1,3,5,7,9,11,13,15,17,19,21,23,25,27,-1,-1,-1,-1,-1,-1,-1,-1,-1,-1,-1,-1,-1,-1,-1],"loss_changes":[1.2447734E2,1.5527245E1,1.9586555E1,3.1328583E0,1.7980541E0,4.6845856E0,2.6840286E0,4.358654E-1,5.271416E-1,3.8606462E-1,1.9681537E-1,4.0966225E-1,3.771019E-1,9.681702E-3,0E0,0E0,0E0,0E0,0E0,0E0,0E0,0E0,0E0,0E0,0E0,0E0,0E0,0E0,0E0],"parents":[2147483647,0,0,1,1,2,2,3,3,4,4,5,5,6,6,7,7,8,8,9,9,10,10,11,11,12,12,13,13],"right_children":[2,4,6,8,10,12,14,16,18,20,22,24,26,28,-1,-1,-1,-1,-1,-1,-1,-1,-1,-1,-1,-1,-1,-1,-1],"split_conditions":[3.3040128E0,1.5815885E0,6.48E0,8.26264E-1,2.46E0,4.97E0,9.8467455E0,2.960967E-1,1.17E0,2.06E0,3.22E0,3.7026145E0,5.83E-1,5.8348627E0,1.1443392E-1,-2.633748E-2,-1.9108629E-2,-1.42292995E-2,-9.261596E-3,-4.4767256E-3,1.4294895E-3,6.6635064E-3,1.390428E-2,1.5656592E-2,2.417737E-2,4.0814005E-2,4.5778514E-3,2.6556287E-2,6.388318E-2],"split_indices":[25,24,13,24,13,13,25,24,13,13,13,25,19,24,0,0,0,0,0,0,0,0,0,0,0,0,0,0,0],"split_type":[0,0,0,0,0,0,0,0,0,0,0,0,0,0,0,0,0,0,0,0,0,0,0,0,0,0,0,0,0],"sum_hessian":[7.69E2,5.98E2,1.71E2,4.16E2,1.82E2,1.37E2,3.4E1,1.82E2,2.34E2,1.13E2,6.9E1,8.1E1,5.6E1,3E1,4E0,3.5E1,1.47E2,1.16E2,1.18E2,6.7E1,4.6E1,5.7E1,1.2E1,3.3E1,4.8E1,5.5E1,1E0,2E0,2.8E1],"tree_param":{"num_deleted":"0","num_feature":"32","num_nodes":"29","size_leaf_vector":"1"}},{"base_weights":[1.2341852E-2,-1.8728709E-1,7.7688074E-1,-2.863322E-1,9.4830126E-2,6.1073E-1,1.4172062E0,-3.6923578E-1,-1.8414386E-1,4.6121636E-3,1.9329695E-1,4.5504463E-1,7.742689E-1,1.2273194E0,1.0985657E-1,-2.2543436E-2,-1.6456425E-2,-1.0889304E-2,-6.1687715E-3,-1.4088908E-3,3.5599235E-3,7.5455853E-3,1.3450137E-2,1.5517587E-2,2.5240814E-2,3.9209887E-2,4.4634105E-3,1.7899752E-2,6.231287E-2],"categories":[],"categories_nodes":[],"categories_segments":[],"categories_sizes":[],"default_left":[0,0,0,0,0,0,0,0,0,0,0,0,0,0,0,0,0,0,0,0,0,0,0,0,0,0,0,0,0],"id":29,"left_children":[1,3,5,7,9,11,13,15,17,19,21,23,25,27,-1,-1,-1,-1,-1,-1,-1,-1,-1,-1,-1,-1,-1,-1,-1],"loss_changes":[1.1720817E2,1.7044031E1,1.6050568E1,3.7527847E0,1.4115813E0,2.9066277E0,2.0425415E0,6.635742E-1,3.901844E-1,1.8540876E-1,2.0327377E-1,3.3303928E-1,3.4487534E-1,1.4820099E-2,0E0,0E0,0E0,0E0,0E0,0E0,0E0,0E0,0E0,0E0,0E0,0E0,0E0,0E0,0E0],"parents":[2147483647,0,0,1,1,2,2,3,3,4,4,5,5,6,6,7,7,8,8,9,9,10,10,11,11,12,12,13,13],"right_children":[2,4,6,8,10,12,14,16,18,20,22,24,26,28,-1,-1,-1,-1,-1,-1,-1,-1,-1,-1,-1,-1,-1,-1,-1],"split_conditions":[3.5E0,1.8112881E0,6.6671076E0,1.0153332E0,2.68E0,4.9249988E0,9.8467455E0,4.7867417E-1,1.4439417E0,2.4110663E0,3.3771396E0,3.9E0,5.83E-1,5.064935E-1,1.0985657E-1,-2.2543436E-2,-1.6456425E-2,-1.0889304E-2,-6.1687715E-3,-1.4088908E-3,3.5599235E-3,7.5455853E-3,1.3450137E-2,1.5517587E-2,2.5240814E-2,3.9209887E-2,4.4634105E-3,1.7899752E-2,6.231287E-2],"split_indices":[13,25,24,24,13,25,25,24,28,24,28,13,19,4,0,0,0,0,0,0,0,0,0,0,0,0,0,0,0],"split_type":[0,0,0,0,0,0,0,0,0,0,0,0,0,0,0,0,0,0,0,0,0,0,0,0,0,0,0,0,0],"sum_hessian":[7.66E2,6.08E2,1.58E2,4.5E2,1.58E2,1.27E2,3.1E1,2.47E2,2.03E2,8.3E1,7.5E1,6.7E1,6E1,2.7E1,4E0,7.8E1,1.69E2,1.29E2,7.4E1,5.6E1,2.7E1,5E1,2.5E1,1.9E1,4.8E1,5.9E1,1E0,1E0,2.6E1],"tree_param":{"num_deleted":"0","num_feature":"32","num_nodes":"29","size_leaf_vector":"1"}},{"base_weights":[1.169802E-2,-1.9766957E-1,6.6177785E-1,-3.02786E-1,-3.0639803E-2,4.5038453E-1,1.1997119E0,-3.9169762E-1,-2.4754846E-1,-1.1262851E-1,8.010662E-2,3.0548096E-1,6.038326E-1,9.996989E-1,1.9597983E0,-2.4519896E-2,-1.8264387E-2,-1.378292E-2,-9.973435E-3,-7.215593E-3,-2.7088078E-3,2.3438684E-3,9.030514E-3,9.618618E-3,1.6339082E-2,1.9687822E-2,3.1934433E-2,5.0602566E-2,1.1713624E-2,1.0325743E-1,2.5291145E-2],"categories":[],"categories_nodes":[],"categories_segments":[],"categories_sizes":[],"default_left":[0,0,0,0,0,0,0,0,0,0,0,0,0,0,0,0,0,0,0,0,0,0,0,0,0,0,0,0,0,0,0],"id":30,"left_children":[1,3,5,7,9,11,13,15,17,19,21,23,25,27,29,-1,-1,-1,-1,-1,-1,-1,-1,-1,-1,-1,-1,-1,-1,-1,-1],"loss_changes":[1.0615712E2,1.0349688E1,2.1065643E1,1.680912E0,2.0883324E0,2.883997E0,6.098236E0,1.7797661E-1,2.5045967E-1,2.3664153E-1,3.188203E-1,1.1301422E-1,2.3179054E-1,1.7891693E-1,4.8717117E-1,0E0,0E0,0E0,0E0,0E0,0E0,0E0,0E0,0E0,0E0,0E0,0E0,0E0,0E0,0E0,0E0],"parents":[2147483647,0,0,1,1,2,2,3,3,4,4,5,5,6,6,7,7,8,8,9,9,10,10,11,11,12,12,13,13,14,14],"right_children":[2,4,6,8,10,12,14,16,18,20,22,24,26,28,30,-1,-1,-1,-1,-1,-1,-1,-1,-1,-1,-1,-1,-1,-1,-1,-1],"split_conditions":[3.0841496E0,1.3457472E0,5.85E0,6.4871955E-1,2.09E0,4.3E0,8.296798E0,2.668657E-1,1.0958043E0,1.7670056E0,2.9E0,2.5674732E0,2.81E0,1.181E2,5.22E-1,-2.4519896E-2,-1.8264387E-2,-1.378292E-2,-9.973435E-3,-7.215593E-3,-2.7088078E-3,2.3438684E-3,9.030514E-3,9.618618E-3,1.6339082E-2,1.9687822E-2,3.1934433E-2,5.0602566E-2,1.1713624E-2,1.0325743E-1,2.5291145E-2],"split_indices":[25,25,13,25,13,13,24,25,28,28,13,23,12,18,29,0,0,0,0,0,0,0,0,0,0,0,0,0,0,0,0],"split_type":[0,0,0,0,0,0,0,0,0,0,0,0,0,0,0,0,0,0,0,0,0,0,0,0,0,0,0,0,0,0,0],"sum_hessian":[7.78E2,5.89E2,1.89E2,3.61E2,2.28E2,1.37E2,5.2E1,1.36E2,2.25E2,1.31E2,9.7E1,7.2E1,6.5E1,4.3E1,9E0,2.5E1,1.11E2,1.39E2,8.6E1,8.4E1,4.7E1,7.4E1,2.3E1,1.3E1,5.9E1,1.1E1,5.4E1,4.2E1,1E0,8E0,1E0],"tree_param":{"num_deleted":"0","num_feature":"32","num_nodes":"31","size_leaf_vector":"1"}},{"base_weights":[1.6625164E-2,-1.6869093E-1,7.236803E-1,-2.566689E-1,8.062532E-2,5.7852674E-1,1.5402564E0,-3.2967076E-1,-1.6819206E-1,6.080033E-4,1.61623E-1,4.2877844E-1,7.7684593E-1,5.8712002E-2,2.0198126E0,-1.9885143E-2,-1.4621963E-2,-1.035026E-2,-6.40792E-3,-8.182805E-4,4.663164E-3,5.8029857E-3,1.090951E-2,1.5796272E-2,2.4734294E-2,3.1796154E-2,4.3430284E-2,1.0744973E-1,2.4658872E-2],"categories":[],"categories_nodes":[],"categories_segments":[],"categories_sizes":[],"default_left":[0,0,0,0,0,0,0,0,0,0,0,0,0,0,0,0,0,0,0,0,0,0,0,0,0,0,0,0,0],"id":31,"left_children":[1,3,5,7,9,11,13,15,17,19,21,23,25,-1,27,-1,-1,-1,-1,-1,-1,-1,-1,-1,-1,-1,-1,-1,-1],"loss_changes":[1.0284859E2,1.3663853E1,1.8429138E1,2.91568E0,1.0563401E0,3.8246193E0,1.8408623E0,5.194626E-1,2.9977512E-1,1.3205998E-1,1.8344545E-1,4.536209E-1,2.1056366E-1,0E0,7.150917E-1,0E0,0E0,0E0,0E0,0E0,0E0,0E0,0E0,0E0,0E0,0E0,0E0,0E0,0E0],"parents":[2147483647,0,0,1,1,2,2,3,3,4,4,5,5,6,6,7,7,8,8,9,9,10,10,11,11,12,12,14,14],"right_children":[2,4,6,8,10,12,14,16,18,20,22,24,26,-1,28,-1,-1,-1,-1,-1,-1,-1,-1,-1,-1,-1,-1,-1,-1],"split_conditions":[3.45E0,1.85E0,6.9035096E0,9.996813E-1,2.5972636E0,5.25E0,8.885892E0,5.045194E-1,1.344088E0,2.61E0,3.1107757E0,3.9650385E0,5.547596E0,5.8712002E-2,5.45E-1,-1.9885143E-2,-1.4621963E-2,-1.035026E-2,-6.40792E-3,-8.182805E-4,4.663164E-3,5.8029857E-3,1.090951E-2,1.5796272E-2,2.4734294E-2,3.1796154E-2,4.3430284E-2,1.0744973E-1,2.4658872E-2],"split_indices":[13,13,24,28,24,13,24,24,24,13,28,28,28,0,29,0,0,0,0,0,0,0,0,0,0,0,0,0,0],"split_type":[0,0,0,0,0,0,0,0,0,0,0,0,0,0,0,0,0,0,0,0,0,0,0,0,0,0,0,0,0],"sum_hessian":[7.83E2,6.21E2,1.62E2,4.59E2,1.62E2,1.39E2,2.3E1,2.5E2,2.09E2,8.2E1,8E1,8.1E1,5.8E1,1.5E1,8E0,8.5E1,1.65E2,1.04E2,1.05E2,7E1,1.2E1,4.6E1,3.4E1,3.2E1,4.9E1,2.6E1,3.2E1,7E0,1E0],"tree_param":{"num_deleted":"0","num_feature":"32","num_nodes":"29","size_leaf_vector":"1"}},{"base_weights":[3.0360154E-3,-1.8128192E-1,5.91648E-1,-2.7147174E-1,-1.009206E-2,3.9751938E-1,1.0027804E0,-3.512389E-1,-2.1883102E-1,-8.914836E-2,8.321739E-2,2.878958E-1,5.290172E-1,8.821522E-1,1.772854E0,-2.2397812E-2,-1.6534079E-2,-1.2778548E-2,-9.2498325E-3,-5.396788E-3,-1.7099141E-3,2.210933E-3,8.522416E-3,8.5148895E-3,1.6197076E-2,2.6841385E-2,2.2907257E-3,3.774337E-2,5.2008193E-2,1.7795695E-2,9.748458E-2],"categories":[],"categories_nodes":[],"categories_segments":[],"categories_sizes":[],"default_left":[0,0,0,0,0,0,0,0,0,0,0,0,0,0,0,0,0,0,0,0,0,0,0,0,0,0,0,0,0,0,0],"id":32,"left_children":[1,3,5,7,9,11,13,15,17,19,21,23,25,27,29,-1,-1,-1,-1,-1,-1,-1,-1,-1,-1,-1,-1,-1,-1,-1,-1],"loss_changes":[8.462233E1,9.168371E0,1.444651E1,1.5565491E0,1.5270188E0,1.692852E0,3.9167328E0,1.5607262E-1,2.473278E-1,1.11934125E-1,3.1564307E-1,2.5003433E-1,1.9052696E-1,2.8077698E-1,1.0600567E0,0E0,0E0,0E0,0E0,0E0,0E0,0E0,0E0,0E0,0E0,0E0,0E0,0E0,0E0,0E0,0E0],"parents":[2147483647,0,0,1,1,2,2,3,3,4,4,5,5,6,6,7,7,8,8,9,9,10,10,11,11,12,12,13,13,14,14],"right_children":[2,4,6,8,10,12,14,16,18,20,22,24,26,28,30,-1,-1,-1,-1,-1,-1,-1,-1,-1,-1,-1,-1,-1,-1,-1,-1],"split_conditions":[3.1638436E0,1.43E0,5.697395E0,7E-1,2.13E0,4.3E0,9.469245E0,2.689248E-1,1.0590891E0,1.8500274E0,2.8969917E0,2.8330846E0,1.7826087E0,6.64E0,2.808785E1,-2.2397812E-2,-1.6534079E-2,-1.2778548E-2,-9.2498325E-3,-5.396788E-3,-1.7099141E-3,2.210933E-3,8.522416E-3,8.5148895E-3,1.6197076E-2,2.6841385E-2,2.2907257E-3,3.774337E-2,5.2008193E-2,1.7795695E-2,9.748458E-2],"split_indices":[24,13,24,13,13,13,28,24,24,24,28,27,4,13,10,0,0,0,0,0,0,0,0,0,0,0,0,0,0,0,0],"split_type":[0,0,0,0,0,0,0,0,0,0,0,0,0,0,0,0,0,0,0,0,0,0,0,0,0,0,0,0,0,0,0],"sum_hessian":[7.78E2,5.93E2,1.85E2,3.88E2,2.05E2,1.27E2,5.8E1,1.52E2,2.36E2,1.11E2,9.4E1,7.1E1,5.6E1,5.2E1,6E0,2.3E1,1.29E2,1.1E2,1.26E2,8.2E1,2.9E1,6.6E1,2.8E1,1.8E1,5.3E1,5.5E1,1E0,3.2E1,2E1,1E0,5E0],"tree_param":{"num_deleted":"0","num_feature":"32","num_nodes":"31","size_leaf_vector":"1"}},{"base_weights":[1.158511E-2,-1.5906335E-1,6.206931E-1,-2.4895948E-1,1.6328467E-2,4.7562176E-1,1.265191E0,-3.1968534E-1,-1.8588634E-1,-5.4116327E-2,1.2392076E-1,3.4909022E-1,6.5818477E-1,1.0379634E0,1.7887249E0,-2.1108903E-2,-1.5005899E-2,-1.1051351E-2,-7.516867E-3,-4.1028913E-3,4.3539377E-4,3.940452E-3,8.893781E-3,1.3978857E-2,2.211964E-2,2.0298148E-2,3.4553945E-2,2.6295483E-2,5.4303527E-2,3.5720553E-2,1.0138805E-1],"categories":[],"categories_nodes":[],"categories_segments":[],"categories_sizes":[],"default_left":[0,0,0,0,0,0,0,0,0,0,0,0,0,0,0,0,0,0,0,0,0,0,0,0,0,0,0,0,0,0,0],"id":33,"left_children":[1,3,5,7,9,11,13,15,17,19,21,23,25,27,29,-1,-1,-1,-1,-1,-1,-1,-1,-1,-1,-1,-1,-1,-1,-1,-1],"loss_changes":[8.1694244E1,9.68503E0,1.5479927E1,1.7517014E0,1.5907834E0,3.050434E0,1.831173E0,2.5434494E-1,2.3785114E-1,2.2365066E-1,1.8800366E-1,4.340906E-1,1.923542E-1,2.0029068E-2,6.057434E-1,0E0,0E0,0E0,0E0,0E0,0E0,0E0,0E0,0E0,0E0,0E0,0E0,0E0,0E0,0E0,0E0],"parents":[2147483647,0,0,1,1,2,2,3,3,4,4,5,5,6,6,7,7,8,8,9,9,10,10,11,11,12,12,13,13,14,14],"right_children":[2,4,6,8,10,12,14,16,18,20,22,24,26,28,30,-1,-1,-1,-1,-1,-1,-1,-1,-1,-1,-1,-1,-1,-1,-1,-1],"split_conditions":[3.330347E0,1.5067904E0,6.6671076E0,8.07627E-1,2.4408607E0,4.9249988E0,8.885892E0,2.8254107E-1,1.1642879E0,2.1355815E0,2.9013612E0,4.091344E0,7.3015875E-1,5.5862145E0,1.8423147E1,-2.1108903E-2,-1.5005899E-2,-1.1051351E-2,-7.516867E-3,-4.1028913E-3,4.3539377E-4,3.940452E-3,8.893781E-3,1.3978857E-2,2.211964E-2,2.0298148E-2,3.4553945E-2,2.6295483E-2,5.4303527E-2,3.5720553E-2,1.0138805E-1],"split_indices":[25,24,24,25,24,25,24,24,25,25,25,25,4,9,7,0,0,0,0,0,0,0,0,0,0,0,0,0,0,0,0],"split_type":[0,0,0,0,0,0,0,0,0,0,0,0,0,0,0,0,0,0,0,0,0,0,0,0,0,0,0,0,0,0,0],"sum_hessian":[7.84E2,6.13E2,1.71E2,4.05E2,2.08E2,1.41E2,3E1,1.89E2,2.16E2,1.26E2,8.2E1,8.5E1,5.6E1,2.3E1,7E0,2.7E1,1.62E2,1.06E2,1.1E2,8.7E1,3.9E1,4.6E1,3.6E1,5.1E1,3.4E1,8E0,4.8E1,3E0,2E1,2E0,5E0],"tree_param":{"num_deleted":"0","num_feature":"32","num_nodes":"31","size_leaf_vector":"1"}},{"base_weights":[6.8728398E-3,-1.3760568E-1,7.033374E-1,-2.2746462E-1,7.7647105E-2,5.473405E-1,1.3955171E0,-2.8909132E-1,-1.485425E-1,9.301965E-3,1.8323022E-1,4.303174E-1,7.0941186E-1,5.789606E-2,1.0333989E-1,-1.6791351E-2,-1.2446161E-2,-9.340871E-3,-5.9856367E-3,-2.1954349E-3,2.2197457E-3,7.0994347E-3,1.1570837E-2,1.9220656E-2,2.8831992E-2,3.6443196E-2,1.6390605E-2],"categories":[],"categories_nodes":[],"categories_segments":[],"categories_sizes":[],"default_left":[0,0,0,0,0,0,0,0,0,0,0,0,0,0,0,0,0,0,0,0,0,0,0,0,0,0,0],"id":34,"left_children":[1,3,5,7,9,11,13,15,17,19,21,23,25,-1,-1,-1,-1,-1,-1,-1,-1,-1,-1,-1,-1,-1,-1],"loss_changes":[7.848301E1,1.2512843E1,1.3705215E1,2.1749096E0,1.3765692E0,1.7999611E0,1.4346542E0,3.9511108E-1,2.0053387E-1,2.2042562E-1,1.1618781E-1,2.2836018E-1,9.510231E-2,0E0,0E0,0E0,0E0,0E0,0E0,0E0,0E0,0E0,0E0,0E0,0E0,0E0,0E0],"parents":[2147483647,0,0,1,1,2,2,3,3,4,4,5,5,6,6,7,7,8,8,9,9,10,10,11,11,12,12],"right_children":[2,4,6,8,10,12,14,16,18,20,22,24,26,-1,-1,-1,-1,-1,-1,-1,-1,-1,-1,-1,-1,-1,-1],"split_conditions":[3.7520154E0,1.7364541E0,6.9035096E0,1.01E0,2.82E0,5.45E0,9.84E0,5.603387E-1,1.2312504E0,2.13E0,3.3771396E0,5.487503E0,5.76E-1,5.789606E-2,1.0333989E-1,-1.6791351E-2,-1.2446161E-2,-9.340871E-3,-5.9856367E-3,-2.1954349E-3,2.2197457E-3,7.0994347E-3,1.1570837E-2,1.9220656E-2,2.8831992E-2,3.6443196E-2,1.6390605E-2],"split_indices":[24,24,24,13,13,13,13,28,28,13,28,28,29,0,0,0,0,0,0,0,0,0,0,0,0,0,0],"split_type":[0,0,0,0,0,0,0,0,0,0,0,0,0,0,0,0,0,0,0,0,0,0,0,0,0,0,0],"sum_hessian":[7.78E2,6.45E2,1.33E2,4.55E2,1.9E2,1.1E2,2.3E1,2.54E2,2.01E2,1.16E2,7.4E1,6.6E1,4.4E1,1.9E1,4E0,1.14E2,1.4E2,8.4E1,1.17E2,4.6E1,7E1,4.2E1,3.2E1,5.3E1,1.3E1,4.1E1,3E0],"tree_param":{"num_deleted":"0","num_feature":"32","num_nodes":"27","size_leaf_vector":"1"}},{"base_weights":[5.6957514E-3,-1.3236769E-1,5.9942156E-1,-2.1288171E-1,7.463779E-2,4.1817448E-1,8.8110036E-1,-2.74395E-1,-1.4121994E-1,1.49935465E-2,1.7241058E-1,3.0187473E-1,4.7804853E-1,7.9205E-1,8.422173E-2,-1.8995365E-2,-1.2761411E-2,-8.203534E-3,-4.6805036E-3,-1.7707379E-3,2.2585623E-3,5.6727394E-3,1.0132129E-2,6.7756115E-3,1.6254237E-2,2.4270143E-2,9.197116E-4,2.2004278E-2,4.1308317E-2],"categories":[],"categories_nodes":[],"categories_segments":[],"categories_sizes":[],"default_left":[0,0,0,0,0,0,0,0,0,0,0,0,0,0,0,0,0,0,0,0,0,0,0,0,0,0,0,0,0],"id":35,"left_children":[1,3,5,7,9,11,13,15,17,19,21,23,25,27,-1,-1,-1,-1,-1,-1,-1,-1,-1,-1,-1,-1,-1,-1,-1],"loss_changes":[6.6476524E1,1.0982673E1,7.4427223E0,2.0507126E0,1.0762581E0,5.172062E-1,2.8865395E0,4.16708E-1,2.2507143E-1,1.780597E-1,1.017735E-1,9.109163E-2,1.9727993E-1,2.9684448E-1,0E0,0E0,0E0,0E0,0E0,0E0,0E0,0E0,0E0,0E0,0E0,0E0,0E0,0E0,0E0],"parents":[2147483647,0,0,1,1,2,2,3,3,4,4,5,5,6,6,7,7,8,8,9,9,10,10,11,11,12,12,13,13],"right_children":[2,4,6,8,10,12,14,16,18,20,22,24,26,28,-1,-1,-1,-1,-1,-1,-1,-1,-1,-1,-1,-1,-1,-1,-1],"split_conditions":[3.6191072E0,1.8112881E0,5.75E0,9.932897E-1,2.7987635E0,4.3E0,9.8467455E0,3.2E-1,1.44E0,2.13E0,2.9889202E0,2.8330846E0,5.83E-1,5.697395E0,8.422173E-2,-1.8995365E-2,-1.2761411E-2,-8.203534E-3,-4.6805036E-3,-1.7707379E-3,2.2585623E-3,5.6727394E-3,1.0132129E-2,6.7756115E-3,1.6254237E-2,2.4270143E-2,9.197116E-4,2.2004278E-2,4.1308317E-2],"split_indices":[25,25,13,25,24,13,25,13,13,13,25,27,19,24,0,0,0,0,0,0,0,0,0,0,0,0,0,0,0],"split_type":[0,0,0,0,0,0,0,0,0,0,0,0,0,0,0,0,0,0,0,0,0,0,0,0,0,0,0,0,0],"sum_hessian":[8.09E2,6.57E2,1.52E2,4.73E2,1.84E2,9.4E1,5.8E1,2.53E2,2.2E2,1.15E2,6.9E1,3.4E1,6E1,5.4E1,4E0,3.6E1,2.17E2,1.47E2,7.3E1,4.3E1,7.2E1,2.5E1,4.4E1,5E0,2.9E1,5.9E1,1E0,6E0,4.8E1],"tree_param":{"num_deleted":"0","num_feature":"32","num_nodes":"29","size_leaf_vector":"1"}},{"base_weights":[6.5710966E-4,-1.4362292E-1,5.421485E-1,-2.2142415E-1,-3.796389E-4,4.3692204E-1,1.1919112E0,-2.8301898E-1,-1.6935518E-1,-7.722321E-2,6.5868095E-2,2.9604122E-1,5.9708977E-1,8.303859E-1,1.4239835E0,-1.9055942E-2,-1.3268525E-2,-9.392293E-3,-6.1754985E-3,-4.684887E-3,-2.452643E-3,1.3050461E-3,6.63864E-3,1.1647276E-2,1.8655494E-2,1.728979E-2,3.1314623E-2,4.3195825E-2,1.2377012E-2,8.01286E-2,3.3308167E-2],"categories":[],"categories_nodes":[],"categories_segments":[],"categories_sizes":[],"default_left":[0,0,0,0,0,0,0,0,0,0,0,0,0,0,0,0,0,0,0,0,0,0,0,0,0,0,0,0,0,0,0],"id":36,"left_children":[1,3,5,7,9,11,13,15,17,19,21,23,25,27,29,-1,-1,-1,-1,-1,-1,-1,-1,-1,-1,-1,-1,-1,-1,-1,-1],"loss_changes":[6.015706E1,6.775773E0,1.0555527E1,1.2156982E0,1.0995897E0,3.0048409E0,6.6334534E-1,2.0876789E-1,1.5990496E-1,4.1813195E-2,3.051653E-1,2.8751373E-1,2.604313E-1,1.1205673E-3,5.564804E-1,0E0,0E0,0E0,0E0,0E0,0E0,0E0,0E0,0E0,0E0,0E0,0E0,0E0,0E0,0E0,0E0],"parents":[2147483647,0,0,1,1,2,2,3,3,4,4,5,5,6,6,7,7,8,8,9,9,10,10,11,11,12,12,13,13,14,14],"right_children":[2,4,6,8,10,12,14,16,18,20,22,24,26,28,30,-1,-1,-1,-1,-1,-1,-1,-1,-1,-1,-1,-1,-1,-1,-1,-1],"split_conditions":[3.3040128E0,1.4439417E0,7.215994E0,7.630035E-1,1.9906336E0,4.8034034E0,8.60911E0,2.5069225E-1,1.2713143E0,1.7581087E0,2.6771436E0,4.0613046E0,7.3015875E-1,2.890909E1,5.42E0,-1.9055942E-2,-1.3268525E-2,-9.392293E-3,-6.1754985E-3,-4.684887E-3,-2.452643E-3,1.3050461E-3,6.63864E-3,1.1647276E-2,1.8655494E-2,1.728979E-2,3.1314623E-2,4.3195825E-2,1.2377012E-2,8.01286E-2,3.3308167E-2],"split_indices":[25,28,25,28,28,25,25,24,25,28,25,24,4,0,30,0,0,0,0,0,0,0,0,0,0,0,0,0,0,0,0],"split_type":[0,0,0,0,0,0,0,0,0,0,0,0,0,0,0,0,0,0,0,0,0,0,0,0,0,0,0,0,0,0,0],"sum_hessian":[7.68E2,6.07E2,1.61E2,3.93E2,2.14E2,1.4E2,2.1E1,1.78E2,2.15E2,9.9E1,1.15E2,7.6E1,6.4E1,1E1,1.1E1,2.4E1,1.54E2,1.51E2,6.4E1,6.1E1,3.8E1,7.3E1,4.2E1,4.4E1,3.2E1,8E0,5.6E1,9E0,1E0,8E0,3E0],"tree_param":{"num_deleted":"0","num_feature":"32","num_nodes":"31","size_leaf_vector":"1"}},{"base_weights":[5.852701E-3,-1.2763412E-1,4.982002E-1,-1.8991111E-1,4.954562E-2,3.9916065E-1,1.1328171E0,-2.4662857E-1,-1.2794772E-1,-2.6591222E-3,1.1411342E-1,2.794581E-1,5.3235686E-1,8.2610863E-1,1.364425E0,-1.4913224E-2,-1.0789547E-2,-8.27606E-3,-5.08224E-3,-1.2467413E-3,2.027046E-3,4.0098424E-3,8.3835395E-3,9.965584E-3,1.59776E-2,2.2404037E-2,3.120853E-2,4.286636E-2,1.2067593E-2,3.1805318E-2,7.790156E-2],"categories":[],"categories_nodes":[],"categories_segments":[],"categories_sizes":[],"default_left":[0,0,0,0,0,0,0,0,0,0,0,0,0,0,0,0,0,0,0,0,0,0,0,0,0,0,0,0,0,0,0],"id":37,"left_children":[1,3,5,7,9,11,13,15,17,19,21,23,25,27,29,-1,-1,-1,-1,-1,-1,-1,-1,-1,-1,-1,-1,-1,-1,-1,-1],"loss_changes":[5.1458122E1,6.806489E0,1.0044132E1,1.5710144E0,5.429934E-1,2.1790428E0,4.356308E-1,3.130188E-1,2.0059943E-1,8.761889E-2,1.1733991E-1,1.9016695E-1,2.4648285E-1,1.2145996E-2,5.600033E-1,0E0,0E0,0E0,0E0,0E0,0E0,0E0,0E0,0E0,0E0,0E0,0E0,0E0,0E0,0E0,0E0],"parents":[2147483647,0,0,1,1,2,2,3,3,4,4,5,5,6,6,7,7,8,8,9,9,10,10,11,11,12,12,13,13,14,14],"right_children":[2,4,6,8,10,12,14,16,18,20,22,24,26,28,30,-1,-1,-1,-1,-1,-1,-1,-1,-1,-1,-1,-1,-1,-1,-1,-1],"split_conditions":[3.4E0,1.7571855E0,7.09E0,1.01E0,2.5972636E0,4.82E0,8.60911E0,5.122828E-1,1.2312504E0,2.2716827E0,2.9889202E0,3.7520154E0,5.7329664E0,3.4507043E0,2.109589E0,-1.4913224E-2,-1.0789547E-2,-8.27606E-3,-5.08224E-3,-1.2467413E-3,2.027046E-3,4.0098424E-3,8.3835395E-3,9.965584E-3,1.59776E-2,2.2404037E-2,3.120853E-2,4.286636E-2,1.2067593E-2,3.1805318E-2,7.790156E-2],"split_indices":[13,25,13,13,24,13,25,25,28,28,25,24,25,6,3,0,0,0,0,0,0,0,0,0,0,0,0,0,0,0,0],"split_type":[0,0,0,0,0,0,0,0,0,0,0,0,0,0,0,0,0,0,0,0,0,0,0,0,0,0,0,0,0,0,0],"sum_hessian":[7.81E2,6.15E2,1.66E2,4.55E2,1.6E2,1.45E2,2.1E1,2.36E2,2.19E2,8.9E1,7.1E1,7.8E1,6.7E1,1.1E1,1E1,8.5E1,1.51E2,8.8E1,1.31E2,5.9E1,3E1,4.5E1,2.6E1,2.8E1,5E1,3.8E1,2.9E1,1E1,1E0,3E0,7E0],"tree_param":{"num_deleted":"0","num_feature":"32","num_nodes":"31","size_leaf_vector":"1"}},{"base_weights":[5.7276813E-3,-1.1371578E-1,5.360834E-1,-1.841562E-1,6.6758975E-2,4.4213024E-1,1.0327291E0,-2.605442E-1,-1.4212714E-1,7.0636035E-3,1.4223333E-1,3.365165E-1,5.7783115E-1,8.26588E-1,7.841457E-2,-1.7516378E-2,-1.211293E-2,-8.617616E-3,-4.9284096E-3,-7.2368694E-4,3.0517362E-3,4.685962E-3,8.281051E-3,8.710924E-3,1.8013334E-2,1.0752416E-2,2.9402075E-2,4.237632E-2,1.1765897E-2],"categories":[],"categories_nodes":[],"categories_segments":[],"categories_sizes":[],"default_left":[0,0,0,0,0,0,0,0,0,0,0,0,0,0,0,0,0,0,0,0,0,0,0,0,0,0,0,0,0],"id":38,"left_children":[1,3,5,7,9,11,13,15,17,19,21,23,25,27,-1,-1,-1,-1,-1,-1,-1,-1,-1,-1,-1,-1,-1,-1,-1],"loss_changes":[4.928199E1,8.084868E0,6.2159843E0,1.4301758E0,8.0547434E-1,1.554039E0,1.1324978E0,1.7945099E-1,3.7403536E-1,1.1828524E-1,7.4114084E-2,2.1091175E-1,6.6158295E-2,2.3406029E-2,0E0,0E0,0E0,0E0,0E0,0E0,0E0,0E0,0E0,0E0,0E0,0E0,0E0,0E0,0E0],"parents":[2147483647,0,0,1,1,2,2,3,3,4,4,5,5,6,6,7,7,8,8,9,9,10,10,11,11,12,12,13,13],"right_children":[2,4,6,8,10,12,14,16,18,20,22,24,26,28,-1,-1,-1,-1,-1,-1,-1,-1,-1,-1,-1,-1,-1,-1,-1],"split_conditions":[3.7520154E0,1.8112881E0,7.09E0,7.215055E-1,2.6771436E0,5.32E0,9.8467455E0,2.6200473E-1,1.2312504E0,2.46E0,3.1107757E0,3.7026145E0,2.3419824E0,9.84E0,7.841457E-2,-1.7516378E-2,-1.211293E-2,-8.617616E-3,-4.9284096E-3,-7.2368694E-4,3.0517362E-3,4.685962E-3,8.281051E-3,8.710924E-3,1.8013334E-2,1.0752416E-2,2.9402075E-2,4.237632E-2,1.1765897E-2],"split_indices":[24,25,13,25,25,13,25,28,28,13,28,25,27,13,0,0,0,0,0,0,0,0,0,0,0,0,0,0,0],"split_type":[0,0,0,0,0,0,0,0,0,0,0,0,0,0,0,0,0,0,0,0,0,0,0,0,0,0,0,0,0],"sum_hessian":[7.76E2,6.34E2,1.42E2,4.56E2,1.78E2,1.21E2,2.1E1,1.6E2,2.96E2,1E2,7.8E1,7E1,5.1E1,1.7E1,4E0,2.4E1,1.36E2,1.73E2,1.23E2,7.2E1,2.8E1,2.7E1,5.1E1,1E1,6E1,2E0,4.9E1,1.6E1,1E0],"tree_param":{"num_deleted":"0","num_feature":"32","num_nodes":"29","size_leaf_vector":"1"}},{"base_weights":[1.2132594E-2,-1.1814263E-1,4.604287E-1,-1.9080198E-1,7.0371344E-3,3.4190786E-1,1.0717921E0,-2.525947E-1,-1.5441322E-1,-3.9484248E-2,8.9441225E-2,2.4036017E-1,4.4593063E-1,3.734029E-2,1.3887091E0,-1.6649729E-2,-1.1702492E-2,-8.498865E-3,-5.264252E-3,-3.4036653E-3,-4.264207E-4,2.1958177E-3,6.630619E-3,1.0280151E-2,1.7035777E-2,1.7272253E-2,2.567632E-2,7.646528E-2,2.2857547E-2],"categories":[],"categories_nodes":[],"categories_segments":[],"categories_sizes":[],"default_left":[0,0,0,0,0,0,0,0,0,0,0,0,0,0,0,0,0,0,0,0,0,0,0,0,0,0,0,0,0],"id":39,"left_children":[1,3,5,7,9,11,13,15,17,19,21,23,25,-1,27,-1,-1,-1,-1,-1,-1,-1,-1,-1,-1,-1,-1,-1,-1],"loss_changes":[4.227895E1,5.1039066E0,1.1444416E1,7.592344E-1,7.9707676E-1,1.3505478E0,1.6407375E0,1.1589432E-1,1.5491152E-1,1.17124185E-1,1.4157826E-1,1.8108892E-1,2.776947E-1,0E0,8.725624E-1,0E0,0E0,0E0,0E0,0E0,0E0,0E0,0E0,0E0,0E0,0E0,0E0,0E0,0E0],"parents":[2147483647,0,0,1,1,2,2,3,3,4,4,5,5,6,6,7,7,8,8,9,9,10,10,11,11,12,12,14,14],"right_children":[2,4,6,8,10,12,14,16,18,20,22,24,26,-1,28,-1,-1,-1,-1,-1,-1,-1,-1,-1,-1,-1,-1,-1,-1],"split_conditions":[3.3685503E0,1.4439417E0,6.7425537E0,6.8135476E-1,2.413706E0,4.639706E0,8.60911E0,2.830804E-1,1.2713143E0,1.7571855E0,2.7386029E0,2.0257568E1,5.373546E0,3.734029E-2,5.45E-1,-1.6649729E-2,-1.1702492E-2,-8.498865E-3,-5.264252E-3,-3.4036653E-3,-4.264207E-4,2.1958177E-3,6.630619E-3,1.0280151E-2,1.7035777E-2,1.7272253E-2,2.567632E-2,7.646528E-2,2.2857547E-2],"split_indices":[24,28,24,24,28,24,25,28,25,25,24,20,28,0,29,0,0,0,0,0,0,0,0,0,0,0,0,0,0],"split_type":[0,0,0,0,0,0,0,0,0,0,0,0,0,0,0,0,0,0,0,0,0,0,0,0,0,0,0,0,0],"sum_hessian":[7.22E2,5.6E2,1.62E2,3.54E2,2.06E2,1.37E2,2.5E1,1.29E2,2.25E2,1.32E2,7.4E1,7.1E1,6.6E1,1.4E1,1.1E1,2.1E1,1.08E2,1.69E2,5.6E1,6.8E1,6.4E1,3.7E1,3.7E1,5.5E1,1.6E1,2.9E1,3.7E1,9E0,2E0],"tree_param":{"num_deleted":"0","num_feature":"32","num_nodes":"29","size_leaf_vector":"1"}},{"base_weights":[5.328533E-3,-1.1298073E-1,4.3557635E-1,-1.8697084E-1,1.3898556E-3,3.6340186E-1,1.1475294E0,-2.4094744E-1,-1.5166873E-1,-5.3940598E-2,7.604561E-2,2.6504382E-1,5.4063815E-1,7.819787E-2,7.8291965E-1,-1.6738392E-2,-1.13357855E-2,-8.300927E-3,-5.8201845E-3,-3.4062087E-3,3.7090492E-4,2.2307888E-3,5.627233E-3,1.1552474E-2,1.955842E-2,4.5102476E-3,2.7371744E-2,4.1153707E-2,1.0538245E-2],"categories":[],"categories_nodes":[],"categories_segments":[],"categories_sizes":[],"default_left":[0,0,0,0,0,0,0,0,0,0,0,0,0,0,0,0,0,0,0,0,0,0,0,0,0,0,0,0,0],"id":40,"left_children":[1,3,5,7,9,11,13,15,17,19,21,23,25,-1,27,-1,-1,-1,-1,-1,-1,-1,-1,-1,-1,-1,-1,-1,-1],"loss_changes":[3.9651203E1,5.17072E0,8.215643E0,6.7039204E-1,9.996096E-1,2.5413284E0,1.0530529E0,1.1771011E-1,9.55472E-2,1.214751E-1,1.1313611E-1,3.4266043E-1,1.1593819E-1,0E0,5.62706E-2,0E0,0E0,0E0,0E0,0E0,0E0,0E0,0E0,0E0,0E0,0E0,0E0,0E0,0E0],"parents":[2147483647,0,0,1,1,2,2,3,3,4,4,5,5,6,6,7,7,8,8,9,9,10,10,11,11,12,12,14,14],"right_children":[2,4,6,8,10,12,14,16,18,20,22,24,26,-1,28,-1,-1,-1,-1,-1,-1,-1,-1,-1,-1,-1,-1,-1,-1],"split_conditions":[3.4E0,1.3724092E0,7.9257884E0,6.84032E-1,2.282362E0,5.4E0,3.9538462E0,2.2624543E-1,1.2089854E0,2.06E0,2.9E0,5.1534476E0,4.2710466E0,7.819787E-2,9.84E0,-1.6738392E-2,-1.13357855E-2,-8.300927E-3,-5.8201845E-3,-3.4062087E-3,3.7090492E-4,2.2307888E-3,5.627233E-3,1.1552474E-2,1.955842E-2,4.5102476E-3,2.7371744E-2,4.1153707E-2,1.0538245E-2],"split_indices":[13,25,28,28,24,13,1,28,24,13,13,24,25,0,13,0,0,0,0,0,0,0,0,0,0,0,0,0,0],"split_type":[0,0,0,0,0,0,0,0,0,0,0,0,0,0,0,0,0,0,0,0,0,0,0,0,0,0,0,0,0],"sum_hessian":[7.77E2,6.1E2,1.67E2,3.7E2,2.4E2,1.53E2,1.4E1,1.44E2,2.26E2,1.38E2,1.02E2,1E2,5.3E1,5E0,9E0,1.6E1,1.28E2,1.58E2,6.8E1,1.12E2,2.6E1,5.6E1,4.6E1,8.1E1,1.9E1,1E0,5.2E1,8E0,1E0],"tree_param":{"num_deleted":"0","num_feature":"32","num_nodes":"29","size_leaf_vector":"1"}},{"base_weights":[7.106606E-3,-1.00813426E-1,4.3191138E-1,-1.5728638E-1,4.785003E-2,3.4876654E-1,9.881726E-1,-1.9987954E-1,-1.0085201E-1,-8.453986E-4,1.12349994E-1,2.4690208E-1,4.78773E-1,3.5545304E-2,1.3152092E0,-1.1786272E-2,-8.4720915E-3,-6.493772E-3,-4.1663856E-3,-8.7490317E-4,2.5961632E-3,2.7471506E-3,6.7029754E-3,1.2873398E-2,-9.108335E-4,1.937666E-2,2.7854754E-2,2.0300118E-2,7.7530555E-2],"categories":[],"categories_nodes":[],"categories_segments":[],"categories_sizes":[],"default_left":[0,0,0,0,0,0,0,0,0,0,0,0,0,0,0,0,0,0,0,0,0,0,0,0,0,0,0,0,0],"id":41,"left_children":[1,3,5,7,9,11,13,15,17,19,21,23,25,-1,27,-1,-1,-1,-1,-1,-1,-1,-1,-1,-1,-1,-1,-1,-1],"loss_changes":[3.5756756E1,5.2295055E0,6.9628983E0,1.0639191E0,5.403217E-1,1.7225742E0,8.785362E-1,2.393713E-1,8.886635E-2,8.79037E-2,8.4858835E-2,2.2878695E-1,2.1287155E-1,0E0,1.0826807E0,0E0,0E0,0E0,0E0,0E0,0E0,0E0,0E0,0E0,0E0,0E0,0E0,0E0,0E0],"parents":[2147483647,0,0,1,1,2,2,3,3,4,4,5,5,6,6,7,7,8,8,9,9,10,10,11,11,12,12,14,14],"right_children":[2,4,6,8,10,12,14,16,18,20,22,24,26,-1,28,-1,-1,-1,-1,-1,-1,-1,-1,-1,-1,-1,-1,-1,-1],"split_conditions":[3.5E0,1.7581087E0,7.09E0,1.0590891E0,2.642933E0,5.25E0,9.4E0,5.988111E-1,1.2312504E0,2.5392053E0,2.7386029E0,5.7977147E0,5.776554E0,3.5545304E-2,3.0569355E1,-1.1786272E-2,-8.4720915E-3,-6.493772E-3,-4.1663856E-3,-8.7490317E-4,2.5961632E-3,2.7471506E-3,6.7029754E-3,1.2873398E-2,-9.108335E-4,1.937666E-2,2.7854754E-2,2.0300118E-2,7.7530555E-2],"split_indices":[13,28,13,24,28,13,13,28,28,24,24,9,24,0,10,0,0,0,0,0,0,0,0,0,0,0,0,0,0],"split_type":[0,0,0,0,0,0,0,0,0,0,0,0,0,0,0,0,0,0,0,0,0,0,0,0,0,0,0,0,0],"sum_hessian":[7.78E2,6.21E2,1.57E2,4.5E2,1.71E2,1.38E2,1.9E1,2.55E2,1.95E2,9.8E1,7.3E1,7.9E1,5.9E1,1.2E1,7E0,1.14E2,1.41E2,7.1E1,1.24E2,7.5E1,2.3E1,2.1E1,5.2E1,7.6E1,3E0,3E1,2.9E1,2E0,5E0],"tree_param":{"num_deleted":"0","num_feature":"32","num_nodes":"29","size_leaf_vector":"1"}},{"base_weights":[1.5593947E-2,-9.544325E-2,4.3497154E-1,-1.5392509E-1,3.6259104E-2,3.6692646E-1,1.0773515E0,-2.1179025E-1,-1.20136105E-1,-1.32631175E-2,1.1170972E-1,2.7807808E-1,5.0389355E-1,7.2408944E-2,7.4711984E-1,-1.455071E-2,-9.996099E-3,-6.9176927E-3,-4.011288E-3,-1.6992925E-3,1.0474122E-3,6.203904E-3,1.8218032E-3,9.793322E-3,1.6144706E-2,2.5616003E-2,9.072176E-3,3.9623424E-2,8.474553E-3],"categories":[],"categories_nodes":[],"categories_segments":[],"categories_sizes":[],"default_left":[0,0,0,0,0,0,0,0,0,0,0,0,0,0,0,0,0,0,0,0,0,0,0,0,0,0,0,0,0],"id":42,"left_children":[1,3,5,7,9,11,13,15,17,19,21,23,25,-1,27,-1,-1,-1,-1,-1,-1,-1,-1,-1,-1,-1,-1,-1,-1],"loss_changes":[3.6037422E1,4.719325E0,6.685837E0,8.035641E-1,7.0767677E-1,1.6609344E0,7.5492096E-1,8.755875E-2,1.8521118E-1,8.224153E-2,6.5304995E-2,2.7572012E-1,6.191826E-2,0E0,1.2763023E-1,0E0,0E0,0E0,0E0,0E0,0E0,0E0,0E0,0E0,0E0,0E0,0E0,0E0,0E0],"parents":[2147483647,0,0,1,1,2,2,3,3,4,4,5,5,6,6,7,7,8,8,9,9,10,10,11,11,12,12,14,14],"right_children":[2,4,6,8,10,12,14,16,18,20,22,24,26,-1,28,-1,-1,-1,-1,-1,-1,-1,-1,-1,-1,-1,-1,-1,-1],"split_conditions":[3.5233846E0,1.62E0,7.9257884E0,7.3E-1,2.642933E0,5.45E0,4.11E0,2.4645372E-1,1.2425057E0,2.21E0,6.11E-1,4.0733895E0,1.192E2,7.2408944E-2,4.875E0,-1.455071E-2,-9.996099E-3,-6.9176927E-3,-4.011288E-3,-1.6992925E-3,1.0474122E-3,6.203904E-3,1.8218032E-3,9.793322E-3,1.6144706E-2,2.5616003E-2,9.072176E-3,3.9623424E-2,8.474553E-3],"split_indices":[28,13,28,13,28,13,12,28,28,13,29,25,18,0,3,0,0,0,0,0,0,0,0,0,0,0,0,0,0],"split_type":[0,0,0,0,0,0,0,0,0,0,0,0,0,0,0,0,0,0,0,0,0,0,0,0,0,0,0,0,0],"sum_hessian":[7.72E2,6.11E2,1.61E2,4.23E2,1.88E2,1.47E2,1.4E1,1.54E2,2.69E2,1.14E2,7.4E1,9.1E1,5.6E1,5E0,9E0,1.7E1,1.37E2,1.83E2,8.6E1,7.1E1,4.3E1,6.3E1,1.1E1,3.4E1,5.7E1,5.4E1,2E0,8E0,1E0],"tree_param":{"num_deleted":"0","num_feature":"32","num_nodes":"29","size_leaf_vector":"1"}},{"base_weights":[1.6054478E-2,-8.3683126E-2,4.329704E-1,-1.3941813E-1,5.866326E-2,3.665349E-1,1.2331127E0,-1.892758E-1,-9.695812E-2,-1.5241556E-3,1.0658308E-1,2.8704306E-1,5.022895E-1,1.3856831E0,1.8218208E-2,-1.22878095E-2,-8.615687E-3,-6.1668376E-3,-3.5002844E-3,-7.452437E-4,2.4076435E-3,3.2789146E-3,6.367111E-3,8.357746E-3,1.5734676E-2,2.5954261E-2,8.968336E-3,7.327535E-2,1.8677307E-2],"categories":[],"categories_nodes":[],"categories_segments":[],"categories_sizes":[],"default_left":[0,0,0,0,0,0,0,0,0,0,0,0,0,0,0,0,0,0,0,0,0,0,0,0,0,0,0,0,0],"id":43,"left_children":[1,3,5,7,9,11,13,15,17,19,21,23,25,27,-1,-1,-1,-1,-1,-1,-1,-1,-1,-1,-1,-1,-1,-1,-1],"loss_changes":[3.2096104E1,4.950858E0,7.468544E0,9.300451E-1,5.0777644E-1,1.3558216E0,9.531059E-1,1.5404749E-1,1.6484213E-1,5.3230137E-2,7.506907E-2,2.4574423E-1,1.780796E-1,1.7969894E-1,0E0,0E0,0E0,0E0,0E0,0E0,0E0,0E0,0E0,0E0,0E0,0E0,0E0,0E0,0E0],"parents":[2147483647,0,0,1,1,2,2,3,3,4,4,5,5,6,6,7,7,8,8,9,9,10,10,11,11,12,12,13,13],"right_children":[2,4,6,8,10,12,14,16,18,20,22,24,26,28,-1,-1,-1,-1,-1,-1,-1,-1,-1,-1,-1,-1,-1,-1,-1],"split_conditions":[3.7026145E0,1.8112881E0,8.296798E0,8.7142944E-1,2.545861E0,5.697395E0,5.45E-1,3.6062223E-1,1.2713143E0,2.46E0,2.90837E0,6.8421054E-1,8.607595E-1,1.235443E1,1.8218208E-2,-1.22878095E-2,-8.615687E-3,-6.1668376E-3,-3.5002844E-3,-7.452437E-4,2.4076435E-3,3.2789146E-3,6.367111E-3,8.357746E-3,1.5734676E-2,2.5954261E-2,8.968336E-3,7.327535E-2,1.8677307E-2],"split_indices":[25,25,24,25,25,24,29,25,25,13,24,4,5,1,0,0,0,0,0,0,0,0,0,0,0,0,0,0,0],"split_type":[0,0,0,0,0,0,0,0,0,0,0,0,0,0,0,0,0,0,0,0,0,0,0,0,0,0,0,0,0],"sum_hessian":[7.7E2,6.22E2,1.48E2,4.47E2,1.75E2,1.38E2,1E1,2.04E2,2.43E2,7.8E1,9.7E1,8.9E1,4.9E1,8E0,2E0,4.4E1,1.6E2,1.21E2,1.22E2,6.2E1,1.6E1,3.4E1,6.3E1,1.8E1,7.1E1,4.6E1,3E0,7E0,1E0],"tree_param":{"num_deleted":"0","num_feature":"32","num_nodes":"29","size_leaf_vector":"1"}},{"base_weights":[3.070634E-3,-9.740246E-2,3.301616E-1,-1.5718147E-1,-2.117137E-2,2.9521415E-1,6.355687E-2,-2.0009539E-1,-1.2768367E-1,-6.139968E-2,3.7053797E-2,2.2198457E-1,4.95324E-1,-1.4433515E-2,-9.340108E-3,-6.9610723E-3,-5.4044854E-3,-3.523772E-3,-1.2865234E-3,7.7360903E-4,4.3687965E-3,8.661996E-3,1.50634125E-2,2.1249123E-2,3.1789076E-2],"categories":[],"categories_nodes":[],"categories_segments":[],"categories_sizes":[],"default_left":[0,0,0,0,0,0,0,0,0,0,0,0,0,0,0,0,0,0,0,0,0,0,0,0,0],"id":44,"left_children":[1,3,5,7,9,11,-1,13,15,17,19,21,23,-1,-1,-1,-1,-1,-1,-1,-1,-1,-1,-1,-1],"loss_changes":[2.4614313E1,2.6078448E0,5.412451E0,3.8079405E-1,5.94877E-1,2.395872E0,0E0,9.7966194E-2,2.858305E-2,4.674536E-2,1.1159553E-1,4.386196E-1,1.7440414E-1,0E0,0E0,0E0,0E0,0E0,0E0,0E0,0E0,0E0,0E0,0E0,0E0],"parents":[2147483647,0,0,1,1,2,2,3,3,4,4,5,5,7,7,8,8,9,9,10,10,11,11,12,12],"right_children":[2,4,6,8,10,12,-1,14,16,18,20,22,24,-1,-1,-1,-1,-1,-1,-1,-1,-1,-1,-1,-1],"split_conditions":[3.2015033E0,1.2713143E0,9.8467455E0,6.6E-1,1.9906336E0,5.831003E0,6.355687E-2,2.2461432E-1,1.0466665E0,1.7571855E0,2.86E0,4.7159405E0,3.2363636E0,-1.4433515E-2,-9.340108E-3,-6.9610723E-3,-5.4044854E-3,-3.523772E-3,-1.2865234E-3,7.7360903E-4,4.3687965E-3,8.661996E-3,1.50634125E-2,2.1249123E-2,3.1789076E-2],"split_indices":[25,25,25,13,28,25,0,25,28,25,13,28,6,0,0,0,0,0,0,0,0,0,0,0,0],"split_type":[0,0,0,0,0,0,0,0,0,0,0,0,0,0,0,0,0,0,0,0,0,0,0,0,0],"sum_hessian":[7.47E2,5.72E2,1.75E2,3.2E2,2.52E2,1.7E2,5E0,1.28E2,1.92E2,1.49E2,1.03E2,1.26E2,4.4E1,1.4E1,1.14E2,1.17E2,7.5E1,1.18E2,3.1E1,7.3E1,3E1,8E1,4.6E1,3.2E1,1.2E1],"tree_param":{"num_deleted":"0","num_feature":"32","num_nodes":"25","size_leaf_vector":"1"}},{"base_weights":[1.4135824E-2,-7.5975865E-2,3.8278934E-1,-1.2748425E-1,4.732932E-2,3.024219E-1,8.203972E-1,-1.8028909E-1,-9.6854754E-2,8.33891E-3,1.0262703E-1,2.3172845E-1,4.1455334E-1,1.1992334E0,6.161471E-1,-1.1951827E-2,-8.381965E-3,-5.891803E-3,-3.3948862E-3,-3.5228915E-4,2.55112E-3,8.7868E-3,4.164205E-3,5.3505832E-3,1.2902646E-2,2.1480137E-2,6.8923356E-3,1.5495742E-2,6.479004E-2,3.1964056E-2,6.1500906E-3],"categories":[],"categories_nodes":[],"categories_segments":[],"categories_sizes":[],"default_left":[0,0,0,0,0,0,0,0,0,0,0,0,0,0,0,0,0,0,0,0,0,0,0,0,0,0,0,0,0,0,0],"id":45,"left_children":[1,3,5,7,9,11,13,15,17,19,21,23,25,27,29,-1,-1,-1,-1,-1,-1,-1,-1,-1,-1,-1,-1,-1,-1,-1,-1],"loss_changes":[2.5708138E1,3.9565117E0,5.0976486E0,6.925702E-1,3.95863E-1,9.344406E-1,1.0407734E0,7.8831196E-2,1.6211486E-1,7.193677E-2,9.2838824E-2,2.4159956E-1,1.4482975E-1,1.9956589E-1,1.1531019E-1,0E0,0E0,0E0,0E0,0E0,0E0,0E0,0E0,0E0,0E0,0E0,0E0,0E0,0E0,0E0,0E0],"parents":[2147483647,0,0,1,1,2,2,3,3,4,4,5,5,6,6,7,7,8,8,9,9,10,10,11,11,12,12,13,13,14,14],"right_children":[2,4,6,8,10,12,14,16,18,20,22,24,26,28,30,-1,-1,-1,-1,-1,-1,-1,-1,-1,-1,-1,-1,-1,-1,-1,-1],"split_conditions":[3.7026145E0,1.7670056E0,7.23E0,7.630035E-1,2.82E0,5.487503E0,3.4259505E0,2.7999958E-1,1.2312504E0,2.6081269E0,2.9591172E0,2.8697784E0,1.189E2,1.2059524E1,9.84E0,-1.1951827E-2,-8.381965E-3,-5.891803E-3,-3.3948862E-3,-3.5228915E-4,2.55112E-3,8.7868E-3,4.164205E-3,5.3505832E-3,1.2902646E-2,2.1480137E-2,6.8923356E-3,1.5495742E-2,6.479004E-2,3.1964056E-2,6.1500906E-3],"split_indices":[25,28,13,28,13,28,23,25,28,28,9,27,18,0,13,0,0,0,0,0,0,0,0,0,0,0,0,0,0,0,0],"split_type":[0,0,0,0,0,0,0,0,0,0,0,0,0,0,0,0,0,0,0,0,0,0,0,0,0,0,0,0,0,0,0],"sum_hessian":[7.72E2,6.21E2,1.51E2,4.38E2,1.83E2,1.29E2,2.2E1,1.59E2,2.79E2,1.08E2,7.5E1,8.1E1,4.8E1,6E0,1.6E1,2.5E1,1.34E2,1.6E2,1.19E2,8E1,2.8E1,1.4E1,6.1E1,1.5E1,6.6E1,4.5E1,3E0,1E0,5E0,1.5E1,1E0],"tree_param":{"num_deleted":"0","num_feature":"32","num_nodes":"31","size_leaf_vector":"1"}},{"base_weights":[4.959014E-3,-7.432589E-2,3.681724E-1,-1.2708187E-1,3.737698E-2,2.7930918E-1,7.6932544E-1,-1.7132634E-1,-9.567132E-2,-1.427353E-2,8.62646E-2,2.0586649E-1,3.6117998E-1,2.3169596E-2,8.8603586E-1,-1.2777082E-2,-8.108856E-3,-5.6075878E-3,-3.3725947E-3,-2.0759772E-3,3.9824456E-4,2.8130624E-3,5.579815E-3,5.5999733E-3,1.1379866E-2,1.8581571E-2,6.881464E-3,5.581472E-2,2.7866442E-2],"categories":[],"categories_nodes":[],"categories_segments":[],"categories_sizes":[],"default_left":[0,0,0,0,0,0,0,0,0,0,0,0,0,0,0,0,0,0,0,0,0,0,0,0,0,0,0,0,0],"id":46,"left_children":[1,3,5,7,9,11,13,15,17,19,21,23,25,-1,27,-1,-1,-1,-1,-1,-1,-1,-1,-1,-1,-1,-1,-1,-1],"loss_changes":[2.2662073E1,3.8116238E0,4.811453E0,5.937066E-1,5.264461E-1,6.291437E-1,4.8206043E-1,9.801769E-2,1.1288786E-1,6.213334E-2,7.504523E-2,1.0505676E-1,7.501888E-2,0E0,6.64546E-1,0E0,0E0,0E0,0E0,0E0,0E0,0E0,0E0,0E0,0E0,0E0,0E0,0E0,0E0],"parents":[2147483647,0,0,1,1,2,2,3,3,4,4,5,5,6,6,7,7,8,8,9,9,10,10,11,11,12,12,14,14],"right_children":[2,4,6,8,10,12,14,16,18,20,22,24,26,-1,28,-1,-1,-1,-1,-1,-1,-1,-1,-1,-1,-1,-1,-1,-1],"split_conditions":[3.7520154E0,1.625895E0,6.9035096E0,7.768462E-1,2.4408607E0,5.1534476E0,1.8888184E1,2.2624543E-1,1.2425057E0,9.031574E0,3.1107757E0,2.8697784E0,6.19E-1,2.3169596E-2,4.91E-1,-1.2777082E-2,-8.108856E-3,-5.6075878E-3,-3.3725947E-3,-2.0759772E-3,3.9824456E-4,2.8130624E-3,5.579815E-3,5.5999733E-3,1.1379866E-2,1.8581571E-2,6.881464E-3,5.581472E-2,2.7866442E-2],"split_indices":[24,28,24,28,24,24,20,28,28,26,28,27,29,0,19,0,0,0,0,0,0,0,0,0,0,0,0,0,0],"split_type":[0,0,0,0,0,0,0,0,0,0,0,0,0,0,0,0,0,0,0,0,0,0,0,0,0,0,0,0,0],"sum_hessian":[7.85E2,6.45E2,1.4E2,4.38E2,2.07E2,1.16E2,2.4E1,1.8E2,2.58E2,1.01E2,1.06E2,6.3E1,5.3E1,8E0,1.6E1,1.5E1,1.65E2,1.61E2,9.7E1,4.5E1,5.6E1,5E1,5.6E1,1.3E1,5E1,5E1,3E0,8E0,8E0],"tree_param":{"num_deleted":"0","num_feature":"32","num_nodes":"29","size_leaf_vector":"1"}},{"base_weights":[6.6327928E-3,-6.972966E-2,3.5708323E-1,-1.267099E-1,1.7480226E-2,3.040637E-1,1.0891364E0,-1.675938E-1,-9.914409E-2,-1.7144246E-2,9.256995E-2,2.1714875E-1,4.278791E-1,1.5166998E-2,6.351577E-2,-1.2736909E-2,-7.852991E-3,-5.6962674E-3,-3.9857114E-3,-2.0671608E-3,7.674818E-4,3.5284404E-3,7.048279E-3,6.275099E-3,1.20126745E-2,1.7587623E-2,2.559406E-2],"categories":[],"categories_nodes":[],"categories_segments":[],"categories_sizes":[],"default_left":[0,0,0,0,0,0,0,0,0,0,0,0,0,0,0,0,0,0,0,0,0,0,0,0,0,0,0],"id":47,"left_children":[1,3,5,7,9,11,13,15,17,19,21,23,25,-1,-1,-1,-1,-1,-1,-1,-1,-1,-1,-1,-1,-1,-1],"loss_changes":[2.0791634E1,3.1725903E0,5.063858E0,4.1840553E-1,6.593724E-1,1.3168316E0,8.959913E-1,1.0135937E-1,5.783558E-2,1.3745402E-1,7.523298E-2,1.3712811E-1,1.5886879E-1,0E0,0E0,0E0,0E0,0E0,0E0,0E0,0E0,0E0,0E0,0E0,0E0,0E0,0E0],"parents":[2147483647,0,0,1,1,2,2,3,3,4,4,5,5,6,6,7,7,8,8,9,9,10,10,11,11,12,12],"right_children":[2,4,6,8,10,12,14,16,18,20,22,24,26,-1,-1,-1,-1,-1,-1,-1,-1,-1,-1,-1,-1,-1,-1],"split_conditions":[3.7026145E0,1.4439417E0,9.469245E0,7.1E-1,2.6461792E0,5.49E0,8.60911E0,2.2624543E-1,1.0958043E0,1.9651958E0,3.146315E1,2.9601736E0,2.66E0,1.5166998E-2,6.351577E-2,-1.2736909E-2,-7.852991E-3,-5.6962674E-3,-3.9857114E-3,-2.0671608E-3,7.674818E-4,3.5284404E-3,7.048279E-3,6.275099E-3,1.20126745E-2,1.7587623E-2,2.559406E-2],"split_indices":[25,28,28,13,25,13,25,28,28,28,2,8,17,0,0,0,0,0,0,0,0,0,0,0,0,0,0],"split_type":[0,0,0,0,0,0,0,0,0,0,0,0,0,0,0,0,0,0,0,0,0,0,0,0,0,0,0],"sum_hessian":[7.75E2,6.37E2,1.38E2,3.85E2,2.52E2,1.3E2,8E0,1.53E2,2.32E2,1.73E2,7.9E1,7.8E1,5.2E1,2E0,6E0,1.4E1,1.39E2,1.29E2,1.03E2,9.9E1,7.4E1,5.6E1,2.3E1,1.7E1,6.1E1,3E1,2.2E1],"tree_param":{"num_deleted":"0","num_feature":"32","num_nodes":"27","size_leaf_vector":"1"}},{"base_weights":[7.3630414E-3,-6.192582E-2,3.5055277E-1,-1.0730558E-1,4.4673026E-2,2.781385E-1,6.7534363E-1,-1.56931E-1,-8.03628E-2,9.443818E-3,9.124856E-2,2.256997E-1,3.6512762E-1,3.5795218E-1,7.918304E-1,-1.14663495E-2,-7.2992444E-3,-4.9853856E-3,-2.586023E-3,-1.076124E-3,1.2608906E-3,6.136442E-3,3.0278142E-3,1.1555068E-2,-3.6753893E-3,2.0696718E-2,1.1040896E-2,2.7957081E-3,1.9655636E-2,4.9103323E-2,2.39418E-2],"categories":[],"categories_nodes":[],"categories_segments":[],"categories_sizes":[],"default_left":[0,0,0,0,0,0,0,0,0,0,0,0,0,0,0,0,0,0,0,0,0,0,0,0,0,0,0,0,0,0,0],"id":48,"left_children":[1,3,5,7,9,11,13,15,17,19,21,23,25,27,29,-1,-1,-1,-1,-1,-1,-1,-1,-1,-1,-1,-1,-1,-1,-1,-1],"loss_changes":[1.840305E1,3.1200986E0,2.8696957E0,5.9173393E-1,3.158163E-1,4.1024494E-1,5.669155E-1,9.1729164E-2,1.5829766E-1,5.4762054E-2,7.276279E-2,1.3012314E-1,1.832838E-1,6.297803E-2,4.8243618E-1,0E0,0E0,0E0,0E0,0E0,0E0,0E0,0E0,0E0,0E0,0E0,0E0,0E0,0E0,0E0,0E0],"parents":[2147483647,0,0,1,1,2,2,3,3,4,4,5,5,6,6,7,7,8,8,9,9,10,10,11,11,12,12,13,13,14,14],"right_children":[2,4,6,8,10,12,14,16,18,20,22,24,26,28,30,-1,-1,-1,-1,-1,-1,-1,-1,-1,-1,-1,-1,-1,-1,-1,-1],"split_conditions":[3.8069758E0,1.8112881E0,6.9035096E0,7.714968E-1,2.7987635E0,5.697395E0,4E0,2.4534316E-1,1.2713143E0,2.0691361E0,3.418199E0,5.83E-1,4.992664E0,3.4285715E0,4.88E-1,-1.14663495E-2,-7.2992444E-3,-4.9853856E-3,-2.586023E-3,-1.076124E-3,1.2608906E-3,6.136442E-3,3.0278142E-3,1.1555068E-2,-3.6753893E-3,2.0696718E-2,1.1040896E-2,2.7957081E-3,1.9655636E-2,4.9103323E-2,2.39418E-2],"split_indices":[25,25,24,24,24,24,30,25,25,24,9,19,27,1,19,0,0,0,0,0,0,0,0,0,0,0,0,0,0,0,0],"split_type":[0,0,0,0,0,0,0,0,0,0,0,0,0,0,0,0,0,0,0,0,0,0,0,0,0,0,0,0,0,0,0],"sum_hessian":[7.72E2,6.43E2,1.29E2,4.51E2,1.92E2,1.07E2,2.2E1,1.57E2,2.94E2,1.1E2,8.2E1,6.9E1,3.8E1,7E0,1.5E1,1.8E1,1.39E2,1.74E2,1.2E2,3.7E1,7.3E1,3.9E1,4.3E1,6.8E1,1E0,2.7E1,1.1E1,1E0,6E0,8E0,7E0],"tree_param":{"num_deleted":"0","num_feature":"32","num_nodes":"31","size_leaf_vector":"1"}},{"base_weights":[7.0142825E-3,-6.2329676E-2,3.329303E-1,-1.0717827E-1,4.0728223E-2,2.7462858E-1,9.7578377E-1,-1.3572566E-1,-7.159941E-2,-1.3736245E-3,8.7371916E-2,1.9313672E-1,3.7779728E-1,1.1124873E0,1.202058E-2,-9.332404E-3,-6.128552E-3,-3.6831927E-3,2.450332E-3,-2.2362806E-3,5.066907E-4,7.44591E-3,3.4778544E-3,7.0049386E-3,1.1669529E-2,1.4322447E-2,2.3433426E-2,5.9078183E-2,1.3996935E-2],"categories":[],"categories_nodes":[],"categories_segments":[],"categories_sizes":[],"default_left":[0,0,0,0,0,0,0,0,0,0,0,0,0,0,0,0,0,0,0,0,0,0,0,0,0,0,0,0,0],"id":49,"left_children":[1,3,5,7,9,11,13,15,17,19,21,23,25,27,-1,-1,-1,-1,-1,-1,-1,-1,-1,-1,-1,-1,-1,-1,-1],"loss_changes":[1.764899E1,2.9809341E0,4.8667088E0,4.4632435E-1,3.8502198E-1,9.9477386E-1,8.3835316E-1,1.4324856E-1,5.390501E-2,5.2335754E-2,9.161031E-2,1.2315583E-1,3.2230186E-1,1.8681908E-1,0E0,0E0,0E0,0E0,0E0,0E0,0E0,0E0,0E0,0E0,0E0,0E0,0E0,0E0,0E0],"parents":[2147483647,0,0,1,1,2,2,3,3,4,4,5,5,6,6,7,7,8,8,9,9,10,10,11,11,12,12,13,13],"right_children":[2,4,6,8,10,12,14,16,18,20,22,24,26,28,-1,-1,-1,-1,-1,-1,-1,-1,-1,-1,-1,-1,-1,-1,-1],"split_conditions":[3.9E0,1.7581087E0,8.60911E0,1.01E0,2.7053623E0,5.487503E0,5.45E-1,3.6062223E-1,2.06E0,5.3408833E0,1.8E-1,4.5595384E0,6.244563E0,1.235443E1,1.202058E-2,-9.332404E-3,-6.128552E-3,-3.6831927E-3,2.450332E-3,-2.2362806E-3,5.066907E-4,7.44591E-3,3.4778544E-3,7.0049386E-3,1.1669529E-2,1.4322447E-2,2.3433426E-2,5.9078183E-2,1.3996935E-2],"split_indices":[13,28,25,13,28,28,29,25,13,26,16,8,25,1,0,0,0,0,0,0,0,0,0,0,0,0,0,0,0],"split_type":[0,0,0,0,0,0,0,0,0,0,0,0,0,0,0,0,0,0,0,0,0,0,0,0,0,0,0,0,0],"sum_hessian":[7.79E2,6.43E2,1.36E2,4.48E2,1.95E2,1.26E2,1E1,2.47E2,2.01E2,1.03E2,9.2E1,7.2E1,5.4E1,8E0,2E0,4.8E1,1.99E2,1.98E2,3E0,2.1E1,8.2E1,1.9E1,7.3E1,3.3E1,3.9E1,2.9E1,2.5E1,7E0,1E0],"tree_param":{"num_deleted":"0","num_feature":"32","num_nodes":"29","size_leaf_vector":"1"}},{"base_weights":[2.3847888E-3,-6.1751E-2,3.0390093E-1,-1.0812808E-1,1.205916E-2,2.4710332E-1,7.730874E-1,-1.4875014E-1,-8.552509E-2,-1.8057922E-2,6.289401E-2,1.8385206E-1,3.8041916E-1,3.9802095E-1,1.0046346E0,-1.1129825E-2,-6.9267573E-3,-4.9713138E-3,-2.9995425E-3,-1.3924179E-3,1.0843169E-3,5.9605623E-3,2.214791E-3,7.3284754E-3,1.2659127E-2,1.9830963E-2,2.9605867E-3,2.1972513E-2,3.7361265E-3,2.0850277E-2,5.6550503E-2],"categories":[],"categories_nodes":[],"categories_segments":[],"categories_sizes":[],"default_left":[0,0,0,0,0,0,0,0,0,0,0,0,0,0,0,0,0,0,0,0,0,0,0,0,0,0,0,0,0,0,0],"id":50,"left_children":[1,3,5,7,9,11,13,15,17,19,21,23,25,27,29,-1,-1,-1,-1,-1,-1,-1,-1,-1,-1,-1,-1,-1,-1,-1,-1],"loss_changes":[1.4773643E1,2.1578567E0,3.3798885E0,3.426137E-1,3.7469906E-1,9.503794E-1,8.159733E-1,7.250714E-2,8.312929E-2,6.052743E-2,9.00327E-2,1.8001556E-1,1.7425203E-1,6.092131E-2,1.22457504E-1,0E0,0E0,0E0,0E0,0E0,0E0,0E0,0E0,0E0,0E0,0E0,0E0,0E0,0E0,0E0,0E0],"parents":[2147483647,0,0,1,1,2,2,3,3,4,4,5,5,6,6,7,7,8,8,9,9,10,10,11,11,12,12,13,13,14,14],"right_children":[2,4,6,8,10,12,14,16,18,20,22,24,26,28,30,-1,-1,-1,-1,-1,-1,-1,-1,-1,-1,-1,-1,-1,-1,-1,-1],"split_conditions":[3.8601115E0,1.49E0,7.9257884E0,6.386536E-1,2.5972636E0,5.547596E0,3.3073277E1,2.1158358E-1,1.17E0,2.3139265E0,2.037037E-1,5.1534476E0,1.1E0,2.6432432E1,1.9455883E1,-1.1129825E-2,-6.9267573E-3,-4.9713138E-3,-2.9995425E-3,-1.3924179E-3,1.0843169E-3,5.9605623E-3,2.214791E-3,7.3284754E-3,1.2659127E-2,1.9830963E-2,2.9605867E-3,2.1972513E-2,3.7361265E-3,2.0850277E-2,5.6550503E-2],"split_indices":[28,13,28,25,24,28,10,24,13,25,5,24,5,0,0,0,0,0,0,0,0,0,0,0,0,0,0,0,0,0,0],"split_type":[0,0,0,0,0,0,0,0,0,0,0,0,0,0,0,0,0,0,0,0,0,0,0,0,0,0,0,0,0,0,0],"sum_hessian":[7.62E2,6.29E2,1.33E2,3.86E2,2.43E2,1.2E2,1.3E1,1.36E2,2.5E2,1.53E2,9E1,8.3E1,3.7E1,6E0,7E0,1.4E1,1.22E2,1.6E2,9E1,1.23E2,3E1,2.1E1,6.9E1,5.6E1,2.7E1,3.5E1,2E0,5E0,1E0,2E0,5E0],"tree_param":{"num_deleted":"0","num_feature":"32","num_nodes":"31","size_leaf_vector":"1"}},{"base_weights":[-1.6025892E-3,-6.919668E-2,2.2034024E-1,-1.0873999E-1,-1.5198811E-2,1.789195E-1,5.6190974E-1,-1.4068265E-1,-8.839293E-2,-4.1090284E-2,2.8482588E-2,1.3827112E-1,2.8819588E-1,4.7679257E-2,3.938906E-1,-1.0179612E-2,-6.475775E-3,-4.7649695E-3,-3.2124077E-3,-2.1609662E-3,2.5841326E-3,-3.561084E-4,2.1847773E-3,5.094725E-3,8.532871E-3,-8.366227E-4,1.4792723E-2,2.118628E-2,6.6654445E-3],"categories":[],"categories_nodes":[],"categories_segments":[],"categories_sizes":[],"default_left":[0,0,0,0,0,0,0,0,0,0,0,0,0,0,0,0,0,0,0,0,0,0,0,0,0,0,0,0,0],"id":51,"left_children":[1,3,5,7,9,11,13,15,17,19,21,23,25,-1,27,-1,-1,-1,-1,-1,-1,-1,-1,-1,-1,-1,-1,-1,-1],"loss_changes":[1.1566805E1,1.2602825E0,2.4461136E0,2.091937E-1,2.8504527E-1,6.797395E-1,8.7476206E-1,6.566191E-2,2.906251E-2,3.3441484E-2,5.1226653E-2,1.2398338E-1,1.0536909E-1,0E0,6.013012E-2,0E0,0E0,0E0,0E0,0E0,0E0,0E0,0E0,0E0,0E0,0E0,0E0,0E0,0E0],"parents":[2147483647,0,0,1,1,2,2,3,3,4,4,5,5,6,6,7,7,8,8,9,9,10,10,11,11,12,12,14,14],"right_children":[2,4,6,8,10,12,14,16,18,20,22,24,26,-1,28,-1,-1,-1,-1,-1,-1,-1,-1,-1,-1,-1,-1,-1,-1],"split_conditions":[2.9889202E0,1.2857431E0,7.215994E0,6.386536E-1,2.09E0,5.2904606E0,3.4259505E0,2.4E-1,8.6764705E-1,2.4408607E0,7.5E-1,3.7897353E0,4.5238096E-1,4.7679257E-2,2.6432432E1,-1.0179612E-2,-6.475775E-3,-4.7649695E-3,-3.2124077E-3,-2.1609662E-3,2.5841326E-3,-3.561084E-4,2.1847773E-3,5.094725E-3,8.532871E-3,-8.366227E-4,1.4792723E-2,2.118628E-2,6.6654445E-3],"split_indices":[25,25,25,25,13,25,23,13,6,24,14,25,3,0,0,0,0,0,0,0,0,0,0,0,0,0,0,0,0],"split_type":[0,0,0,0,0,0,0,0,0,0,0,0,0,0,0,0,0,0,0,0,0,0,0,0,0,0,0,0,0],"sum_hessian":[7.69E2,5.9E2,1.79E2,3.4E2,2.5E2,1.61E2,1.8E1,1.3E2,2.1E2,1.57E2,9.3E1,1.19E2,4.2E1,4E0,1.4E1,1.7E1,1.13E2,1.61E2,4.9E1,1.54E2,3E0,2.8E1,6.5E1,5.8E1,6.1E1,1E0,4.1E1,1.2E1,2E0],"tree_param":{"num_deleted":"0","num_feature":"32","num_nodes":"29","size_leaf_vector":"1"}},{"base_weights":[1.7655956E-3,-5.447473E-2,2.891047E-1,-9.113868E-2,3.5542186E-2,2.0859978E-1,5.969087E-1,-1.2998386E-1,-7.033471E-2,2.7810878E-3,7.959377E-2,1.7237867E-1,2.9508197E-1,4.4301486E-1,8.87793E-1,-1.0134459E-2,-6.0840356E-3,-4.2346423E-3,-2.3269828E-3,2.453366E-3,-3.711136E-4,5.6374054E-3,2.3836272E-3,1.2362742E-2,7.1279495E-3,1.6969388E-2,7.945744E-3,1.3841934E-2,2.6935155E-2,3.4760952E-3,4.973786E-2],"categories":[],"categories_nodes":[],"categories_segments":[],"categories_sizes":[],"default_left":[0,0,0,0,0,0,0,0,0,0,0,0,0,0,0,0,0,0,0,0,0,0,0,0,0,0,0,0,0,0,0],"id":52,"left_children":[1,3,5,7,9,11,13,15,17,19,21,23,25,27,29,-1,-1,-1,-1,-1,-1,-1,-1,-1,-1,-1,-1,-1,-1,-1,-1],"loss_changes":[1.26367445E1,2.1616855E0,3.0472908E0,3.666401E-1,2.7398252E-1,2.7177954E-1,7.705927E-1,7.2529554E-2,1.00262284E-1,5.231445E-2,8.0349505E-2,1.3221025E-1,1.210227E-1,1.52987E-1,6.310477E-1,0E0,0E0,0E0,0E0,0E0,0E0,0E0,0E0,0E0,0E0,0E0,0E0,0E0,0E0,0E0,0E0],"parents":[2147483647,0,0,1,1,2,2,3,3,4,4,5,5,6,6,7,7,8,8,9,9,10,10,11,11,12,12,13,13,14,14],"right_children":[2,4,6,8,10,12,14,16,18,20,22,24,26,28,30,-1,-1,-1,-1,-1,-1,-1,-1,-1,-1,-1,-1,-1,-1,-1,-1],"split_conditions":[4.0613046E0,1.8112881E0,6.9035096E0,7.215055E-1,2.8385644E0,5.831003E0,9.469245E0,2.1158358E-1,1.2713143E0,1.5151516E-1,3.3255465E0,1.22E1,4.54E0,2.7E0,2.808785E1,-1.0134459E-2,-6.0840356E-3,-4.2346423E-3,-2.3269828E-3,2.453366E-3,-3.711136E-4,5.6374054E-3,2.3836272E-3,1.2362742E-2,7.1279495E-3,1.6969388E-2,7.945744E-3,1.3841934E-2,2.6935155E-2,3.4760952E-3,4.973786E-2],"split_indices":[24,25,24,25,24,25,28,24,25,5,9,0,12,17,10,0,0,0,0,0,0,0,0,0,0,0,0,0,0,0,0],"split_type":[0,0,0,0,0,0,0,0,0,0,0,0,0,0,0,0,0,0,0,0,0,0,0,0,0,0,0,0,0,0,0],"sum_hessian":[7.8E2,6.53E2,1.27E2,4.64E2,1.89E2,1.02E2,2.5E1,1.6E2,3.04E2,1.09E2,8E1,7.4E1,2.8E1,1.8E1,7E0,1.4E1,1.46E2,1.88E2,1.16E2,1.9E1,9E1,3.8E1,4.2E1,1.9E1,5.5E1,2E1,8E0,8E0,1E1,1E0,6E0],"tree_param":{"num_deleted":"0","num_feature":"32","num_nodes":"31","size_leaf_vector":"1"}},{"base_weights":[8.1277145E-3,-5.0504036E-2,2.7940074E-1,-8.826049E-2,2.506899E-2,2.3622422E-1,8.6721945E-1,-1.287271E-1,-7.006688E-2,7.749111E-5,7.36625E-2,1.7552674E-1,3.3174E-1,2.278568E-1,5.0867178E-2,-1.0364842E-2,-5.986118E-3,-4.2390344E-3,-2.580899E-3,-6.817256E-4,1.6926974E-3,