{"learner":{"attributes":{"scikit_learn":"{\"_estimator_type\": \"regressor\"}"},"feature_names":[],"feature_types":[],"gradient_booster":{"model":{"cats":{"enc":[],"feature_segments":[],"sorted_idx":[]},"gbtree_model_param":{"num_parallel_tree":"1","num_trees":"200"},"iteration_indptr":[0,1,2,3,4,5,6,7,8,9,10,11,12,13,14,15,16,17,18,19,20,21,22,23,24,25,26,27,28,29,30,31,32,33,34,35,36,37,38,39,40,41,42,43,44,45,46,47,48,49,50,51,52,53,54,55,56,57,58,59,60,61,62,63,64,65,66,67,68,69,70,71,72,73,74,75,76,77,78,79,80,81,82,83,84,85,86,87,88,89,90,91,92,93,94,95,96,97,98,99,100,101,102,103,104,105,106,107,108,109,110,111,112,113,114,115,116,117,118,119,120,121,122,123,124,125,126,127,128,129,130,131,132,133,134,135,136,137,138,139,140,141,142,143,144,145,146,147,148,149,150,151,152,153,154,155,156,157,158,159,160,161,162,163,164,165,166,167,168,169,170,171,172,173,174,175,176,177,178,179,180,181,182,183,184,185,186,187,188,189,190,191,192,193,194,195,196,197,198,199,200],"tree_info":[0,0,0,0,0,0,0,0,0,0,0,0,0,0,0,0,0,0,0,0,0,0,0,0,0,0,0,0,0,0,0,0,0,0,0,0,0,0,0,0,0,0,0,0,0,0,0,0,0,0,0,0,0,0,0,0,0,0,0,0,0,0,0,0,0,0,0,0,0,0,0,0,0,0,0,0,0,0,0,0,0,0,0,0,0,0,0,0,0,0,0,0,0,0,0,0,0,0,0,0,0,0,0,0,0,0,0,0,0,0,0,0,0,0,0,0,0,0,0,0,0,0,0,0,0,0,0,0,0,0,0,0,0,0,0,0,0,0,0,0,0,0,0,0,0,0,0,0,0,0,0,0,0,0,0,0,0,0,0,0,0,0,0,0,0,0,0,0,0,0,0,0,0,0,0,0,0,0,0,0,0,0,0,0,0,0,0,0,0,0,0,0,0,0,0,0,0,0,0,0],"trees":[{"base_weights":[8.186455E-2,-3.2730162E0,9.521177E0,-5.4596214E0,-1.8526612E-1,5.1304994E0,1.3011629E1,-6.826919E0,-4.177834E0,-1.4869977E0,1.2551149E0,1.9841312E-1,3.0566058E-1,5.4570043E-1,8.283469E-1,-3.869886E-1,-3.0469653E-1,-2.3916665E-1,-1.6957217E-1,-1.04025595E-1,-3.6601648E-2,2.437585E-2,9.570261E-2],"categories":[],"categories_nodes":[],"categories_segments":[],"categories_sizes":[],"default_left":[0,0,0,0,0,0,0,0,0,0,0,0,0,0,0,0,0,0,0,0,0,0,0],"id":0,"left_children":[1,3,5,7,9,11,13,15,17,19,21,-1,-1,-1,-1,-1,-1,-1,-1,-1,-1,-1,-1],"loss_changes":[2.4637018E4,3.874458E3,3.0596387E3,5.603467E2,4.4998883E2,8.081836E1,6.6190625E2,6.0561035E1,6.75813E1,5.4935364E1,5.6727936E1,0E0,0E0,0E0,0E0,0E0,0E0,0E0,0E0,0E0,0E0,0E0,0E0],"parents":[2147483647,0,0,1,1,2,2,3,3,4,4,5,5,6,6,7,7,8,8,9,9,10,10],"right_children":[2,4,6,8,10,12,14,16,18,20,22,-1,-1,-1,-1,-1,-1,-1,-1,-1,-1,-1,-1],"split_conditions":[1.266E1,6.62E0,1.793E1,3.98E0,9.21E0,1.466E1,2.3210749E1,2.46E0,5.4E0,7.99E0,1.068E1,1.9841312E-1,3.0566058E-1,5.4570043E-1,8.283469E-1,-3.869886E-1,-3.0469653E-1,-2.3916665E-1,-1.6957217E-1,-1.04025595E-1,-3.6601648E-2,2.437585E-2,9.570261E-2],"split_indices":[11,11,11,11,11,11,20,11,11,11,11,0,0,0,0,0,0,0,0,0,0,0,0],"split_type":[0,0,0,0,0,0,0,0,0,0,0,0,0,0,0,0,0,0,0,0,0,0,0],"sum_hessian":[7.76E2,5.73E2,2.03E2,3.35E2,2.38E2,9.1E1,1.12E2,1.6E2,1.75E2,1.25E2,1.13E2,4.4E1,4.7E1,7.3E1,3.9E1,6.7E1,9.3E1,9.6E1,7.9E1,6.9E1,5.6E1,5.3E1,6E1],"tree_param":{"num_deleted":"0","num_feature":"60","num_nodes":"23","size_leaf_vector":"1"}},{"base_weights":[-6.338259E-2,-3.2105603E0,9.055688E0,-5.3460474E0,-4.5936903E-1,6.0692945E0,1.4185879E1,-6.7986965E0,-4.369986E0,-1.6010163E0,1.2750396E0,4.3729744E0,7.777352E0,5.6107473E-1,8.3033115E-1,-3.668874E-1,-3.0087143E-1,-2.4563713E-1,-1.7709664E-1,-1.1584748E-1,-4.460921E-2,3.7639465E-2,1.1042517E-1,1.679888E-1,2.3447613E-1,3.2690677E-1,4.4596553E-1],"categories":[],"categories_nodes":[],"categories_segments":[],"categories_sizes":[],"default_left":[0,0,0,0,0,0,0,0,0,0,0,0,0,0,0,0,0,0,0,0,0,0,0,0,0,0,0],"id":1,"left_children":[1,3,5,7,9,11,13,15,17,19,21,23,25,-1,-1,-1,-1,-1,-1,-1,-1,-1,-1,-1,-1,-1,-1],"loss_changes":[2.181187E4,3.3169941E3,2.9014521E3,4.2117383E2,4.9310187E2,3.281665E2,3.231455E2,8.909668E0,6.933984E1,7.405432E1,4.660013E1,5.0914307E0,2.8007324E1,0E0,0E0,0E0,0E0,0E0,0E0,0E0,0E0,0E0,0E0,0E0,0E0,0E0,0E0],"parents":[2147483647,0,0,1,1,2,2,3,3,4,4,5,5,6,6,7,7,8,8,9,9,10,10,11,11,12,12],"right_children":[2,4,6,8,10,12,14,16,18,20,22,24,26,-1,-1,-1,-1,-1,-1,-1,-1,-1,-1,-1,-1,-1,-1],"split_conditions":[1.266E1,6.37E0,1.986E1,3.51E0,9.29E0,1.604E1,2.345307E1,2.46E0,5.11E0,7.7E0,1.156E1,1.352E1,1.793E1,5.6107473E-1,8.3033115E-1,-3.668874E-1,-3.0087143E-1,-2.4563713E-1,-1.7709664E-1,-1.1584748E-1,-4.460921E-2,3.7639465E-2,1.1042517E-1,1.679888E-1,2.3447613E-1,3.2690677E-1,4.4596553E-1],"split_indices":[11,11,11,11,11,11,21,11,11,11,11,11,11,0,0,0,0,0,0,0,0,0,0,0,0,0,0],"split_type":[0,0,0,0,0,0,0,0,0,0,0,0,0,0,0,0,0,0,0,0,0,0,0,0,0,0,0],"sum_hessian":[7.58E2,5.64E2,1.94E2,3.17E2,2.47E2,1.24E2,7E1,1.25E2,1.92E2,1.49E2,9.8E1,6.4E1,6E1,3.4E1,3.6E1,6.9E1,5.6E1,1.13E2,7.9E1,7.3E1,7.6E1,6.4E1,3.4E1,1.8E1,4.6E1,3.2E1,2.8E1],"tree_param":{"num_deleted":"0","num_feature":"60","num_nodes":"27","size_leaf_vector":"1"}},{"base_weights":[1.2056653E-1,-2.9710414E0,9.189719E0,-5.1227407E0,-3.9897728E-1,6.103577E0,1.3495927E1,-6.1972632E0,-3.9438233E0,-1.6376486E0,1.2856389E0,2.1627907E-1,7.4806113E0,5.4691356E-1,7.699043E-1,-3.475639E-1,-2.750349E-1,-2.1982716E-1,-1.6677648E-1,-1.1040043E-1,-4.2013727E-2,3.508999E-2,1.1397803E-1,3.1056142E-1,4.1774613E-1],"categories":[],"categories_nodes":[],"categories_segments":[],"categories_sizes":[],"default_left":[0,0,0,0,0,0,0,0,0,0,0,0,0,0,0,0,0,0,0,0,0,0,0,0,0],"id":2,"left_children":[1,3,5,7,9,11,13,15,17,19,21,-1,23,-1,-1,-1,-1,-1,-1,-1,-1,-1,-1,-1,-1],"loss_changes":[2.1616768E4,3.1801836E3,2.5223828E3,3.7205957E2,5.5090375E2,2.5165186E2,2.2564258E2,4.6848633E1,2.7193848E1,6.7272766E1,6.3392746E1,0E0,1.913501E1,0E0,0E0,0E0,0E0,0E0,0E0,0E0,0E0,0E0,0E0,0E0,0E0],"parents":[2147483647,0,0,1,1,2,2,3,3,4,4,5,5,6,6,7,7,8,8,9,9,10,10,12,12],"right_children":[2,4,6,8,10,12,14,16,18,20,22,-1,24,-1,-1,-1,-1,-1,-1,-1,-1,-1,-1,-1,-1],"split_conditions":[1.317E1,6.37E0,2.034E1,4.04E0,9.15E0,1.604E1,2.362E1,2.65E0,5.25E0,7.75E0,1.156E1,2.1627907E-1,1.793E1,5.4691356E-1,7.699043E-1,-3.475639E-1,-2.750349E-1,-2.1982716E-1,-1.6677648E-1,-1.1040043E-1,-4.2013727E-2,3.508999E-2,1.1397803E-1,3.1056142E-1,4.1774613E-1],"split_indices":[11,11,11,11,11,11,11,11,11,11,11,0,11,0,0,0,0,0,0,0,0,0,0,0,0],"split_type":[0,0,0,0,0,0,0,0,0,0,0,0,0,0,0,0,0,0,0,0,0,0,0,0,0],"sum_hessian":[7.69E2,5.74E2,1.95E2,3.12E2,2.62E2,1.15E2,8E1,1.61E2,1.51E2,1.51E2,1.11E2,5.2E1,6.3E1,3.7E1,4.3E1,7.3E1,8.8E1,8.3E1,6.8E1,8.7E1,6.4E1,7.1E1,4E1,2.9E1,3.4E1],"tree_param":{"num_deleted":"0","num_feature":"60","num_nodes":"25","size_leaf_vector":"1"}},{"base_weights":[-1.3068077E-1,-2.9497697E0,8.17219E0,-4.832699E0,-4.9854305E-1,5.3876033E0,1.2741331E1,-6.1103325E0,-3.9416778E0,-1.5356476E0,1.0419631E0,3.7771897E0,7.0416965E0,5.6537837E-1,8.660807E-1,-3.3827484E-1,-2.7801368E-1,-2.2041264E-1,-1.5806863E-1,-1.05971575E-1,-4.2067297E-2,1.975479E-2,8.284829E-2,1.4530629E-1,2.1906857E-1,3.0415803E-1,4.132987E-1],"categories":[],"categories_nodes":[],"categories_segments":[],"categories_sizes":[],"default_left":[0,0,0,0,0,0,0,0,0,0,0,0,0,0,0,0,0,0,0,0,0,0,0,0,0,0,0],"id":3,"left_children":[1,3,5,7,9,11,13,15,17,19,21,23,25,-1,-1,-1,-1,-1,-1,-1,-1,-1,-1,-1,-1,-1,-1],"loss_changes":[1.846845E4,2.7161118E3,2.4759902E3,3.5500195E2,4.1220026E2,3.0903735E2,2.966621E2,1.1033203E1,5.8513916E1,6.0636414E1,4.0719147E1,2.2001709E1,2.130127E1,0E0,0E0,0E0,0E0,0E0,0E0,0E0,0E0,0E0,0E0,0E0,0E0,0E0,0E0],"parents":[2147483647,0,0,1,1,2,2,3,3,4,4,5,5,6,6,7,7,8,8,9,9,10,10,11,11,12,12],"right_children":[2,4,6,8,10,12,14,16,18,20,22,24,26,-1,-1,-1,-1,-1,-1,-1,-1,-1,-1,-1,-1,-1,-1],"split_conditions":[1.257E1,6.354913E0,1.986E1,3.5893545E0,9.21E0,1.604E1,2.7505957E1,2.29E0,5.17E0,7.746611E0,1.068E1,1.366E1,1.8148464E1,5.6537837E-1,8.660807E-1,-3.3827484E-1,-2.7801368E-1,-2.2041264E-1,-1.5806863E-1,-1.05971575E-1,-4.2067297E-2,1.975479E-2,8.284829E-2,1.4530629E-1,2.1906857E-1,3.0415803E-1,4.132987E-1],"split_indices":[11,20,11,21,11,11,21,11,11,20,11,11,20,0,0,0,0,0,0,0,0,0,0,0,0,0,0],"split_type":[0,0,0,0,0,0,0,0,0,0,0,0,0,0,0,0,0,0,0,0,0,0,0,0,0,0,0],"sum_hessian":[7.87E2,5.88E2,1.99E2,3.32E2,2.56E2,1.25E2,7.4E1,1.34E2,1.98E2,1.53E2,1.03E2,6.5E1,6E1,5.9E1,1.5E1,5.6E1,7.8E1,1.21E2,7.7E1,8.2E1,7.1E1,5.1E1,5.2E1,2.9E1,3.6E1,3.7E1,2.3E1],"tree_param":{"num_deleted":"0","num_feature":"60","num_nodes":"27","size_leaf_vector":"1"}},{"base_weights":[-1.2795253E-2,-2.7741516E0,7.74083E0,-4.496806E0,-2.266337E-1,4.9836082E0,1.2282719E1,-5.567204E0,-3.4313512E0,-1.2592418E0,1.0464479E0,3.5317805E0,6.7871766E0,5.3749126E-1,7.673828E-1,-3.1160527E-1,-2.4750988E-1,-1.8870436E-1,-1.3030858E-1,-8.5365154E-2,-2.7464038E-2,1.693167E-2,8.009897E-2,1.3211854E-1,1.956742E-1,2.6231816E-1,3.7487262E-1],"categories":[],"categories_nodes":[],"categories_segments":[],"categories_sizes":[],"default_left":[0,0,0,0,0,0,0,0,0,0,0,0,0,0,0,0,0,0,0,0,0,0,0,0,0,0,0],"id":4,"left_children":[1,3,5,7,9,11,13,15,17,19,21,23,25,-1,-1,-1,-1,-1,-1,-1,-1,-1,-1,-1,-1,-1,-1],"loss_changes":[1.6550396E4,2.5004214E3,2.480956E3,3.686543E2,3.04989E2,3.1119336E2,1.9208105E2,3.807129E1,3.9091675E1,3.9779785E1,4.03517E1,1.4441895E1,2.1952148E1,0E0,0E0,0E0,0E0,0E0,0E0,0E0,0E0,0E0,0E0,0E0,0E0,0E0,0E0],"parents":[2147483647,0,0,1,1,2,2,3,3,4,4,5,5,6,6,7,7,8,8,9,9,10,10,11,11,12,12],"right_children":[2,4,6,8,10,12,14,16,18,20,22,24,26,-1,-1,-1,-1,-1,-1,-1,-1,-1,-1,-1,-1,-1,-1],"split_conditions":[1.257E1,6.7565017E0,2.02E1,4.04E0,9.29E0,1.604E1,2.6773447E1,2.688322E0,5.84E0,8.144459E0,1.068E1,1.332E1,1.74E1,5.3749126E-1,7.673828E-1,-3.1160527E-1,-2.4750988E-1,-1.8870436E-1,-1.3030858E-1,-8.5365154E-2,-2.7464038E-2,1.693167E-2,8.009897E-2,1.3211854E-1,1.956742E-1,2.6231816E-1,3.7487262E-1],"split_indices":[11,21,11,11,11,11,21,21,11,21,11,11,11,0,0,0,0,0,0,0,0,0,0,0,0,0,0],"split_type":[0,0,0,0,0,0,0,0,0,0,0,0,0,0,0,0,0,0,0,0,0,0,0,0,0,0,0],"sum_hessian":[7.71E2,5.69E2,2.02E2,3.39E2,2.3E2,1.27E2,7.5E1,1.67E2,1.72E2,1.27E2,1.03E2,7.2E1,5.5E1,5.3E1,2.2E1,7.6E1,9.1E1,1.19E2,5.3E1,7.7E1,5E1,4.6E1,5.7E1,2.4E1,4.8E1,2E1,3.5E1],"tree_param":{"num_deleted":"0","num_feature":"60","num_nodes":"27","size_leaf_vector":"1"}},{"base_weights":[2.2097778E-2,-2.4557195E0,8.249948E0,-4.072588E0,1.6663945E-1,5.73878E0,1.1989684E1,-5.1612434E0,-2.9330456E0,-8.028829E-1,1.5202917E0,4.203121E0,3.6844915E-1,4.819595E-1,6.9504756E-1,-2.8947762E-1,-2.2497515E-1,-1.7074345E-1,-1.15734115E-1,-6.540554E-2,-1.0308412E-2,4.150486E-2,1.0453218E-1,1.6100171E-1,2.3636007E-1],"categories":[],"categories_nodes":[],"categories_segments":[],"categories_sizes":[],"default_left":[0,0,0,0,0,0,0,0,0,0,0,0,0,0,0,0,0,0,0,0,0,0,0,0,0],"id":5,"left_children":[1,3,5,7,9,11,13,15,17,19,21,23,-1,-1,-1,-1,-1,-1,-1,-1,-1,-1,-1,-1,-1],"loss_changes":[1.6207624E4,2.5913247E3,1.6591562E3,4.5379688E2,3.0832132E2,2.4941211E2,1.9395312E2,5.3779297E1,4.781067E1,4.103263E1,3.6842636E1,1.5691284E1,0E0,0E0,0E0,0E0,0E0,0E0,0E0,0E0,0E0,0E0,0E0,0E0,0E0],"parents":[2147483647,0,0,1,1,2,2,3,3,4,4,5,5,6,6,7,7,8,8,9,9,10,10,11,11],"right_children":[2,4,6,8,10,12,14,16,18,20,22,24,-1,-1,-1,-1,-1,-1,-1,-1,-1,-1,-1,-1,-1],"split_conditions":[1.317E1,7.05E0,2.127E1,4.42E0,1.02E1,1.74E1,2.4271961E1,2.92E0,5.87E0,8.5E0,1.156E1,1.4482374E1,3.6844915E-1,4.819595E-1,6.9504756E-1,-2.8947762E-1,-2.2497515E-1,-1.7074345E-1,-1.15734115E-1,-6.540554E-2,-1.0308412E-2,4.150486E-2,1.0453218E-1,1.6100171E-1,2.3636007E-1],"split_indices":[11,11,11,11,11,11,20,11,11,11,11,20,0,0,0,0,0,0,0,0,0,0,0,0,0],"split_type":[0,0,0,0,0,0,0,0,0,0,0,0,0,0,0,0,0,0,0,0,0,0,0,0,0],"sum_hessian":[7.93E2,6.1E2,1.83E2,3.77E2,2.33E2,1.11E2,7.2E1,1.91E2,1.86E2,1.36E2,9.7E1,5.9E1,5.2E1,3.5E1,3.7E1,9.4E1,9.7E1,1.02E2,8.4E1,7.3E1,6.3E1,4.5E1,5.2E1,2.3E1,3.6E1],"tree_param":{"num_deleted":"0","num_feature":"60","num_nodes":"25","size_leaf_vector":"1"}},{"base_weights":[-3.3760514E-2,-2.3866887E0,7.3794103E0,-3.9523935E0,1.0688121E-1,4.8836565E0,1.100801E1,-4.99515E0,-2.9390013E0,-8.1506425E-1,1.350881E0,3.7259338E0,6.195326E0,4.840087E-1,6.9807434E-1,-2.8702107E-1,-2.230453E-1,-1.6918741E-1,-1.1564871E-1,-7.404687E-2,-2.0606916E-2,3.2164223E-2,9.287277E-2,7.6875046E-2,1.9055754E-1,2.326866E-1,3.3541936E-1],"categories":[],"categories_nodes":[],"categories_segments":[],"categories_sizes":[],"default_left":[0,0,0,0,0,0,0,0,0,0,0,0,0,0,0,0,0,0,0,0,0,0,0,0,0,0,0],"id":6,"left_children":[1,3,5,7,9,11,13,15,17,19,21,23,25,-1,-1,-1,-1,-1,-1,-1,-1,-1,-1,-1,-1,-1,-1],"loss_changes":[1.3465903E4,2.2882805E3,1.6306729E3,3.6573877E2,2.614473E2,1.4699438E2,1.5897949E2,4.446826E1,4.3681885E1,3.4536644E1,3.3574814E1,5.702759E0,9.118408E0,0E0,0E0,0E0,0E0,0E0,0E0,0E0,0E0,0E0,0E0,0E0,0E0,0E0,0E0],"parents":[2147483647,0,0,1,1,2,2,3,3,4,4,5,5,6,6,7,7,8,8,9,9,10,10,11,11,12,12],"right_children":[2,4,6,8,10,12,14,16,18,20,22,24,26,-1,-1,-1,-1,-1,-1,-1,-1,-1,-1,-1,-1,-1,-1],"split_conditions":[1.2947925E1,7.097874E0,2.0499954E1,4.170765E0,9.858797E0,1.6198505E1,2.6773447E1,2.5536559E0,5.731317E0,7.859232E0,1.098763E1,9.996813E-1,1.6828243E1,4.840087E-1,6.9807434E-1,-2.8702107E-1,-2.230453E-1,-1.6918741E-1,-1.1564871E-1,-7.404687E-2,-2.0606916E-2,3.2164223E-2,9.287277E-2,7.6875046E-2,1.9055754E-1,2.326866E-1,3.3541936E-1],"split_indices":[21,21,21,21,20,21,21,20,21,20,20,28,20,0,0,0,0,0,0,0,0,0,0,0,0,0,0],"split_type":[0,0,0,0,0,0,0,0,0,0,0,0,0,0,0,0,0,0,0,0,0,0,0,0,0,0,0],"sum_hessian":[7.7E2,5.85E2,1.85E2,3.59E2,2.26E2,1.11E2,7.4E1,1.75E2,1.84E2,1.3E2,9.6E1,6.1E1,5E1,5.4E1,2E1,6.9E1,1.06E2,1.05E2,7.9E1,4.8E1,8.2E1,4.1E1,5.5E1,3E0,5.8E1,1.5E1,3.5E1],"tree_param":{"num_deleted":"0","num_feature":"60","num_nodes":"27","size_leaf_vector":"1"}},{"base_weights":[5.1000956E-2,-2.341011E0,7.032503E0,-3.9370744E0,-2.6506874E-1,4.534673E0,1.0480257E1,-4.981658E0,-3.1296616E0,-1.2819197E0,7.8672147E-1,3.1831534E0,5.786427E0,4.1456762E-1,6.0478854E-1,-2.8418574E-1,-2.2828698E-1,-1.7855018E-1,-1.2756172E-1,-8.889293E-2,-3.6265478E-2,1.1946193E-2,7.1321614E-2,1.2341104E-1,1.7611086E-1,2.475965E-1,3.3275685E-1],"categories":[],"categories_nodes":[],"categories_segments":[],"categories_sizes":[],"default_left":[0,0,0,0,0,0,0,0,0,0,0,0,0,0,0,0,0,0,0,0,0,0,0,0,0,0,0],"id":7,"left_children":[1,3,5,7,9,11,13,15,17,19,21,23,25,-1,-1,-1,-1,-1,-1,-1,-1,-1,-1,-1,-1,-1,-1],"loss_changes":[1.2892038E4,1.9041245E3,1.6490195E3,2.5851758E2,2.6945648E2,1.7782617E2,1.8967871E2,1.4929199E1,3.8372437E1,3.4044205E1,4.311277E1,5.366089E0,9.815552E0,0E0,0E0,0E0,0E0,0E0,0E0,0E0,0E0,0E0,0E0,0E0,0E0,0E0,0E0],"parents":[2147483647,0,0,1,1,2,2,3,3,4,4,5,5,6,6,7,7,8,8,9,9,10,10,11,11,12,12],"right_children":[2,4,6,8,10,12,14,16,18,20,22,24,26,-1,-1,-1,-1,-1,-1,-1,-1,-1,-1,-1,-1,-1,-1],"split_conditions":[1.266E1,6.5011125E0,2.02E1,3.75E0,9.00486E0,1.604E1,2.362E1,2.08E0,5.11E0,7.7E0,1.068E1,1.366E1,1.9027153E1,4.1456762E-1,6.0478854E-1,-2.8418574E-1,-2.2828698E-1,-1.7855018E-1,-1.2756172E-1,-8.889293E-2,-3.6265478E-2,1.1946193E-2,7.1321614E-2,1.2341104E-1,1.7611086E-1,2.475965E-1,3.3275685E-1],"split_indices":[11,21,11,11,21,11,11,11,11,11,11,11,21,0,0,0,0,0,0,0,0,0,0,0,0,0,0],"split_type":[0,0,0,0,0,0,0,0,0,0,0,0,0,0,0,0,0,0,0,0,0,0,0,0,0,0,0],"sum_hessian":[7.7E2,5.74E2,1.96E2,3.24E2,2.5E2,1.15E2,8.1E1,1.39E2,1.85E2,1.27E2,1.23E2,5.7E1,5.8E1,3.7E1,4.4E1,4.7E1,9.2E1,1.02E2,8.3E1,6.6E1,6.1E1,6.7E1,5.6E1,2.1E1,3.6E1,3.3E1,2.5E1],"tree_param":{"num_deleted":"0","num_feature":"60","num_nodes":"27","size_leaf_vector":"1"}},{"base_weights":[-1.615548E-1,-2.4176688E0,6.112331E0,-3.8663697E0,-6.0012627E-1,3.5674567E0,9.138766E0,-4.881717E0,-3.239773E0,-1.3972532E0,6.0144764E-1,2.588525E0,4.4838014E0,3.7612882E-1,5.7443863E-1,-2.744722E-1,-2.2394693E-1,-1.8152149E-1,-1.3681208E-1,-8.772161E-2,-3.4511413E-2,1.093997E-2,5.9454124E-2,1.0521789E-1,1.4917167E-1,1.7430587E-1,2.4454515E-1],"categories":[],"categories_nodes":[],"categories_segments":[],"categories_sizes":[],"default_left":[0,0,0,0,0,0,0,0,0,0,0,0,0,0,0,0,0,0,0,0,0,0,0,0,0,0,0],"id":8,"left_children":[1,3,5,7,9,11,13,15,17,19,21,23,25,-1,-1,-1,-1,-1,-1,-1,-1,-1,-1,-1,-1,-1,-1],"loss_changes":[1.0970439E4,1.4985325E3,1.5462871E3,1.8586426E2,2.4412332E2,8.975903E1,2.6679443E2,4.541504E0,2.9211426E1,3.742682E1,2.2675285E1,4.6203003E0,6.10083E0,0E0,0E0,0E0,0E0,0E0,0E0,0E0,0E0,0E0,0E0,0E0,0E0,0E0,0E0],"parents":[2147483647,0,0,1,1,2,2,3,3,4,4,5,5,6,6,7,7,8,8,9,9,10,10,11,11,12,12],"right_children":[2,4,6,8,10,12,14,16,18,20,22,24,26,-1,-1,-1,-1,-1,-1,-1,-1,-1,-1,-1,-1,-1,-1],"split_conditions":[1.236E1,6.07E0,1.896E1,3.35E0,9.00486E0,1.4589628E1,2.362E1,1.98E0,4.77E0,7.81E0,1.076E1,1.352E1,1.604E1,3.7612882E-1,5.7443863E-1,-2.744722E-1,-2.2394693E-1,-1.8152149E-1,-1.3681208E-1,-8.772161E-2,-3.4511413E-2,1.093997E-2,5.9454124E-2,1.0521789E-1,1.4917167E-1,1.7430587E-1,2.4454515E-1],"split_indices":[11,11,11,11,21,21,11,11,11,11,11,11,11,0,0,0,0,0,0,0,0,0,0,0,0,0,0],"split_type":[0,0,0,0,0,0,0,0,0,0,0,0,0,0,0,0,0,0,0,0,0,0,0,0,0,0,0],"sum_hessian":[7.73E2,5.69E2,2.04E2,3.16E2,2.53E2,1.12E2,9.2E1,1.18E2,1.98E2,1.52E2,1.01E2,5.6E1,5.6E1,5.7E1,3.5E1,4.2E1,7.6E1,1.08E2,9E1,1E2,5.2E1,6.2E1,3.9E1,2.8E1,2.8E1,1.9E1,3.7E1],"tree_param":{"num_deleted":"0","num_feature":"60","num_nodes":"27","size_leaf_vector":"1"}},{"base_weights":[8.337442E-2,-2.133529E0,6.233786E0,-3.485446E0,-1.8643141E-1,3.7295327E0,9.067829E0,-4.3416233E0,-2.6921637E0,-9.4437283E-1,1.0283463E0,2.7487187E0,4.66037E0,3.6523587E-1,1.1030087E1,-2.4834643E-1,-1.9562398E-1,-1.5090176E-1,-1.1011026E-1,-7.010065E-2,-1.7520811E-2,3.4058157E-2,7.900717E-2,1.1572378E-1,1.5647034E-1,1.8225779E-1,2.5474617E-1,4.8198137E-1,6.6108906E-1],"categories":[],"categories_nodes":[],"categories_segments":[],"categories_sizes":[],"default_left":[0,0,0,0,0,0,0,0,0,0,0,0,0,0,0,0,0,0,0,0,0,0,0,0,0,0,0,0,0],"id":9,"left_children":[1,3,5,7,9,11,13,15,17,19,21,23,25,-1,27,-1,-1,-1,-1,-1,-1,-1,-1,-1,-1,-1,-1,-1,-1],"loss_changes":[1.0498515E4,1.4892397E3,1.4140015E3,2.1516162E2,2.1550134E2,8.761755E1,2.4809863E2,2.3233643E1,2.1454468E1,3.865056E1,1.6165375E1,2.0145264E0,5.6922607E0,0E0,3.5874023E0,0E0,0E0,0E0,0E0,0E0,0E0,0E0,0E0,0E0,0E0,0E0,0E0,0E0,0E0],"parents":[2147483647,0,0,1,1,2,2,3,3,4,4,5,5,6,6,7,7,8,8,9,9,10,10,11,11,12,12,14,14],"right_children":[2,4,6,8,10,12,14,16,18,20,22,24,26,-1,28,-1,-1,-1,-1,-1,-1,-1,-1,-1,-1,-1,-1,-1,-1],"split_conditions":[1.266E1,6.653888E0,1.927138E1,3.9303465E0,9.78E0,1.514E1,2.345307E1,2.38E0,5.4E0,8.09E0,1.156E1,1.41421385E1,1.6198505E1,3.6523587E-1,2.8355547E1,-2.4834643E-1,-1.9562398E-1,-1.5090176E-1,-1.1011026E-1,-7.010065E-2,-1.7520811E-2,3.4058157E-2,7.900717E-2,1.1572378E-1,1.5647034E-1,1.8225779E-1,2.5474617E-1,4.8198137E-1,6.6108906E-1],"split_indices":[11,20,20,20,11,11,21,11,11,11,11,20,21,0,21,0,0,0,0,0,0,0,0,0,0,0,0,0,0],"split_type":[0,0,0,0,0,0,0,0,0,0,0,0,0,0,0,0,0,0,0,0,0,0,0,0,0,0,0,0,0],"sum_hessian":[7.68E2,5.65E2,2.03E2,3.33E2,2.32E2,1.09E2,9.4E1,1.58E2,1.75E2,1.43E2,8.9E1,5.5E1,5.4E1,5.2E1,4.2E1,6E1,9.8E1,1.02E2,7.3E1,8E1,6.3E1,5.6E1,3.3E1,2.9E1,2.6E1,1.9E1,3.5E1,2.9E1,1.3E1],"tree_param":{"num_deleted":"0","num_feature":"60","num_nodes":"29","size_leaf_vector":"1"}},{"base_weights":[8.832147E-2,-1.8980321E0,6.360552E0,-3.368722E0,-8.8045254E-2,4.358475E0,9.509655E0,-4.2705297E0,-2.616055E0,-8.8639575E-1,1.0635234E0,3.5294085E0,3.0390346E-1,4.1589245E-1,6.229555E-1,-2.486841E-1,-1.9435571E-1,-1.517361E-1,-1.11508444E-1,-6.878668E-2,-1.7716302E-2,2.1035707E-2,7.733025E-2,1.4788646E-1,2.1062927E-1],"categories":[],"categories_nodes":[],"categories_segments":[],"categories_sizes":[],"default_left":[0,0,0,0,0,0,0,0,0,0,0,0,0,0,0,0,0,0,0,0,0,0,0,0,0],"id":10,"left_children":[1,3,5,7,9,11,13,15,17,19,21,23,-1,-1,-1,-1,-1,-1,-1,-1,-1,-1,-1,-1,-1],"loss_changes":[9.842119E3,1.5968613E3,1.1564541E3,2.134978E2,2.4916866E2,1.4677563E2,1.529751E2,2.0836914E1,2.279712E1,4.1170433E1,3.381807E1,1.956604E1,0E0,0E0,0E0,0E0,0E0,0E0,0E0,0E0,0E0,0E0,0E0,0E0,0E0],"parents":[2147483647,0,0,1,1,2,2,3,3,4,4,5,5,6,6,7,7,8,8,9,9,10,10,11,11],"right_children":[2,4,6,8,10,12,14,16,18,20,22,24,-1,-1,-1,-1,-1,-1,-1,-1,-1,-1,-1,-1,-1],"split_conditions":[1.332E1,6.5489135E0,2.127E1,3.8219345E0,9.662E0,1.8148464E1,2.7505957E1,1.98E0,4.9872375E0,7.891707E0,1.125E1,1.604E1,3.0390346E-1,4.1589245E-1,6.229555E-1,-2.486841E-1,-1.9435571E-1,-1.517361E-1,-1.11508444E-1,-6.878668E-2,-1.7716302E-2,2.1035707E-2,7.733025E-2,1.4788646E-1,2.1062927E-1],"split_indices":[11,20,11,20,20,20,21,11,20,20,11,11,0,0,0,0,0,0,0,0,0,0,0,0,0],"split_type":[0,0,0,0,0,0,0,0,0,0,0,0,0,0,0,0,0,0,0,0,0,0,0,0,0],"sum_hessian":[7.88E2,5.99E2,1.89E2,3.3E2,2.69E2,1.17E2,7.2E1,1.48E2,1.82E2,1.59E2,1.1E2,8.1E1,3.6E1,5.4E1,1.8E1,4.8E1,1E2,8.4E1,9.8E1,8.2E1,7.7E1,4.8E1,6.2E1,4.7E1,3.4E1],"tree_param":{"num_deleted":"0","num_feature":"60","num_nodes":"25","size_leaf_vector":"1"}},{"base_weights":[3.7626363E-2,-2.0384903E0,5.5703955E0,-3.2787433E0,-3.2970196E-1,3.8228996E0,8.910917E0,-4.158527E0,-2.6482623E0,-1.0086228E0,6.958745E-1,2.8560014E0,2.674242E-1,3.9637864E-1,5.994005E-1,-2.4047406E-1,-1.898648E-1,-1.524052E-1,-1.1166646E-1,-6.828002E-2,-1.8912265E-2,1.6639097E-2,5.29813E-2,1.1439522E-1,1.7732553E-1],"categories":[],"categories_nodes":[],"categories_segments":[],"categories_sizes":[],"default_left":[0,0,0,0,0,0,0,0,0,0,0,0,0,0,0,0,0,0,0,0,0,0,0,0,0],"id":11,"left_children":[1,3,5,7,9,11,13,15,17,19,21,23,-1,-1,-1,-1,-1,-1,-1,-1,-1,-1,-1,-1,-1],"loss_changes":[8.672308E3,1.1624309E3,1.1684692E3,1.6537769E2,1.6224002E2,1.8681128E2,1.1677344E2,1.25407715E1,2.43833E1,3.0987762E1,1.1930401E1,2.5621704E1,0E0,0E0,0E0,0E0,0E0,0E0,0E0,0E0,0E0,0E0,0E0,0E0,0E0],"parents":[2147483647,0,0,1,1,2,2,3,3,4,4,5,5,6,6,7,7,8,8,9,9,10,10,11,11],"right_children":[2,4,6,8,10,12,14,16,18,20,22,24,-1,-1,-1,-1,-1,-1,-1,-1,-1,-1,-1,-1,-1],"split_conditions":[1.236E1,6.354913E0,2.1266861E1,3.51E0,9.15E0,1.74E1,2.8355547E1,1.85E0,4.91E0,7.89E0,1.0764058E1,1.4589628E1,2.674242E-1,3.9637864E-1,5.994005E-1,-2.4047406E-1,-1.898648E-1,-1.524052E-1,-1.1166646E-1,-6.828002E-2,-1.8912265E-2,1.6639097E-2,5.29813E-2,1.1439522E-1,1.7732553E-1],"split_indices":[11,20,21,11,11,11,21,11,11,11,20,21,0,0,0,0,0,0,0,0,0,0,0,0,0],"split_type":[0,0,0,0,0,0,0,0,0,0,0,0,0,0,0,0,0,0,0,0,0,0,0,0,0],"sum_hessian":[7.53E2,5.48E2,2.05E2,3.17E2,2.31E2,1.36E2,6.9E1,1.3E2,1.87E2,1.39E2,9.2E1,8.5E1,5.1E1,5.5E1,1.4E1,4.2E1,8.8E1,9.2E1,9.5E1,8.8E1,5.1E1,4.7E1,4.5E1,4.9E1,3.6E1],"tree_param":{"num_deleted":"0","num_feature":"60","num_nodes":"25","size_leaf_vector":"1"}},{"base_weights":[-1.703167E-2,-1.8154769E0,5.633962E0,-3.0937726E0,-1.9136237E-1,3.845081E0,8.578072E0,-3.8989828E0,-2.5279317E0,-9.458744E-1,7.79445E-1,2.9059927E0,2.5508425E-1,3.7796238E-1,5.803914E-1,-2.2175825E-1,-1.773008E-1,-1.4249584E-1,-1.03585996E-1,-6.206576E-2,-1.8544605E-2,2.3969693E-2,7.7604905E-2,1.1789506E-1,1.7011878E-1],"categories":[],"categories_nodes":[],"categories_segments":[],"categories_sizes":[],"default_left":[0,0,0,0,0,0,0,0,0,0,0,0,0,0,0,0,0,0,0,0,0,0,0,0,0],"id":12,"left_children":[1,3,5,7,9,11,13,15,17,19,21,23,-1,-1,-1,-1,-1,-1,-1,-1,-1,-1,-1,-1,-1],"loss_changes":[7.9983486E3,1.238839E3,9.676826E2,1.423208E2,1.9411351E2,1.2678198E2,1.3141553E2,1.0011475E1,2.3327515E1,2.4850723E1,2.6148834E1,1.1294006E1,0E0,0E0,0E0,0E0,0E0,0E0,0E0,0E0,0E0,0E0,0E0,0E0,0E0],"parents":[2147483647,0,0,1,1,2,2,3,3,4,4,5,5,6,6,7,7,8,8,9,9,10,10,11,11],"right_children":[2,4,6,8,10,12,14,16,18,20,22,24,-1,-1,-1,-1,-1,-1,-1,-1,-1,-1,-1,-1,-1],"split_conditions":[1.2947925E1,6.446983E0,2.1266861E1,3.5893545E0,9.37024E0,1.6995327E1,2.7261196E1,2.111564E0,4.942485E0,8.282477E0,1.1719041E1,1.4897314E1,2.5508425E-1,3.7796238E-1,5.803914E-1,-2.2175825E-1,-1.773008E-1,-1.4249584E-1,-1.03585996E-1,-6.206576E-2,-1.8544605E-2,2.3969693E-2,7.7604905E-2,1.1789506E-1,1.7011878E-1],"split_indices":[21,21,21,21,20,20,20,20,20,21,20,21,0,0,0,0,0,0,0,0,0,0,0,0,0],"split_type":[0,0,0,0,0,0,0,0,0,0,0,0,0,0,0,0,0,0,0,0,0,0,0,0,0],"sum_hessian":[7.85E2,5.96E2,1.89E2,3.33E2,2.63E2,1.19E2,7E1,1.35E2,1.98E2,1.48E2,1.15E2,7E1,4.9E1,5.5E1,1.5E1,4.9E1,8.6E1,1.13E2,8.5E1,9.7E1,5.1E1,8.4E1,3.1E1,3.6E1,3.4E1],"tree_param":{"num_deleted":"0","num_feature":"60","num_nodes":"25","size_leaf_vector":"1"}},{"base_weights":[-4.1388854E-2,-1.8357874E0,4.7041836E0,-3.031054E0,-4.1390643E-1,3.064013E0,7.6375065E0,-3.866203E0,-2.5350301E0,-1.1117276E0,3.8622203E-1,2.2231002E0,4.2052393E0,3.0608234E-1,4.597507E-1,-2.1534275E-1,-1.7621097E-1,-1.3994725E-1,-1.0412426E-1,-6.951841E-2,-3.2884967E-2,4.8490562E-3,4.7058728E-2,8.697002E-2,1.3050525E-1,1.7991617E-1,2.4190795E-1],"categories":[],"categories_nodes":[],"categories_segments":[],"categories_sizes":[],"default_left":[0,0,0,0,0,0,0,0,0,0,0,0,0,0,0,0,0,0,0,0,0,0,0,0,0,0,0],"id":13,"left_children":[1,3,5,7,9,11,13,15,17,19,21,23,25,-1,-1,-1,-1,-1,-1,-1,-1,-1,-1,-1,-1,-1,-1],"loss_changes":[6.548501E3,9.4708154E2,9.91751E2,1.1571802E2,1.4336612E2,1.22126465E2,1.2078369E2,1.5490723E0,1.7221924E1,1.6417511E1,1.9170519E1,1.0622711E1,4.486145E0,0E0,0E0,0E0,0E0,0E0,0E0,0E0,0E0,0E0,0E0,0E0,0E0,0E0,0E0],"parents":[2147483647,0,0,1,1,2,2,3,3,4,4,5,5,6,6,7,7,8,8,9,9,10,10,11,11,12,12],"right_children":[2,4,6,8,10,12,14,16,18,20,22,24,26,-1,-1,-1,-1,-1,-1,-1,-1,-1,-1,-1,-1,-1,-1],"split_conditions":[1.225E1,6.09E0,1.986E1,3.18E0,8.839891E0,1.604E1,2.4271961E1,1.8932431E0,4.7599587E0,7.453736E0,1.068E1,1.366E1,1.8148464E1,3.0608234E-1,4.597507E-1,-2.1534275E-1,-1.7621097E-1,-1.3994725E-1,-1.0412426E-1,-6.951841E-2,-3.2884967E-2,4.8490562E-3,4.7058728E-2,8.697002E-2,1.3050525E-1,1.7991617E-1,2.4190795E-1],"split_indices":[11,11,11,11,21,11,20,21,21,20,11,11,20,0,0,0,0,0,0,0,0,0,0,0,0,0,0],"split_type":[0,0,0,0,0,0,0,0,0,0,0,0,0,0,0,0,0,0,0,0,0,0,0,0,0,0,0],"sum_hessian":[7.67E2,5.57E2,2.1E2,3.02E2,2.55E2,1.36E2,7.4E1,1.1E2,1.92E2,1.36E2,1.19E2,8E1,5.6E1,4E1,3.4E1,4.3E1,6.7E1,1.18E2,7.4E1,8.3E1,5.3E1,7.9E1,4E1,3.8E1,4.2E1,3.2E1,2.4E1],"tree_param":{"num_deleted":"0","num_feature":"60","num_nodes":"27","size_leaf_vector":"1"}},{"base_weights":[-1.0937928E-2,-1.7177261E0,4.6911497E0,-2.8631008E0,-4.5054984E-1,2.882744E0,7.292768E0,-3.5819557E0,-2.3426213E0,-1.0713046E0,3.974109E-1,2.0749812E0,3.7382932E0,6.5529866E0,5.561863E-1,-2.0499225E-1,-1.6446072E-1,-1.3354704E-1,-1.0240199E-1,-6.700163E-2,-3.2329943E-2,-3.283886E-3,3.8011257E-2,7.787529E-2,1.169953E-1,1.636481E-1,2.2011538E-1,2.761681E-1,3.7145922E-1],"categories":[],"categories_nodes":[],"categories_segments":[],"categories_sizes":[],"default_left":[0,0,0,0,0,0,0,0,0,0,0,0,0,0,0,0,0,0,0,0,0,0,0,0,0,0,0,0,0],"id":14,"left_children":[1,3,5,7,9,11,13,15,17,19,21,23,25,27,-1,-1,-1,-1,-1,-1,-1,-1,-1,-1,-1,-1,-1,-1,-1],"loss_changes":[6.147541E3,8.143921E2,9.3875195E2,1.01982666E2,1.414944E2,7.655487E1,1.6233447E2,5.0109863E0,1.1358459E1,1.6823746E1,1.9203651E1,5.266571E0,3.5126343E0,2.3920898E1,0E0,0E0,0E0,0E0,0E0,0E0,0E0,0E0,0E0,0E0,0E0,0E0,0E0,0E0,0E0],"parents":[2147483647,0,0,1,1,2,2,3,3,4,4,5,5,6,6,7,7,8,8,9,9,10,10,11,11,12,12,13,13],"right_children":[2,4,6,8,10,12,14,16,18,20,22,24,26,28,-1,-1,-1,-1,-1,-1,-1,-1,-1,-1,-1,-1,-1,-1,-1],"split_conditions":[1.236E1,6.07E0,1.927138E1,3.468689E0,8.71E0,1.514E1,2.8355547E1,1.85E0,4.530569E0,7.453736E0,1.023E1,1.3087393E1,1.83E1,2.2748512E1,5.561863E-1,-2.0499225E-1,-1.6446072E-1,-1.3354704E-1,-1.0240199E-1,-6.700163E-2,-3.2329943E-2,-3.283886E-3,3.8011257E-2,7.787529E-2,1.169953E-1,1.636481E-1,2.2011538E-1,2.761681E-1,3.7145922E-1],"split_indices":[11,11,20,20,11,11,21,11,20,20,11,20,11,20,0,0,0,0,0,0,0,0,0,0,0,0,0,0,0],"split_type":[0,0,0,0,0,0,0,0,0,0,0,0,0,0,0,0,0,0,0,0,0,0,0,0,0,0,0,0,0],"sum_hessian":[7.64E2,5.61E2,2.03E2,2.94E2,2.67E2,1.21E2,8.2E1,1.21E2,1.73E2,1.54E2,1.13E2,6.4E1,5.7E1,7.1E1,1.1E1,3.9E1,8.2E1,7.8E1,9.5E1,9.3E1,6.1E1,5E1,6.3E1,2.4E1,4E1,3.7E1,2E1,3.6E1,3.5E1],"tree_param":{"num_deleted":"0","num_feature":"60","num_nodes":"29","size_leaf_vector":"1"}},{"base_weights":[2.8527837E-2,-1.465281E0,4.916444E0,-2.4912395E0,1.1296988E-1,3.2831147E0,7.3777084E0,-3.1651738E0,-1.8546379E0,-4.7796717E-1,9.3189305E-1,2.713739E0,2.3232825E-1,3.0679658E-1,4.4822797E-1,-1.7949921E-1,-1.3915323E-1,-1.0660986E-1,-7.214946E-2,-5.2337285E-2,-1.274101E-2,2.739934E-2,7.3742874E-2,1.13692515E-1,1.6356713E-1],"categories":[],"categories_nodes":[],"categories_segments":[],"categories_sizes":[],"default_left":[0,0,0,0,0,0,0,0,0,0,0,0,0,0,0,0,0,0,0,0,0,0,0,0,0],"id":15,"left_children":[1,3,5,7,9,11,13,15,17,19,21,23,-1,-1,-1,-1,-1,-1,-1,-1,-1,-1,-1,-1,-1],"loss_changes":[5.614843E3,9.540022E2,6.993882E2,1.4729248E2,1.13201584E2,7.278516E1,8.4900635E1,1.7928589E1,1.8175049E1,1.699455E1,1.9619644E1,1.2184143E1,0E0,0E0,0E0,0E0,0E0,0E0,0E0,0E0,0E0,0E0,0E0,0E0,0E0],"parents":[2147483647,0,0,1,1,2,2,3,3,4,4,5,5,6,6,7,7,8,8,9,9,10,10,11,11],"right_children":[2,4,6,8,10,12,14,16,18,20,22,24,-1,-1,-1,-1,-1,-1,-1,-1,-1,-1,-1,-1,-1],"split_conditions":[1.332E1,6.84E0,2.127E1,4.26E0,1.02E1,1.8148464E1,2.587E1,2.8179958E0,5.63E0,7.453736E0,1.1719041E1,1.604E1,2.3232825E-1,3.0679658E-1,4.4822797E-1,-1.7949921E-1,-1.3915323E-1,-1.0660986E-1,-7.214946E-2,-5.2337285E-2,-1.274101E-2,2.739934E-2,7.3742874E-2,1.13692515E-1,1.6356713E-1],"split_indices":[11,11,11,11,11,20,11,20,11,20,20,11,0,0,0,0,0,0,0,0,0,0,0,0,0],"split_type":[0,0,0,0,0,0,0,0,0,0,0,0,0,0,0,0,0,0,0,0,0,0,0,0,0],"sum_hessian":[7.67E2,5.88E2,1.79E2,3.56E2,2.32E2,1.09E2,7E1,1.71E2,1.85E2,1.35E2,9.7E1,7.9E1,3E1,4.2E1,2.8E1,7.7E1,9.4E1,1.08E2,7.7E1,3.7E1,9.8E1,5.8E1,3.9E1,4.7E1,3.2E1],"tree_param":{"num_deleted":"0","num_feature":"60","num_nodes":"25","size_leaf_vector":"1"}},{"base_weights":[-9.469156E-2,-1.5251714E0,4.258123E0,-2.577328E0,-2.43695E-1,3.1428049E0,7.357846E0,-3.3353674E0,-2.1464033E0,-7.805552E-1,6.177182E-1,2.3215432E0,4.3698173E0,3.1642818E-1,4.7395054E-1,-1.9224809E-1,-1.5369143E-1,-1.2169167E-1,-8.8657886E-2,-5.7770867E-2,-2.1381961E-2,1.5663872E-2,5.069969E-2,8.851012E-2,1.4417489E-1,2.2026427E-1,6.136365E-2],"categories":[],"categories_nodes":[],"categories_segments":[],"categories_sizes":[],"default_left":[0,0,0,0,0,0,0,0,0,0,0,0,0,0,0,0,0,0,0,0,0,0,0,0,0,0,0],"id":16,"left_children":[1,3,5,7,9,11,13,15,17,19,21,23,25,-1,-1,-1,-1,-1,-1,-1,-1,-1,-1,-1,-1,-1,-1],"loss_changes":[4.7324937E3,7.7060754E2,6.2682495E2,9.541162E1,1.20258896E2,1.3093298E2,4.6992188E1,3.1083984E0,1.7462708E1,2.067308E1,1.1746586E1,2.1540894E1,7.2387695E-1,0E0,0E0,0E0,0E0,0E0,0E0,0E0,0E0,0E0,0E0,0E0,0E0,0E0,0E0],"parents":[2147483647,0,0,1,1,2,2,3,3,4,4,5,5,6,6,7,7,8,8,9,9,10,10,11,11,12,12],"right_children":[2,4,6,8,10,12,14,16,18,20,22,24,26,-1,-1,-1,-1,-1,-1,-1,-1,-1,-1,-1,-1,-1,-1],"split_conditions":[1.266E1,6.2585225E0,2.257E1,3.18E0,9.37024E0,1.6995327E1,2.658869E1,1.6476903E0,4.82E0,7.6304154E0,1.125E1,1.4257872E1,1.71E0,3.1642818E-1,4.7395054E-1,-1.9224809E-1,-1.5369143E-1,-1.2169167E-1,-8.8657886E-2,-5.7770867E-2,-2.1381961E-2,1.5663872E-2,5.069969E-2,8.851012E-2,1.4417489E-1,2.2026427E-1,6.136365E-2],"split_indices":[11,20,11,11,20,20,20,21,11,21,11,21,15,0,0,0,0,0,0,0,0,0,0,0,0,0,0],"split_type":[0,0,0,0,0,0,0,0,0,0,0,0,0,0,0,0,0,0,0,0,0,0,0,0,0,0,0],"sum_hessian":[7.58E2,5.71E2,1.87E2,3.13E2,2.58E2,1.39E2,4.8E1,1.11E2,2.02E2,1.59E2,9.9E1,8.5E1,5.4E1,3.5E1,1.3E1,3.3E1,7.8E1,1.11E2,9.1E1,7.6E1,8.3E1,5.7E1,4.2E1,4.5E1,4E1,5.3E1,1E0],"tree_param":{"num_deleted":"0","num_feature":"60","num_nodes":"27","size_leaf_vector":"1"}},{"base_weights":[6.172992E-2,-1.4092466E0,4.27274E0,-2.2908895E0,3.25408E-2,2.7889376E0,6.5984135E0,-2.9121225E0,-1.7080587E0,-4.9307233E-1,6.650899E-1,2.0969803E0,3.812018E0,5.8137126E0,4.829126E-1,-1.6230062E-1,-1.2655394E-1,-9.7220935E-2,-6.539117E-2,-3.7518054E-2,-6.407622E-3,2.1526162E-2,5.4698236E-2,8.57692E-2,1.1939962E-1,9.290387E-2,1.9504951E-1,2.14588E-1,3.0617926E-1],"categories":[],"categories_nodes":[],"categories_segments":[],"categories_sizes":[],"default_left":[0,0,0,0,0,0,0,0,0,0,0,0,0,0,0,0,0,0,0,0,0,0,0,0,0,0,0,0,0],"id":17,"left_children":[1,3,5,7,9,11,13,15,17,19,21,23,25,27,-1,-1,-1,-1,-1,-1,-1,-1,-1,-1,-1,-1,-1,-1,-1],"loss_changes":[4.713687E3,7.169984E2,6.614131E2,1.2175183E2,7.18103E1,7.8373474E1,1.2633008E2,1.3158081E1,1.4768799E1,1.0982832E1,9.387798E0,4.2323914E0,1.0963135E0,3.43042E0,0E0,0E0,0E0,0E0,0E0,0E0,0E0,0E0,0E0,0E0,0E0,0E0,0E0,0E0,0E0],"parents":[2147483647,0,0,1,1,2,2,3,3,4,4,5,5,6,6,7,7,8,8,9,9,10,10,11,11,12,12,13,13],"right_children":[2,4,6,8,10,12,14,16,18,20,22,24,26,28,-1,-1,-1,-1,-1,-1,-1,-1,-1,-1,-1,-1,-1,-1,-1],"split_conditions":[1.266E1,6.78E0,2.034E1,4.0186825E0,9.78E0,1.658E1,2.772E1,2.8179958E0,5.84E0,8.440363E0,1.1350685E1,1.422E1,1.3591406E1,4.6333E0,4.829126E-1,-1.6230062E-1,-1.2655394E-1,-9.7220935E-2,-6.539117E-2,-3.7518054E-2,-6.407622E-3,2.1526162E-2,5.4698236E-2,8.57692E-2,1.1939962E-1,9.290387E-2,1.9504951E-1,2.14588E-1,3.0617926E-1],"split_indices":[11,11,11,20,11,11,11,20,11,20,20,11,26,54,0,0,0,0,0,0,0,0,0,0,0,0,0,0,0],"split_type":[0,0,0,0,0,0,0,0,0,0,0,0,0,0,0,0,0,0,0,0,0,0,0,0,0,0,0,0,0],"sum_hessian":[7.59E2,5.63E2,1.96E2,3.49E2,2.14E2,1.21E2,7.5E1,1.67E2,1.82E2,1.17E2,9.7E1,7.4E1,4.7E1,6.2E1,1.3E1,8.5E1,8.2E1,1.12E2,7E1,6.8E1,4.9E1,6.4E1,3.3E1,3.5E1,3.9E1,3E0,4.4E1,1.3E1,4.9E1],"tree_param":{"num_deleted":"0","num_feature":"60","num_nodes":"29","size_leaf_vector":"1"}},{"base_weights":[7.531917E-2,-1.2786572E0,4.2140274E0,-2.135028E0,8.0665186E-2,2.9951317E0,6.5140977E0,-2.7095113E0,-1.5325698E0,-4.5496184E-1,6.956321E-1,2.275389E0,3.9393091E0,2.8318518E-1,4.513929E-1,-1.545619E-1,-1.1789741E-1,-8.8021144E-2,-6.2390953E-2,-4.4747695E-2,-1.200128E-2,1.835665E-2,5.2456915E-2,7.757283E-2,1.2304135E-1,7.4655324E-2,2.0023401E-1],"categories":[],"categories_nodes":[],"categories_segments":[],"categories_sizes":[],"default_left":[0,0,0,0,0,0,0,0,0,0,0,0,0,0,0,0,0,0,0,0,0,0,0,0,0,0,0],"id":18,"left_children":[1,3,5,7,9,11,13,15,17,19,21,23,25,-1,-1,-1,-1,-1,-1,-1,-1,-1,-1,-1,-1,-1,-1],"loss_changes":[4.387492E3,6.869817E2,5.21574E2,1.21136475E2,7.574745E1,7.8020874E1,8.99563E1,1.740393E1,9.417053E0,1.1417326E1,1.2040363E1,6.2504883E0,2.6558228E0,0E0,0E0,0E0,0E0,0E0,0E0,0E0,0E0,0E0,0E0,0E0,0E0,0E0,0E0],"parents":[2147483647,0,0,1,1,2,2,3,3,4,4,5,5,6,6,7,7,8,8,9,9,10,10,11,11,12,12],"right_children":[2,4,6,8,10,12,14,16,18,20,22,24,26,-1,-1,-1,-1,-1,-1,-1,-1,-1,-1,-1,-1,-1,-1],"split_conditions":[1.332E1,6.84E0,2.1576277E1,4.42E0,9.78E0,1.782E1,2.755E1,2.87E0,5.84E0,7.453736E0,1.1299398E1,1.36056185E1,1.3591406E1,2.8318518E-1,4.513929E-1,-1.545619E-1,-1.1789741E-1,-8.8021144E-2,-6.2390953E-2,-4.4747695E-2,-1.200128E-2,1.835665E-2,5.2456915E-2,7.757283E-2,1.2304135E-1,7.4655324E-2,2.0023401E-1],"split_indices":[11,11,21,11,11,11,11,11,11,20,20,21,26,0,0,0,0,0,0,0,0,0,0,0,0,0,0],"split_type":[0,0,0,0,0,0,0,0,0,0,0,0,0,0,0,0,0,0,0,0,0,0,0,0,0,0,0],"sum_hessian":[7.81E2,5.89E2,1.92E2,3.61E2,2.28E2,1.27E2,6.5E1,1.83E2,1.78E2,1.22E2,1.06E2,7.4E1,5.3E1,5.1E1,1.4E1,8.4E1,9.9E1,9.6E1,8.2E1,3.9E1,8.3E1,5.6E1,5E1,1.7E1,5.7E1,2E0,5.1E1],"tree_param":{"num_deleted":"0","num_feature":"60","num_nodes":"27","size_leaf_vector":"1"}},{"base_weights":[7.8259625E-2,-1.2590708E0,3.8939838E0,-2.1663685E0,-1.2355282E-1,2.564216E0,6.0875926E0,-2.7643602E0,-1.7231921E0,-7.4790657E-1,4.1448355E-1,1.9286379E0,3.47901E0,5.311489E0,4.3930826E-1,-1.6317032E-1,-1.2599961E-1,-1.00767694E-1,-7.2747E-2,-4.51078E-2,-1.3525571E-2,5.4423367E-3,4.245819E-2,7.281584E-2,1.0869092E-1,1.0633447E-1,1.8248488E-1,1.8633889E-1,2.776948E-1],"categories":[],"categories_nodes":[],"categories_segments":[],"categories_sizes":[],"default_left":[0,0,0,0,0,0,0,0,0,0,0,0,0,0,0,0,0,0,0,0,0,0,0,0,0,0,0,0,0],"id":19,"left_children":[1,3,5,7,9,11,13,15,17,19,21,23,25,27,-1,-1,-1,-1,-1,-1,-1,-1,-1,-1,-1,-1,-1,-1,-1],"loss_changes":[3.8933005E3,5.8182513E2,5.619541E2,7.8451294E1,8.49631E1,6.596808E1,1.08315674E2,7.8737793E0,1.1410034E1,8.37159E0,1.7975756E1,5.6353455E0,3.779419E0,2.350586E0,0E0,0E0,0E0,0E0,0E0,0E0,0E0,0E0,0E0,0E0,0E0,0E0,0E0,0E0,0E0],"parents":[2147483647,0,0,1,1,2,2,3,3,4,4,5,5,6,6,7,7,8,8,9,9,10,10,11,11,12,12,13,13],"right_children":[2,4,6,8,10,12,14,16,18,20,22,24,26,28,-1,-1,-1,-1,-1,-1,-1,-1,-1,-1,-1,-1,-1,-1,-1],"split_conditions":[1.2585822E1,6.5011125E0,2.0427885E1,3.5400753E0,8.793219E0,1.6828243E1,2.7261196E1,1.8932431E0,4.747584E0,8.282477E0,1.0764058E1,1.4066758E1,1.451869E1,4.6333E0,4.3930826E-1,-1.6317032E-1,-1.2599961E-1,-1.00767694E-1,-7.2747E-2,-4.51078E-2,-1.3525571E-2,5.4423367E-3,4.245819E-2,7.281584E-2,1.0869092E-1,1.0633447E-1,1.8248488E-1,1.8633889E-1,2.776948E-1],"split_indices":[21,21,20,20,20,20,20,21,21,21,20,20,26,54,0,0,0,0,0,0,0,0,0,0,0,0,0,0,0],"split_type":[0,0,0,0,0,0,0,0,0,0,0,0,0,0,0,0,0,0,0,0,0,0,0,0,0,0,0,0,0],"sum_hessian":[7.61E2,5.64E2,1.97E2,3.13E2,2.51E2,1.24E2,7.3E1,1.31E2,1.82E2,1.16E2,1.35E2,7.5E1,4.9E1,5.9E1,1.4E1,3.9E1,9.2E1,8.4E1,9.8E1,8.7E1,2.9E1,8E1,5.5E1,2.8E1,4.7E1,7E0,4.2E1,1E1,4.9E1],"tree_param":{"num_deleted":"0","num_feature":"60","num_nodes":"29","size_leaf_vector":"1"}},{"base_weights":[-2.7372492E-2,-1.1884909E0,3.8051023E0,-1.9928776E0,-3.3671036E-2,2.759205E0,6.3184505E0,-2.5604334E0,-1.537382E0,-5.1356775E-1,6.185818E-1,2.1050532E0,3.8109477E0,2.5174928E-1,3.6422905E-1,-1.5609293E-1,-1.15709916E-1,-8.631684E-2,-6.1923444E-2,-3.6269013E-2,-5.6549194E-3,1.5450549E-2,4.6705835E-2,7.656308E-2,1.1629881E-1,1.922826E-1,5.3628754E-2],"categories":[],"categories_nodes":[],"categories_segments":[],"categories_sizes":[],"default_left":[0,0,0,0,0,0,0,0,0,0,0,0,0,0,0,0,0,0,0,0,0,0,0,0,0,0,0],"id":20,"left_children":[1,3,5,7,9,11,13,15,17,19,21,23,25,-1,-1,-1,-1,-1,-1,-1,-1,-1,-1,-1,-1,-1,-1],"loss_changes":[3.502189E3,5.6100165E2,4.636189E2,8.809668E1,7.825816E1,8.210559E1,2.9041748E1,1.447937E1,9.158173E0,1.2132679E1,1.0065468E1,6.959717E0,5.3186035E-1,0E0,0E0,0E0,0E0,0E0,0E0,0E0,0E0,0E0,0E0,0E0,0E0,0E0,0E0],"parents":[2147483647,0,0,1,1,2,2,3,3,4,4,5,5,6,6,7,7,8,8,9,9,10,10,11,11,12,12],"right_children":[2,4,6,8,10,12,14,16,18,20,22,24,26,-1,-1,-1,-1,-1,-1,-1,-1,-1,-1,-1,-1,-1,-1],"split_conditions":[1.332E1,6.62E0,2.257E1,3.91E0,9.78E0,1.83E1,2.587E1,1.85E0,5.4626083E0,8.59674E0,1.156E1,1.431E1,3.85E0,2.5174928E-1,3.6422905E-1,-1.5609293E-1,-1.15709916E-1,-8.631684E-2,-6.1923444E-2,-3.6269013E-2,-5.6549194E-3,1.5450549E-2,4.6705835E-2,7.656308E-2,1.1629881E-1,1.922826E-1,5.3628754E-2],"split_indices":[11,11,11,11,11,11,11,11,20,20,11,11,14,0,0,0,0,0,0,0,0,0,0,0,0,0,0],"split_type":[0,0,0,0,0,0,0,0,0,0,0,0,0,0,0,0,0,0,0,0,0,0,0,0,0,0,0],"sum_hessian":[7.85E2,6.03E2,1.82E2,3.55E2,2.48E2,1.3E2,5.2E1,1.56E2,1.99E2,1.43E2,1.05E2,8.2E1,4.8E1,2.5E1,2.7E1,4.4E1,1.12E2,1.19E2,8E1,9.3E1,5E1,5.4E1,5.1E1,2.5E1,5.7E1,4.7E1,1E0],"tree_param":{"num_deleted":"0","num_feature":"60","num_nodes":"27","size_leaf_vector":"1"}},{"base_weights":[1.2351548E-3,-1.1459045E0,3.4077098E0,-1.8575354E0,1.1492478E-1,2.1454113E0,5.115621E0,-2.3698738E0,-1.348903E0,-3.4812912E-1,6.272724E-1,1.695942E0,2.832147E0,2.1026687E-1,6.3674035E0,-1.4219777E-1,-1.0682704E-1,-7.733303E-2,-5.1252622E-2,-2.6229883E-2,-2.1825265E-4,2.3947624E-2,6.020103E-2,6.0661282E-2,9.230501E-2,4.340997E-2,1.4524984E-1,3.2286873E-1,8.720832E-2],"categories":[],"categories_nodes":[],"categories_segments":[],"categories_sizes":[],"default_left":[0,0,0,0,0,0,0,0,0,0,0,0,0,0,0,0,0,0,0,0,0,0,0,0,0,0,0,0,0],"id":21,"left_children":[1,3,5,7,9,11,13,15,17,19,21,23,25,-1,27,-1,-1,-1,-1,-1,-1,-1,-1,-1,-1,-1,-1,-1,-1],"loss_changes":[3.0558203E3,5.2510175E2,4.1373608E2,9.426465E1,5.051422E1,3.0693542E1,6.779956E1,1.4388184E1,1.0582916E1,6.7920256E0,8.063202E0,2.9790955E0,3.7731018E0,0E0,2.463745E0,0E0,0E0,0E0,0E0,0E0,0E0,0E0,0E0,0E0,0E0,0E0,0E0,0E0,0E0],"parents":[2147483647,0,0,1,1,2,2,3,3,4,4,5,5,6,6,7,7,8,8,9,9,10,10,11,11,12,12,14,14],"right_children":[2,4,6,8,10,12,14,16,18,20,22,24,26,-1,28,-1,-1,-1,-1,-1,-1,-1,-1,-1,-1,-1,-1,-1,-1],"split_conditions":[1.3004261E1,7.218145E0,1.9604542E1,4.1814427E0,9.662E0,1.6404247E1,2.4648956E1,2.1090007E0,5.870004E0,8.844749E0,3.3256E0,2.8182E0,1.61E0,2.1026687E-1,2.056338E0,-1.4219777E-1,-1.0682704E-1,-7.733303E-2,-5.1252622E-2,-2.6229883E-2,-2.1825265E-4,2.3947624E-2,6.020103E-2,6.0661282E-2,9.230501E-2,4.340997E-2,1.4524984E-1,3.2286873E-1,8.720832E-2],"split_indices":[20,20,20,20,20,20,20,26,20,26,54,54,30,0,5,0,0,0,0,0,0,0,0,0,0,0,0,0,0],"split_type":[0,0,0,0,0,0,0,0,0,0,0,0,0,0,0,0,0,0,0,0,0,0,0,0,0,0,0,0,0],"sum_hessian":[7.8E2,5.84E2,1.96E2,3.73E2,2.11E2,1.14E2,8.2E1,1.84E2,1.89E2,1.11E2,1E2,7.1E1,4.3E1,5E1,3.2E1,5.7E1,1.27E2,1.15E2,7.4E1,7.3E1,3.8E1,8.1E1,1.9E1,1.9E1,5.2E1,2E0,4.1E1,3.1E1,1E0],"tree_param":{"num_deleted":"0","num_feature":"60","num_nodes":"29","size_leaf_vector":"1"}},{"base_weights":[6.29128E-3,-1.0569149E0,3.4869199E0,-1.8086826E0,1.1665303E-2,2.601031E0,5.9917493E0,-2.2899842E0,-1.3971237E0,-4.3304598E-1,5.80953E-1,1.6839175E0,3.278777E0,2.597827E-1,4.3436462E-1,-1.3018729E-1,-1.0200017E-1,-7.91883E-2,-5.5061646E-2,-3.107439E-2,-1.6988183E-3,1.5487715E-2,4.6692614E-2,2.8512701E-2,8.564945E-2,1.2578581E-1,1.781225E-1],"categories":[],"categories_nodes":[],"categories_segments":[],"categories_sizes":[],"default_left":[0,0,0,0,0,0,0,0,0,0,0,0,0,0,0,0,0,0,0,0,0,0,0,0,0,0,0],"id":22,"left_children":[1,3,5,7,9,11,13,15,17,19,21,23,25,-1,-1,-1,-1,-1,-1,-1,-1,-1,-1,-1,-1,-1,-1],"loss_changes":[2.8309634E3,4.7076892E2,3.816162E2,6.494153E1,6.1771564E1,7.7769165E1,5.3575684E1,7.0025635E0,8.638336E0,1.0281479E1,9.95126E0,9.333191E-1,7.4888916E0,0E0,0E0,0E0,0E0,0E0,0E0,0E0,0E0,0E0,0E0,0E0,0E0,0E0,0E0],"parents":[2147483647,0,0,1,1,2,2,3,3,4,4,5,5,6,6,7,7,8,8,9,9,10,10,11,11,12,12],"right_children":[2,4,6,8,10,12,14,16,18,20,22,24,26,-1,-1,-1,-1,-1,-1,-1,-1,-1,-1,-1,-1,-1,-1],"split_conditions":[1.2947925E1,6.68E0,2.299E1,3.8695207E0,9.78E0,1.6432848E1,8.8281E0,2.5709102E0,5.5659356E0,8.839891E0,1.161E1,3.96E-1,1.9212347E1,2.597827E-1,4.3436462E-1,-1.3018729E-1,-1.0200017E-1,-7.91883E-2,-5.5061646E-2,-3.107439E-2,-1.6988183E-3,1.5487715E-2,4.6692614E-2,2.8512701E-2,8.564945E-2,1.2578581E-1,1.781225E-1],"split_indices":[21,11,11,21,11,21,52,21,21,21,11,19,21,0,0,0,0,0,0,0,0,0,0,0,0,0,0],"split_type":[0,0,0,0,0,0,0,0,0,0,0,0,0,0,0,0,0,0,0,0,0,0,0,0,0,0,0],"sum_hessian":[7.63E2,5.85E2,1.78E2,3.43E2,2.42E2,1.33E2,4.5E1,1.56E2,1.87E2,1.36E2,1.06E2,5.8E1,7.5E1,3.7E1,8E0,6.5E1,9.1E1,1.12E2,7.5E1,9.2E1,4.4E1,6.1E1,4.5E1,2E0,5.6E1,2.3E1,5.2E1],"tree_param":{"num_deleted":"0","num_feature":"60","num_nodes":"27","size_leaf_vector":"1"}},{"base_weights":[1.8973451E-2,-1.0037613E0,3.3277197E0,-1.6992764E0,6.1081707E-2,2.5160756E0,5.5013027E0,-2.1644683E0,-1.2617213E0,-3.6950696E-1,5.482876E-1,1.7851427E0,3.2864094E0,2.3136885E-1,3.534592E-1,-1.397524E-1,-1.00787655E-1,-7.382928E-2,-5.0722938E-2,-3.0258397E-2,-3.7327304E-3,1.839278E-2,4.9675528E-2,6.50326E-2,9.717143E-2,1.0758598E-1,1.7139107E-1],"categories":[],"categories_nodes":[],"categories_segments":[],"categories_sizes":[],"default_left":[0,0,0,0,0,0,0,0,0,0,0,0,0,0,0,0,0,0,0,0,0,0,0,0,0,0,0],"id":23,"left_children":[1,3,5,7,9,11,13,15,17,19,21,23,25,-1,-1,-1,-1,-1,-1,-1,-1,-1,-1,-1,-1,-1,-1],"loss_changes":[2.68006E3,4.4817554E2,3.1605908E2,7.176721E1,5.055107E1,7.183594E1,3.579883E1,1.0870605E1,8.649506E0,8.848925E0,8.712101E0,3.0704956E0,3.2145386E0,0E0,0E0,0E0,0E0,0E0,0E0,0E0,0E0,0E0,0E0,0E0,0E0,0E0,0E0],"parents":[2147483647,0,0,1,1,2,2,3,3,4,4,5,5,6,6,7,7,8,8,9,9,10,10,11,11,12,12],"right_children":[2,4,6,8,10,12,14,16,18,20,22,24,26,-1,-1,-1,-1,-1,-1,-1,-1,-1,-1,-1,-1,-1,-1],"split_conditions":[1.332E1,6.926056E0,2.2748512E1,3.9493468E0,9.78E0,1.793E1,2.755E1,1.63E0,5.3408833E0,8.38E0,1.208E1,1.4066758E1,3.6667E0,2.3136885E-1,3.534592E-1,-1.397524E-1,-1.00787655E-1,-7.382928E-2,-5.0722938E-2,-3.0258397E-2,-3.7327304E-3,1.839278E-2,4.9675528E-2,6.50326E-2,9.717143E-2,1.0758598E-1,1.7139107E-1],"split_indices":[11,26,20,26,11,11,11,11,26,11,11,20,54,0,0,0,0,0,0,0,0,0,0,0,0,0,0],"split_type":[0,0,0,0,0,0,0,0,0,0,0,0,0,0,0,0,0,0,0,0,0,0,0,0,0,0,0],"sum_hessian":[7.9E2,6.04E2,1.86E2,3.65E2,2.39E2,1.37E2,4.9E1,1.75E2,1.9E2,1.27E2,1.12E2,7.2E1,6.5E1,3.4E1,1.5E1,3E1,1.45E2,9.9E1,9.1E1,7E1,5.7E1,8.1E1,3.1E1,2E1,5.2E1,9E0,5.6E1],"tree_param":{"num_deleted":"0","num_feature":"60","num_nodes":"27","size_leaf_vector":"1"}},{"base_weights":[-1.6699813E-2,-9.87782E-1,3.0376E0,-1.5448953E0,1.0061321E-1,2.3262417E0,5.496642E0,-2.0275385E0,-1.1614355E0,-2.635769E-1,5.270471E-1,1.6131788E0,3.0367064E0,4.623513E0,3.870495E-1,-1.14079975E-1,-8.909538E-2,-6.81885E-2,-4.450481E-2,-2.1871023E-2,-1.4321672E-3,1.9684393E-2,5.6794908E-2,5.7135362E-2,9.1278024E-2,1.17562294E-1,1.6190372E-1,1.4688246E-1,2.4497862E-1],"categories":[],"categories_nodes":[],"categories_segments":[],"categories_sizes":[],"default_left":[0,0,0,0,0,0,0,0,0,0,0,0,0,0,0,0,0,0,0,0,0,0,0,0,0,0,0,0,0],"id":24,"left_children":[1,3,5,7,9,11,13,15,17,19,21,23,25,27,-1,-1,-1,-1,-1,-1,-1,-1,-1,-1,-1,-1,-1,-1,-1],"loss_changes":[2.286802E3,3.5487573E2,3.1257593E2,6.926892E1,3.1044216E1,6.9065674E1,4.4553223E1,6.543274E0,1.0754608E1,4.398374E0,7.022835E0,5.407898E0,2.324646E0,4.9945068E-1,0E0,0E0,0E0,0E0,0E0,0E0,0E0,0E0,0E0,0E0,0E0,0E0,0E0,0E0,0E0],"parents":[2147483647,0,0,1,1,2,2,3,3,4,4,5,5,6,6,7,7,8,8,9,9,10,10,11,11,12,12,13,13],"right_children":[2,4,6,8,10,12,14,16,18,20,22,24,26,28,-1,-1,-1,-1,-1,-1,-1,-1,-1,-1,-1,-1,-1,-1,-1],"split_conditions":[1.3004261E1,7.509783E0,2.345307E1,3.9493468E0,9.966799E0,1.6995327E1,2.8562943E1,2.9194963E0,5.759792E0,9.069913E0,1.2947925E1,1.3368219E1,1.8468868E1,5.0233E0,3.870495E-1,-1.14079975E-1,-8.909538E-2,-6.81885E-2,-4.450481E-2,-2.1871023E-2,-1.4321672E-3,1.9684393E-2,5.6794908E-2,5.7135362E-2,9.1278024E-2,1.17562294E-1,1.6190372E-1,1.4688246E-1,2.4497862E-1],"split_indices":[20,21,21,26,21,20,20,21,21,26,21,21,21,54,0,0,0,0,0,0,0,0,0,0,0,0,0,0,0],"split_type":[0,0,0,0,0,0,0,0,0,0,0,0,0,0,0,0,0,0,0,0,0,0,0,0,0,0,0,0,0],"sum_hessian":[7.69E2,5.84E2,1.85E2,3.86E2,1.98E2,1.45E2,4E1,1.69E2,2.17E2,1.07E2,9.1E1,7.4E1,7.1E1,3.1E1,9E0,7.9E1,9E1,1.22E2,9.5E1,6.1E1,4.6E1,7.6E1,1.5E1,2.5E1,4.9E1,1.9E1,5.2E1,6E0,2.5E1],"tree_param":{"num_deleted":"0","num_feature":"60","num_nodes":"29","size_leaf_vector":"1"}},{"base_weights":[-8.497771E-3,-1.049151E0,2.663488E0,-1.6657286E0,-2.4759619E-1,1.7678161E0,4.6239223E0,-2.1482334E0,-1.3722985E0,-6.8162966E-1,1.8841802E-1,1.2210803E0,2.4782958E0,4.1026883E0,3.8214812E-1,-1.3055804E-1,-9.860065E-2,-7.821917E-2,-5.5175073E-2,-3.6648463E-2,-6.855067E-3,1.8634147E-3,2.4859084E-2,4.647199E-2,7.149856E-2,3.7236717E-2,1.2745127E-1,1.6866735E-1,2.3096505E-1],"categories":[],"categories_nodes":[],"categories_segments":[],"categories_sizes":[],"default_left":[0,0,0,0,0,0,0,0,0,0,0,0,0,0,0,0,0,0,0,0,0,0,0,0,0,0,0,0,0],"id":25,"left_children":[1,3,5,7,9,11,13,15,17,19,21,23,25,27,-1,-1,-1,-1,-1,-1,-1,-1,-1,-1,-1,-1,-1,-1,-1],"loss_changes":[2.2022573E3,2.8129333E2,3.8163684E2,4.2641174E1,4.7250374E1,5.679431E1,7.722351E1,4.6400757E0,8.754974E0,3.3939934E0,5.8151636E0,4.0928955E0,6.194153E0,7.4016113E0,0E0,0E0,0E0,0E0,0E0,0E0,0E0,0E0,0E0,0E0,0E0,0E0,0E0,0E0,0E0],"parents":[2147483647,0,0,1,1,2,2,3,3,4,4,5,5,6,6,7,7,8,8,9,9,10,10,11,11,12,12,13,13],"right_children":[2,4,6,8,10,12,14,16,18,20,22,24,26,28,-1,-1,-1,-1,-1,-1,-1,-1,-1,-1,-1,-1,-1,-1,-1],"split_conditions":[1.208E1,6.161503E0,2.1266861E1,3.18E0,8.5E0,1.6198505E1,8.8281E0,1.4547923E0,4.747584E0,8.60633E0,1.053937E1,1.366E1,4.5238096E-1,2.8E0,3.8214812E-1,-1.3055804E-1,-9.860065E-2,-7.821917E-2,-5.5175073E-2,-3.6648463E-2,-6.855067E-3,1.8634147E-3,2.4859084E-2,4.647199E-2,7.149856E-2,3.7236717E-2,1.2745127E-1,1.6866735E-1,2.3096505E-1],"split_indices":[11,21,21,11,11,21,52,21,21,21,21,11,4,42,0,0,0,0,0,0,0,0,0,0,0,0,0,0,0],"split_type":[0,0,0,0,0,0,0,0,0,0,0,0,0,0,0,0,0,0,0,0,0,0,0,0,0,0,0,0,0],"sum_hessian":[7.9E2,5.69E2,2.21E2,3.21E2,2.48E2,1.53E2,6.8E1,1.19E2,2.02E2,1.24E2,1.24E2,8.8E1,6.5E1,6E1,8E0,2.9E1,9E1,1.15E2,8.7E1,1.13E2,1.1E1,8.4E1,4E1,3.9E1,4.9E1,3E0,6.2E1,2.8E1,3.2E1],"tree_param":{"num_deleted":"0","num_feature":"60","num_nodes":"29","size_leaf_vector":"1"}},{"base_weights":[-2.1552504E-3,-9.357519E-1,2.5640965E0,-1.4552803E0,-4.0949676E-2,1.6986105E0,4.1842537E0,-1.8754435E0,-1.067954E0,-3.937584E-1,2.9560345E-1,1.2016858E0,2.2563024E0,3.73965E0,3.238956E-1,-1.15054585E-1,-8.480459E-2,-6.310242E-2,-4.478693E-2,-2.5010308E-2,5.611225E-4,7.61125E-3,2.6418615E-2,4.5672696E-2,6.854483E-2,9.2974186E-2,1.2851055E-1,1.1386718E-1,1.9288841E-1],"categories":[],"categories_nodes":[],"categories_segments":[],"categories_sizes":[],"default_left":[0,0,0,0,0,0,0,0,0,0,0,0,0,0,0,0,0,0,0,0,0,0,0,0,0,0,0,0,0],"id":26,"left_children":[1,3,5,7,9,11,13,15,17,19,21,23,25,27,-1,-1,-1,-1,-1,-1,-1,-1,-1,-1,-1,-1,-1,-1,-1],"loss_changes":[1.8232408E3,2.593407E2,2.7754382E2,5.544452E1,2.4576607E1,3.4424164E1,4.715869E1,8.922363E0,5.0867767E0,4.3596544E0,3.4572153E0,2.3080978E0,2.943756E0,1.7507324E0,0E0,0E0,0E0,0E0,0E0,0E0,0E0,0E0,0E0,0E0,0E0,0E0,0E0,0E0,0E0],"parents":[2147483647,0,0,1,1,2,2,3,3,4,4,5,5,6,6,7,7,8,8,9,9,10,10,11,11,12,12,13,13],"right_children":[2,4,6,8,10,12,14,16,18,20,22,24,26,28,-1,-1,-1,-1,-1,-1,-1,-1,-1,-1,-1,-1,-1,-1,-1],"split_conditions":[1.236E1,7.1769342E0,2.102955E1,4.170765E0,9.259478E0,1.604E1,2.8857325E1,2.0047781E0,5.274776E0,9.243396E0,1.0960714E1,1.366E1,1.83E1,3.2184544E1,3.238956E-1,-1.15054585E-1,-8.480459E-2,-6.310242E-2,-4.478693E-2,-2.5010308E-2,5.611225E-4,7.61125E-3,2.6418615E-2,4.5672696E-2,6.854483E-2,9.2974186E-2,1.2851055E-1,1.1386718E-1,1.9288841E-1],"split_indices":[11,21,21,21,21,11,21,21,21,26,21,11,11,2,0,0,0,0,0,0,0,0,0,0,0,0,0,0,0],"split_type":[0,0,0,0,0,0,0,0,0,0,0,0,0,0,0,0,0,0,0,0,0,0,0,0,0,0,0,0,0],"sum_hessian":[7.59E2,5.57E2,2.02E2,3.52E2,2.05E2,1.33E2,6.9E1,1.67E2,1.85E2,1E2,1.05E2,7.2E1,6.1E1,6E1,9E0,4.6E1,1.21E2,8.4E1,1.01E2,7.9E1,2.1E1,6.6E1,3.9E1,2.9E1,4.3E1,3E1,3.1E1,6E0,5.4E1],"tree_param":{"num_deleted":"0","num_feature":"60","num_nodes":"29","size_leaf_vector":"1"}},{"base_weights":[5.377882E-2,-8.161622E-1,2.6947143E0,-1.4482175E0,-7.924766E-2,1.8276856E0,4.27439E0,-1.8906629E0,-1.1617097E0,-4.286561E-1,4.3456155E-1,1.4012533E0,2.4157846E0,3.7898202E0,3.5149616E-1,-1.1780331E-1,-8.6761296E-2,-6.669312E-2,-4.8322782E-2,-3.2278534E-2,-1.2052326E-2,1.0353355E-2,3.6996778E-2,4.350951E-2,7.941007E-2,9.3992256E-2,1.3591002E-1,1.5167926E-1,2.0889619E-1],"categories":[],"categories_nodes":[],"categories_segments":[],"categories_sizes":[],"default_left":[0,0,0,0,0,0,0,0,0,0,0,0,0,0,0,0,0,0,0,0,0,0,0,0,0,0,0,0,0],"id":27,"left_children":[1,3,5,7,9,11,13,15,17,19,21,23,25,27,-1,-1,-1,-1,-1,-1,-1,-1,-1,-1,-1,-1,-1,-1,-1],"loss_changes":[1.7988116E3,2.742242E2,2.5789478E2,3.7987793E1,4.919777E1,2.8464539E1,6.415491E1,4.8096313E0,5.265503E0,6.4777164E0,7.558052E0,6.163315E0,3.3181458E0,4.93573E0,0E0,0E0,0E0,0E0,0E0,0E0,0E0,0E0,0E0,0E0,0E0,0E0,0E0,0E0,0E0],"parents":[2147483647,0,0,1,1,2,2,3,3,4,4,5,5,6,6,7,7,8,8,9,9,10,10,11,11,12,12,13,13],"right_children":[2,4,6,8,10,12,14,16,18,20,22,24,26,28,-1,-1,-1,-1,-1,-1,-1,-1,-1,-1,-1,-1,-1,-1,-1],"split_conditions":[1.317E1,6.214322E0,2.1266861E1,3.51E0,9.39E0,4.1493E0,8.8281E0,1.4547923E0,4.844688E0,7.6304154E0,1.1493262E1,1.36056185E1,1.852E1,2.8E0,3.5149616E-1,-1.1780331E-1,-8.6761296E-2,-6.669312E-2,-4.8322782E-2,-3.2278534E-2,-1.2052326E-2,1.0353355E-2,3.6996778E-2,4.350951E-2,7.941007E-2,9.3992256E-2,1.3591002E-1,1.5167926E-1,2.0889619E-1],"split_indices":[11,26,21,11,11,54,52,21,21,21,21,21,11,42,0,0,0,0,0,0,0,0,0,0,0,0,0,0,0],"split_type":[0,0,0,0,0,0,0,0,0,0,0,0,0,0,0,0,0,0,0,0,0,0,0,0,0,0,0,0,0],"sum_hessian":[7.81E2,5.88E2,1.93E2,3.16E2,2.72E2,1.26E2,6.7E1,1.22E2,1.94E2,1.62E2,1.1E2,7.5E1,5.1E1,5.9E1,8E0,2.7E1,9.5E1,1E2,9.4E1,7.4E1,8.8E1,6.4E1,4.6E1,2.1E1,5.4E1,2.1E1,3E1,2.3E1,3.6E1],"tree_param":{"num_deleted":"0","num_feature":"60","num_nodes":"29","size_leaf_vector":"1"}},{"base_weights":[5.234203E-2,-7.626144E-1,2.5268047E0,-1.3443625E0,-5.3969882E-3,1.7672246E0,4.326378E0,-1.8238413E0,-1.1104203E0,-3.9423057E-1,3.597322E-1,1.3553171E0,2.5183833E0,1.8686591E-1,2.993661E-1,-1.1174675E-1,-8.4799185E-2,-6.564548E-2,-4.6601206E-2,-2.6614262E-2,-5.2569346E-3,8.668632E-3,3.2433074E-2,5.692744E-2,8.476169E-2,2.5002861E-2,1.2756945E-1],"categories":[],"categories_nodes":[],"categories_segments":[],"categories_sizes":[],"default_left":[0,0,0,0,0,0,0,0,0,0,0,0,0,0,0,0,0,0,0,0,0,0,0,0,0,0,0],"id":28,"left_children":[1,3,5,7,9,11,13,15,17,19,21,23,25,-1,-1,-1,-1,-1,-1,-1,-1,-1,-1,-1,-1,-1,-1],"loss_changes":[1.554693E3,2.5548843E2,2.5343604E2,3.4766724E1,3.6061363E1,3.866626E1,3.2413696E1,1.7810669E0,6.8318176E0,4.8530273E0,6.9411983E0,4.7013855E0,1.855133E0,0E0,0E0,0E0,0E0,0E0,0E0,0E0,0E0,0E0,0E0,0E0,0E0,0E0,0E0],"parents":[2147483647,0,0,1,1,2,2,3,3,4,4,5,5,6,6,7,7,8,8,9,9,10,10,11,11,12,12],"right_children":[2,4,6,8,10,12,14,16,18,20,22,24,26,-1,-1,-1,-1,-1,-1,-1,-1,-1,-1,-1,-1,-1,-1],"split_conditions":[1.3004261E1,6.62E0,2.257E1,3.1967738E0,9.259478E0,1.8148464E1,2.8355547E1,1.4963893E0,4.7309833E0,8.38E0,1.161E1,1.604E1,2.3164804E0,1.8686591E-1,2.993661E-1,-1.1174675E-1,-8.4799185E-2,-6.564548E-2,-4.6601206E-2,-2.6614262E-2,-5.2569346E-3,8.668632E-3,3.2433074E-2,5.692744E-2,8.476169E-2,2.5002861E-2,1.2756945E-1],"split_indices":[20,11,11,21,21,20,21,20,20,11,11,11,8,0,0,0,0,0,0,0,0,0,0,0,0,0,0],"split_type":[0,0,0,0,0,0,0,0,0,0,0,0,0,0,0,0,0,0,0,0,0,0,0,0,0,0,0],"sum_hessian":[7.69E2,5.79E2,1.9E2,3.27E2,2.52E2,1.35E2,5.5E1,1.05E2,2.22E2,1.22E2,1.3E2,8.9E1,4.6E1,4.3E1,1.2E1,2.1E1,8.4E1,1.01E2,1.21E2,8.2E1,4E1,8E1,5E1,5.7E1,3.2E1,1E0,4.5E1],"tree_param":{"num_deleted":"0","num_feature":"60","num_nodes":"27","size_leaf_vector":"1"}},{"base_weights":[3.1061158E-2,-7.4707377E-1,2.572796E0,-1.2358298E0,1.12882204E-1,2.0314176E0,4.542383E0,-1.5537863E0,-8.555927E-1,-1.20859034E-1,6.058291E-1,1.4263043E0,2.5461056E0,3.8024518E0,3.0064508E-1,-9.037994E-2,-6.657123E-2,-4.892091E-2,-3.3267934E-2,-1.3994783E-2,8.600645E-3,4.3495998E-2,2.2282459E-2,1.6642654E-2,7.358252E-2,1.0909587E-1,1.4355044E-1,1.9355215E-1,4.876223E-2],"categories":[],"categories_nodes":[],"categories_segments":[],"categories_sizes":[],"default_left":[0,0,0,0,0,0,0,0,0,0,0,0,0,0,0,0,0,0,0,0,0,0,0,0,0,0,0,0,0],"id":29,"left_children":[1,3,5,7,9,11,13,15,17,19,21,23,25,27,-1,-1,-1,-1,-1,-1,-1,-1,-1,-1,-1,-1,-1,-1,-1],"loss_changes":[1.5189044E3,2.4728098E2,1.8270496E2,4.400769E1,2.4730734E1,4.090503E1,1.8483398E1,9.050293E0,3.3912582E0,6.848441E0,2.5311642E0,2.8818512E0,2.7284546E0,1.654602E0,0E0,0E0,0E0,0E0,0E0,0E0,0E0,0E0,0E0,0E0,0E0,0E0,0E0,0E0,0E0],"parents":[2147483647,0,0,1,1,2,2,3,3,4,4,5,5,6,6,7,7,8,8,9,9,10,10,11,11,12,12,13,13],"right_children":[2,4,6,8,10,12,14,16,18,20,22,24,26,28,-1,-1,-1,-1,-1,-1,-1,-1,-1,-1,-1,-1,-1,-1,-1],"split_conditions":[1.366E1,7.218145E0,2.3861855E1,4.47E0,1.093E1,1.83E1,2.8857325E1,2.92E0,5.9772635E0,9.56184E0,1.2042105E1,1.541E-1,2.1348597E1,2.056338E0,3.0064508E-1,-9.037994E-2,-6.657123E-2,-4.892091E-2,-3.3267934E-2,-1.3994783E-2,8.600645E-3,4.3495998E-2,2.2282459E-2,1.6642654E-2,7.358252E-2,1.0909587E-1,1.4355044E-1,1.9355215E-1,4.876223E-2],"split_indices":[11,20,20,11,11,11,21,11,26,26,7,51,26,5,0,0,0,0,0,0,0,0,0,0,0,0,0,0,0],"split_type":[0,0,0,0,0,0,0,0,0,0,0,0,0,0,0,0,0,0,0,0,0,0,0,0,0,0,0,0,0],"sum_hessian":[7.66E2,5.87E2,1.79E2,3.74E2,2.13E2,1.42E2,3.7E1,2.02E2,1.72E2,1.45E2,6.8E1,6.7E1,7.5E1,2.7E1,1E1,9.1E1,1.11E2,1.02E2,7E1,9.4E1,5.1E1,2.4E1,4.4E1,3E0,6.4E1,3.9E1,3.6E1,2.6E1,1E0],"tree_param":{"num_deleted":"0","num_feature":"60","num_nodes":"29","size_leaf_vector":"1"}},{"base_weights":[4.226057E-2,-6.766035E-1,2.4040103E0,-1.1578515E0,1.0391337E-1,1.8117588E0,4.0666103E0,-1.5583771E0,-8.9575374E-1,-1.3010599E-1,5.5861884E-1,1.336586E0,2.3740761E0,3.5208797E0,2.9897985E-1,-9.625464E-2,-7.050751E-2,-5.2797016E-2,-3.522244E-2,-1.763462E-2,2.2408604E-3,1.6732007E-2,3.665724E-2,4.8508476E-2,7.650586E-2,2.1650363E-2,1.19960524E-1,1.7817445E-1,4.7543194E-2],"categories":[],"categories_nodes":[],"categories_segments":[],"categories_sizes":[],"default_left":[0,0,0,0,0,0,0,0,0,0,0,0,0,0,0,0,0,0,0,0,0,0,0,0,0,0,0,0,0],"id":30,"left_children":[1,3,5,7,9,11,13,15,17,19,21,23,25,27,-1,-1,-1,-1,-1,-1,-1,-1,-1,-1,-1,-1,-1,-1,-1],"loss_changes":[1.3241948E3,2.2474237E2,1.718435E2,3.7445526E1,2.4440544E1,3.316577E1,2.8013428E1,5.167145E0,6.181793E0,5.9340067E0,2.8036861E0,3.9049225E0,1.9371643E0,8.8238525E-1,0E0,0E0,0E0,0E0,0E0,0E0,0E0,0E0,0E0,0E0,0E0,0E0,0E0,0E0,0E0],"parents":[2147483647,0,0,1,1,2,2,3,3,4,4,5,5,6,6,7,7,8,8,9,9,10,10,11,11,12,12,13,13],"right_children":[2,4,6,8,10,12,14,16,18,20,22,24,26,28,-1,-1,-1,-1,-1,-1,-1,-1,-1,-1,-1,-1,-1,-1,-1],"split_conditions":[1.3368219E1,7.259602E0,2.345307E1,3.7705612E0,1.0764058E1,1.8148464E1,2.952E1,1.8932431E0,5.3408833E0,8.59674E0,1.176E1,1.466E1,2.3164804E0,1.6363636E0,2.9897985E-1,-9.625464E-2,-7.050751E-2,-5.2797016E-2,-3.522244E-2,-1.763462E-2,2.2408604E-3,1.6732007E-2,3.665724E-2,4.8508476E-2,7.650586E-2,2.1650363E-2,1.19960524E-1,1.7817445E-1,4.7543194E-2],"split_indices":[21,20,21,26,20,20,11,21,26,20,11,11,8,5,0,0,0,0,0,0,0,0,0,0,0,0,0,0,0],"split_type":[0,0,0,0,0,0,0,0,0,0,0,0,0,0,0,0,0,0,0,0,0,0,0,0,0,0,0,0,0],"sum_hessian":[7.78E2,5.97E2,1.81E2,3.69E2,2.28E2,1.35E2,4.6E1,1.44E2,2.25E2,1.51E2,7.7E1,7.5E1,6E1,3.8E1,8E0,3.8E1,1.06E2,1.2E2,1.05E2,6.6E1,8.5E1,3.5E1,4.2E1,2.8E1,4.7E1,1E0,5.9E1,3.7E1,1E0],"tree_param":{"num_deleted":"0","num_feature":"60","num_nodes":"29","size_leaf_vector":"1"}},{"base_weights":[1.749858E-2,-7.0522547E-1,2.2191088E0,-1.2110527E0,-9.107155E-2,1.6344988E0,4.118496E0,-1.6041348E0,-1.0070851E0,-3.661013E-1,3.3936608E-1,1.1163669E0,2.1515484E0,3.5269003E0,2.918195E-1,-1.049506E-1,-7.514175E-2,-5.816868E-2,-4.243819E-2,-2.8065754E-2,-1.0361205E-2,5.687564E-3,2.5334066E-2,4.24362E-2,6.391422E-2,8.822274E-2,1.245477E-1,1.787346E-1,4.635463E-2],"categories":[],"categories_nodes":[],"categories_segments":[],"categories_sizes":[],"default_left":[0,0,0,0,0,0,0,0,0,0,0,0,0,0,0,0,0,0,0,0,0,0,0,0,0,0,0,0,0],"id":31,"left_children":[1,3,5,7,9,11,13,15,17,19,21,23,25,27,-1,-1,-1,-1,-1,-1,-1,-1,-1,-1,-1,-1,-1,-1,-1],"loss_changes":[1.2490319E3,1.8348727E2,2.086861E2,2.4361511E1,3.1850927E1,3.778308E1,2.5149109E1,2.3098145E0,4.3572235E0,4.9701443E0,3.9059887E0,2.2519608E0,5.327057E0,1.158905E0,0E0,0E0,0E0,0E0,0E0,0E0,0E0,0E0,0E0,0E0,0E0,0E0,0E0,0E0,0E0],"parents":[2147483647,0,0,1,1,2,2,3,3,4,4,5,5,6,6,7,7,8,8,9,9,10,10,11,11,12,12,13,13],"right_children":[2,4,6,8,10,12,14,16,18,20,22,24,26,28,-1,-1,-1,-1,-1,-1,-1,-1,-1,-1,-1,-1,-1,-1,-1],"split_conditions":[1.3004261E1,6.2585225E0,2.3861855E1,3.2092814E0,9.578926E0,1.6995327E1,8.8281E0,1.2228444E0,4.5863624E0,7.4516797E0,2.4605455E1,2.8939568E1,4.5846E0,2.056338E0,2.918195E-1,-1.049506E-1,-7.514175E-2,-5.816868E-2,-4.243819E-2,-2.8065754E-2,-1.0361205E-2,5.687564E-3,2.5334066E-2,4.24362E-2,6.391422E-2,8.822274E-2,1.245477E-1,1.787346E-1,4.635463E-2],"split_indices":[20,20,20,20,21,20,52,20,20,26,2,2,54,5,0,0,0,0,0,0,0,0,0,0,0,0,0,0,0],"split_type":[0,0,0,0,0,0,0,0,0,0,0,0,0,0,0,0,0,0,0,0,0,0,0,0,0,0,0,0,0],"sum_hessian":[7.83E2,5.9E2,1.93E2,3.23E2,2.67E2,1.49E2,4.4E1,1.08E2,2.15E2,1.63E2,1.04E2,7.6E1,7.3E1,3.5E1,9E0,1.5E1,9.3E1,1.05E2,1.1E2,7.2E1,9.1E1,4.5E1,5.9E1,3.1E1,4.5E1,3.7E1,3.6E1,3.4E1,1E0],"tree_param":{"num_deleted":"0","num_feature":"60","num_nodes":"29","size_leaf_vector":"1"}},{"base_weights":[7.2490564E-3,-6.316377E-1,2.1837544E0,-1.0773941E0,8.083989E-2,1.4767066E0,3.3505063E0,-1.357556E0,-7.7580124E-1,-1.2846322E-1,5.1490635E-1,1.1640353E0,1.9513643E0,2.9429898E0,2.8022227E-1,-8.294559E-2,-6.068323E-2,-4.7536932E-2,-3.2976933E-2,-1.563677E-2,3.2271654E-3,2.0157984E-2,4.5437943E-2,5.0372917E-2,7.299323E-2,9.925355E-2,1.3392115E-2,1.1501365E-1,1.6966568E-1],"categories":[],"categories_nodes":[],"categories_segments":[],"categories_sizes":[],"default_left":[0,0,0,0,0,0,0,0,0,0,0,0,0,0,0,0,0,0,0,0,0,0,0,0,0,0,0,0,0],"id":32,"left_children":[1,3,5,7,9,11,13,15,17,19,21,23,25,27,-1,-1,-1,-1,-1,-1,-1,-1,-1,-1,-1,-1,-1,-1,-1],"loss_changes":[1.0846105E3,1.9159473E2,1.410683E2,3.0294373E1,2.1234539E1,1.4350662E1,4.4128296E1,6.2688904E0,3.0542526E0,5.639571E0,2.9785137E0,1.7716522E0,1.9083862E0,8.981445E0,0E0,0E0,0E0,0E0,0E0,0E0,0E0,0E0,0E0,0E0,0E0,0E0,0E0,0E0,0E0],"parents":[2147483647,0,0,1,1,2,2,3,3,4,4,5,5,6,6,7,7,8,8,9,9,10,10,11,11,12,12,13,13],"right_children":[2,4,6,8,10,12,14,16,18,20,22,24,26,28,-1,-1,-1,-1,-1,-1,-1,-1,-1,-1,-1,-1,-1,-1,-1],"split_conditions":[1.3368219E1,7.1769342E0,2.1576277E1,4.1814427E0,1.0764058E1,1.747018E1,3.1984903E1,2.2619762E0,5.113634E0,8.839891E0,2.55E0,1.7165308E1,1.84E0,3.1E0,2.8022227E-1,-8.294559E-2,-6.068323E-2,-4.7536932E-2,-3.2976933E-2,-1.563677E-2,3.2271654E-3,2.0157984E-2,4.5437943E-2,5.0372917E-2,7.299323E-2,9.925355E-2,1.3392115E-2,1.1501365E-1,1.6966568E-1],"split_indices":[21,21,21,20,20,20,20,21,21,21,30,21,4,42,0,0,0,0,0,0,0,0,0,0,0,0,0,0,0],"split_type":[0,0,0,0,0,0,0,0,0,0,0,0,0,0,0,0,0,0,0,0,0,0,0,0,0,0,0,0,0],"sum_hessian":[7.78E2,6.02E2,1.76E2,3.7E2,2.32E2,1.11E2,6.5E1,1.9E2,1.8E2,1.57E2,7.5E1,6.9E1,4.2E1,5.7E1,8E0,5.8E1,1.32E2,6.9E1,1.11E2,8E1,7.7E1,6E1,1.5E1,4.8E1,2.1E1,4.1E1,1E0,2.6E1,3.1E1],"tree_param":{"num_deleted":"0","num_feature":"60","num_nodes":"29","size_leaf_vector":"1"}},{"base_weights":[1.3733342E-2,-5.8612007E-1,2.0625937E0,-9.724972E-1,1.2466473E-1,1.5445056E0,3.756095E0,-1.2944256E0,-7.06654E-1,-1.9763105E-1,3.6278206E-1,1.1673971E0,2.1272757E0,3.1992137E0,2.6903248E-1,-7.318295E-2,-5.592034E-2,-4.3087564E-2,-2.8142324E-2,-1.921901E-2,-2.6479708E-3,9.1942595E-3,2.8159196E-2,4.2437658E-2,6.7970954E-2,8.554847E-2,1.20640315E-1,3.728504E-2,1.6262914E-1],"categories":[],"categories_nodes":[],"categories_segments":[],"categories_sizes":[],"default_left":[0,0,0,0,0,0,0,0,0,0,0,0,0,0,0,0,0,0,0,0,0,0,0,0,0,0,0,0,0],"id":33,"left_children":[1,3,5,7,9,11,13,15,17,19,21,23,25,27,-1,-1,-1,-1,-1,-1,-1,-1,-1,-1,-1,-1,-1,-1,-1],"loss_changes":[9.6598627E2,1.6709688E2,1.503728E2,3.280481E1,1.65717E1,2.7844574E1,1.9878235E1,3.6355286E0,4.377266E0,2.4652352E0,4.341997E0,4.108246E0,2.1717987E0,1.8956299E0,0E0,0E0,0E0,0E0,0E0,0E0,0E0,0E0,0E0,0E0,0E0,0E0,0E0,0E0,0E0],"parents":[2147483647,0,0,1,1,2,2,3,3,4,4,5,5,6,6,7,7,8,8,9,9,10,10,11,11,12,12,13,13],"right_children":[2,4,6,8,10,12,14,16,18,20,22,24,26,28,-1,-1,-1,-1,-1,-1,-1,-1,-1,-1,-1,-1,-1,-1,-1],"split_conditions":[1.366E1,7.3920484E0,2.4678112E1,4.170765E0,9.374979E0,1.9599703E1,2.952E1,2.9194963E0,5.52E0,2.0189817E1,1.156E1,1.536E1,4.8491E0,1.44E-1,2.6903248E-1,-7.318295E-2,-5.592034E-2,-4.3087564E-2,-2.8142324E-2,-1.921901E-2,-2.6479708E-3,9.1942595E-3,2.8159196E-2,4.2437658E-2,6.7970954E-2,8.554847E-2,1.20640315E-1,3.728504E-2,1.6262914E-1],"split_indices":[11,26,26,21,21,21,11,21,11,2,11,11,54,51,0,0,0,0,0,0,0,0,0,0,0,0,0,0,0],"split_type":[0,0,0,0,0,0,0,0,0,0,0,0,0,0,0,0,0,0,0,0,0,0,0,0,0,0,0,0,0],"sum_hessian":[7.84E2,6.07E2,1.77E2,3.93E2,2.14E2,1.37E2,4E1,1.76E2,2.17E2,9.1E1,1.23E2,8.5E1,5.2E1,3.2E1,8E0,8.6E1,9E1,1.02E2,1.15E2,3.9E1,5.2E1,6.6E1,5.7E1,3.4E1,5.1E1,2.4E1,2.8E1,1E0,3.1E1],"tree_param":{"num_deleted":"0","num_feature":"60","num_nodes":"29","size_leaf_vector":"1"}},{"base_weights":[-2.4335112E-2,-5.821004E-1,1.977201E0,-1.0318877E0,-4.267714E-3,1.3395722E0,3.012343E0,-1.3904938E0,-8.8068897E-1,-3.4102115E-1,2.7524376E-1,1.0789435E0,1.7491518E0,2.606471E0,2.2020559E-1,-8.8909104E-2,-6.533526E-2,-5.0031435E-2,-3.548051E-2,-2.3016358E-2,-7.04225E-3,3.6191766E-3,2.4568522E-2,4.4651557E-2,6.4233236E-2,1.4283515E-2,8.896761E-2,6.4460024E-2,1.3595882E-1],"categories":[],"categories_nodes":[],"categories_segments":[],"categories_sizes":[],"default_left":[0,0,0,0,0,0,0,0,0,0,0,0,0,0,0,0,0,0,0,0,0,0,0,0,0,0,0,0,0],"id":34,"left_children":[1,3,5,7,9,11,13,15,17,19,21,23,25,27,-1,-1,-1,-1,-1,-1,-1,-1,-1,-1,-1,-1,-1,-1,-1],"loss_changes":[8.708167E2,1.5853569E2,1.081709E2,1.7373138E1,2.5319754E1,9.534836E0,2.4673096E1,9.2481995E-1,4.2966156E0,2.848795E0,6.4094286E0,1.4534912E0,1.2595901E0,4.2145386E0,0E0,0E0,0E0,0E0,0E0,0E0,0E0,0E0,0E0,0E0,0E0,0E0,0E0,0E0,0E0],"parents":[2147483647,0,0,1,1,2,2,3,3,4,4,5,5,6,6,7,7,8,8,9,9,10,10,11,11,12,12,13,13],"right_children":[2,4,6,8,10,12,14,16,18,20,22,24,26,28,-1,-1,-1,-1,-1,-1,-1,-1,-1,-1,-1,-1,-1,-1,-1],"split_conditions":[1.36056185E1,6.354913E0,2.1576277E1,3.0339231E0,8.844749E0,1.8148464E1,2.8355547E1,1.2648046E0,4.7309833E0,2.1257689E1,1.0764058E1,1.612069E1,2.3164804E0,5.7E-1,2.2020559E-1,-8.8909104E-2,-6.533526E-2,-5.0031435E-2,-3.548051E-2,-2.3016358E-2,-7.04225E-3,3.6191766E-3,2.4568522E-2,4.4651557E-2,6.4233236E-2,1.4283515E-2,8.896761E-2,6.4460024E-2,1.3595882E-1],"split_indices":[21,20,21,21,26,20,21,21,20,2,20,21,8,15,0,0,0,0,0,0,0,0,0,0,0,0,0,0,0],"split_type":[0,0,0,0,0,0,0,0,0,0,0,0,0,0,0,0,0,0,0,0,0,0,0,0,0,0,0,0,0],"sum_hessian":[7.78E2,6.09E2,1.69E2,3.42E2,2.67E2,1.06E2,6.3E1,9.9E1,2.43E2,1.21E2,1.46E2,6.7E1,3.9E1,5.1E1,1.2E1,1.4E1,8.5E1,1.4E2,1.03E2,7.5E1,4.6E1,7.6E1,7E1,3.8E1,2.9E1,1E0,3.8E1,5E0,4.6E1],"tree_param":{"num_deleted":"0","num_feature":"60","num_nodes":"29","size_leaf_vector":"1"}},{"base_weights":[5.4205586E-3,-5.909494E-1,1.7012336E0,-9.997384E-1,-1.1386384E-1,1.1106993E0,2.7355945E0,-1.3283321E0,-8.420692E-1,-3.695516E-1,1.8433017E-1,7.6712394E-1,1.5331094E0,2.4933136E0,2.2416596E-1,-8.592316E-2,-6.156155E-2,-4.7423016E-2,-3.494297E-2,-2.1755828E-2,-4.6394016E-3,1.7678477E-3,1.6299808E-2,1.54014155E-2,4.1552413E-2,3.7499953E-2,7.953325E-2,8.839392E-2,1.3668106E-1],"categories":[],"categories_nodes":[],"categories_segments":[],"categories_sizes":[],"default_left":[0,0,0,0,0,0,0,0,0,0,0,0,0,0,0,0,0,0,0,0,0,0,0,0,0,0,0,0,0],"id":35,"left_children":[1,3,5,7,9,11,13,15,17,19,21,23,25,27,-1,-1,-1,-1,-1,-1,-1,-1,-1,-1,-1,-1,-1,-1,-1],"loss_changes":[8.201842E2,1.1690253E2,1.25845825E2,1.5615814E1,2.1264107E1,1.8561554E1,2.1003113E1,1.7860413E0,2.704361E0,2.6815224E0,2.710946E0,2.003765E0,1.5113373E0,7.1958923E0,0E0,0E0,0E0,0E0,0E0,0E0,0E0,0E0,0E0,0E0,0E0,0E0,0E0,0E0,0E0],"parents":[2147483647,0,0,1,1,2,2,3,3,4,4,5,5,6,6,7,7,8,8,9,9,10,10,11,11,12,12,13,13],"right_children":[2,4,6,8,10,12,14,16,18,20,22,24,26,28,-1,-1,-1,-1,-1,-1,-1,-1,-1,-1,-1,-1,-1,-1,-1],"split_conditions":[1.2321667E1,6.161503E0,2.102955E1,2.99E0,8.822113E0,1.6432848E1,8.8281E0,1.26E0,4.5863624E0,8.60633E0,1.0397819E1,1.39E0,1.3961234E1,4.8947E0,2.2416596E-1,-8.592316E-2,-6.156155E-2,-4.7423016E-2,-3.494297E-2,-2.1755828E-2,-4.6394016E-3,1.7678477E-3,1.6299808E-2,1.54014155E-2,4.1552413E-2,3.7499953E-2,7.953325E-2,8.839392E-2,1.3668106E-1],"split_indices":[21,21,21,11,26,21,52,11,20,21,20,13,26,54,0,0,0,0,0,0,0,0,0,0,0,0,0,0,0],"split_type":[0,0,0,0,0,0,0,0,0,0,0,0,0,0,0,0,0,0,0,0,0,0,0,0,0,0,0,0,0],"sum_hessian":[8.09E2,5.99E2,2.1E2,3.22E2,2.77E2,1.35E2,7.5E1,1.02E2,2.2E2,1.49E2,1.28E2,7.6E1,5.9E1,6.8E1,7E0,1.7E1,8.5E1,1.23E2,9.7E1,1.2E2,2.9E1,6.3E1,6.5E1,1E1,6.6E1,5E0,5.4E1,1.9E1,4.9E1],"tree_param":{"num_deleted":"0","num_feature":"60","num_nodes":"29","size_leaf_vector":"1"}},{"base_weights":[-2.5785148E-2,-5.193826E-1,1.8711573E0,-8.5309005E-1,1.0367781E-1,1.5127256E0,3.731842E0,-1.0938023E0,-5.7839113E-1,-6.629476E-2,4.4695064E-1,1.1381041E0,1.9904454E0,1.4667454E-1,2.4125949E-1,-7.709795E-2,-5.1124163E-2,-3.43568E-2,-2.2071239E-2,-1.1023687E-2,3.349548E-3,5.9929504E-3,2.7385218E-2,3.7028994E-2,6.357839E-2,7.951676E-2,1.1329185E-1],"categories":[],"categories_nodes":[],"categories_segments":[],"categories_sizes":[],"default_left":[0,0,0,0,0,0,0,0,0,0,0,0,0,0,0,0,0,0,0,0,0,0,0,0,0,0,0],"id":36,"left_children":[1,3,5,7,9,11,13,15,17,19,21,23,25,-1,-1,-1,-1,-1,-1,-1,-1,-1,-1,-1,-1,-1,-1],"loss_changes":[7.210065E2,1.2712747E2,1.0039636E2,2.5684479E1,1.25158825E1,2.1894836E1,7.6672363E0,5.167389E0,2.4968262E0,2.973949E0,2.2742062E0,3.1965942E0,2.7874146E0,0E0,0E0,0E0,0E0,0E0,0E0,0E0,0E0,0E0,0E0,0E0,0E0,0E0,0E0],"parents":[2147483647,0,0,1,1,2,2,3,3,4,4,5,5,6,6,7,7,8,8,9,9,10,10,11,11,12,12],"right_children":[2,4,6,8,10,12,14,16,18,20,22,24,26,-1,-1,-1,-1,-1,-1,-1,-1,-1,-1,-1,-1,-1,-1],"split_conditions":[1.4066758E1,7.415922E0,2.587E1,4.5036345E0,1.0960714E1,1.9907696E1,8.8281E0,1.4963893E0,6.0320663E0,8.844749E0,2.3473696E1,2.5E0,2.1499254E1,1.4667454E-1,2.4125949E-1,-7.709795E-2,-5.1124163E-2,-3.43568E-2,-2.2071239E-2,-1.1023687E-2,3.349548E-3,5.9929504E-3,2.7385218E-2,3.7028994E-2,6.357839E-2,7.951676E-2,1.1329185E-1],"split_indices":[20,20,11,21,21,21,52,20,26,26,10,30,26,0,0,0,0,0,0,0,0,0,0,0,0,0,0],"split_type":[0,0,0,0,0,0,0,0,0,0,0,0,0,0,0,0,0,0,0,0,0,0,0,0,0,0,0],"sum_hessian":[7.68E2,6.1E2,1.58E2,3.97E2,2.13E2,1.34E2,2.4E1,2.1E2,1.87E2,1.43E2,7E1,7.7E1,5.7E1,1.6E1,8E0,2.6E1,1.84E2,1.02E2,8.5E1,6.6E1,7.7E1,1.7E1,5.3E1,2.1E1,5.6E1,2.6E1,3.1E1],"tree_param":{"num_deleted":"0","num_feature":"60","num_nodes":"27","size_leaf_vector":"1"}},{"base_weights":[2.4654264E-2,-4.7697252E-1,1.7171566E0,-8.149251E-1,1.04080565E-1,1.2796583E0,2.9914927E0,-1.1070733E0,-6.016576E-1,-7.525781E-2,4.1940534E-1,9.33467E-1,1.7097782E0,2.4819386E0,2.2633691E-1,-8.03709E-2,-5.161647E-2,-3.64575E-2,-2.3439664E-2,-8.816995E-3,8.195887E-3,3.4907214E-2,1.3355366E-2,3.0319622E-2,5.3952646E-2,4.7060527E-2,8.975695E-2,5.6733944E-2,1.2850164E-1],"categories":[],"categories_nodes":[],"categories_segments":[],"categories_sizes":[],"default_left":[0,0,0,0,0,0,0,0,0,0,0,0,0,0,0,0,0,0,0,0,0,0,0,0,0,0,0,0,0],"id":37,"left_children":[1,3,5,7,9,11,13,15,17,19,21,23,25,27,-1,-1,-1,-1,-1,-1,-1,-1,-1,-1,-1,-1,-1,-1,-1],"loss_changes":[6.6474054E2,1.18691315E2,9.596802E1,2.313469E1,1.2642177E1,1.8505981E1,2.3967957E1,4.3242493E0,3.4356232E0,3.4861255E0,3.252081E0,3.0122147E0,2.181137E0,1.3565216E0,0E0,0E0,0E0,0E0,0E0,0E0,0E0,0E0,0E0,0E0,0E0,0E0,0E0,0E0,0E0],"parents":[2147483647,0,0,1,1,2,2,3,3,4,4,5,5,6,6,7,7,8,8,9,9,10,10,11,11,12,12,13,13],"right_children":[2,4,6,8,10,12,14,16,18,20,22,24,26,28,-1,-1,-1,-1,-1,-1,-1,-1,-1,-1,-1,-1,-1,-1,-1],"split_conditions":[1.366E1,7.4510336E0,2.327E1,3.8287487E0,1.068E1,1.9027153E1,2.952E1,1.26E0,5.3408833E0,9.56184E0,1.1693209E1,2.43E0,3.72E0,1.695122E0,2.2633691E-1,-8.03709E-2,-5.161647E-2,-3.64575E-2,-2.3439664E-2,-8.816995E-3,8.195887E-3,3.4907214E-2,1.3355366E-2,3.0319622E-2,5.3952646E-2,4.7060527E-2,8.975695E-2,5.6733944E-2,1.2850164E-1],"split_indices":[11,21,11,26,11,21,11,11,26,26,7,30,54,6,0,0,0,0,0,0,0,0,0,0,0,0,0,0,0],"split_type":[0,0,0,0,0,0,0,0,0,0,0,0,0,0,0,0,0,0,0,0,0,0,0,0,0,0,0,0,0],"sum_hessian":[7.81E2,6.03E2,1.78E2,3.81E2,2.22E2,1.34E2,4.4E1,1.59E2,2.22E2,1.42E2,8E1,7.6E1,5.8E1,3.5E1,9E0,1.8E1,1.41E2,1.11E2,1.11E2,1E2,4.2E1,2.7E1,5.3E1,2.5E1,5.1E1,7E0,5.1E1,3E0,3.2E1],"tree_param":{"num_deleted":"0","num_feature":"60","num_nodes":"29","size_leaf_vector":"1"}},{"base_weights":[1.395983E-2,-5.112386E-1,1.5317134E0,-8.576025E-1,-8.4310405E-2,1.1487283E0,2.9451165E0,-1.1531283E0,-7.0511955E-1,-3.4437442E-1,1.4106143E-1,7.78445E-1,1.5742887E0,2.5299027E0,2.0932332E-1,-8.3437406E-2,-5.3833198E-2,-4.0216528E-2,-2.8029714E-2,-1.979129E-2,-5.3968495E-3,3.5630444E-3,2.4651771E-2,3.300022E-2,5.2288886E-2,7.967365E-2,4.82564E-3,2.2325372E-2,1.2897527E-1],"categories":[],"categories_nodes":[],"categories_segments":[],"categories_sizes":[],"default_left":[0,0,0,0,0,0,0,0,0,0,0,0,0,0,0,0,0,0,0,0,0,0,0,0,0,0,0,0,0],"id":38,"left_children":[1,3,5,7,9,11,13,15,17,19,21,23,25,27,-1,-1,-1,-1,-1,-1,-1,-1,-1,-1,-1,-1,-1,-1,-1],"loss_changes":[6.2014667E2,8.5397995E1,1.048793E2,1.3561905E1,1.5287465E1,2.3829407E1,1.1056519E1,2.4219513E0,2.6031952E0,1.429244E0,3.4043825E0,2.0644722E0,1.9157562E0,2.3618622E0,0E0,0E0,0E0,0E0,0E0,0E0,0E0,0E0,0E0,0E0,0E0,0E0,0E0,0E0,0E0],"parents":[2147483647,0,0,1,1,2,2,3,3,4,4,5,5,6,6,7,7,8,8,9,9,10,10,11,11,12,12,13,13],"right_children":[2,4,6,8,10,12,14,16,18,20,22,24,26,28,-1,-1,-1,-1,-1,-1,-1,-1,-1,-1,-1,-1,-1,-1,-1],"split_conditions":[1.2585822E1,6.2585225E0,2.3861855E1,3.09E0,8.59674E0,1.7569246E1,2.952E1,1.11E0,4.91E0,1.16E0,1.208E1,1.6198505E1,2.01E0,2.127E1,2.0932332E-1,-8.3437406E-2,-5.3833198E-2,-4.0216528E-2,-2.8029714E-2,-1.979129E-2,-5.3968495E-3,3.5630444E-3,2.4651771E-2,3.300022E-2,5.2288886E-2,7.967365E-2,4.82564E-3,2.2325372E-2,1.2897527E-1],"split_indices":[21,20,20,11,20,26,11,11,11,17,11,21,15,11,0,0,0,0,0,0,0,0,0,0,0,0,0,0,0],"split_type":[0,0,0,0,0,0,0,0,0,0,0,0,0,0,0,0,0,0,0,0,0,0,0,0,0,0,0,0,0],"sum_hessian":[7.76E2,5.77E2,1.99E2,3.18E2,2.59E2,1.58E2,4.1E1,1.06E2,2.12E2,1.2E2,1.39E2,8.6E1,7.2E1,3.3E1,8E0,1.1E1,9.5E1,1.23E2,8.9E1,9.8E1,2.2E1,1.17E2,2.2E1,6.2E1,2.4E1,7.1E1,1E0,1E0,3.2E1],"tree_param":{"num_deleted":"0","num_feature":"60","num_nodes":"29","size_leaf_vector":"1"}},{"base_weights":[2.6324317E-2,-4.6684614E-1,1.4841325E0,-7.525834E-1,1.2620687E-2,1.0863715E0,2.7539036E0,-1.0172466E0,-5.830931E-1,-2.2029394E-1,1.927666E-1,7.7820456E-1,1.5139518E0,2.36452E0,2.0809464E-1,-7.0528306E-2,-4.689642E-2,-3.3988625E-2,-2.344026E-2,-1.6112246E-2,-4.9266727E-3,-6.6672503E-3,1.3787197E-2,3.102083E-2,4.856774E-2,4.9223576E-2,7.95556E-2,1.20388426E-1,2.1270467E-2],"categories":[],"categories_nodes":[],"categories_segments":[],"categories_sizes":[],"default_left":[0,0,0,0,0,0,0,0,0,0,0,0,0,0,0,0,0,0,0,0,0,0,0,0,0,0,0,0,0],"id":39,"left_children":[1,3,5,7,9,11,13,15,17,19,21,23,25,27,-1,-1,-1,-1,-1,-1,-1,-1,-1,-1,-1,-1,-1,-1,-1],"loss_changes":[5.2049225E2,7.412733E1,8.943518E1,1.4613647E1,8.560065E0,1.7400879E1,1.3733765E1,2.7638397E0,1.9906235E0,1.0730586E0,3.148654E0,1.9574089E0,8.031616E-1,1.994812E0,0E0,0E0,0E0,0E0,0E0,0E0,0E0,0E0,0E0,0E0,0E0,0E0,0E0,0E0,0E0],"parents":[2147483647,0,0,1,1,2,2,3,3,4,4,5,5,6,6,7,7,8,8,9,9,10,10,11,11,12,12,13,13],"right_children":[2,4,6,8,10,12,14,16,18,20,22,24,26,28,-1,-1,-1,-1,-1,-1,-1,-1,-1,-1,-1,-1,-1,-1,-1],"split_conditions":[1.3004261E1,7.080443E0,2.3510815E1,3.6847875E0,9.094275E0,1.8148464E1,3.0446476E1,1.3944808E0,5.274776E0,2.0736727E1,2.203272E1,3.6667E0,3.0057756E1,2.12E0,2.0809464E-1,-7.0528306E-2,-4.689642E-2,-3.3988625E-2,-2.344026E-2,-1.6112246E-2,-4.9266727E-3,-6.6672503E-3,1.3787197E-2,3.102083E-2,4.856774E-2,4.9223576E-2,7.95556E-2,1.20388426E-1,2.1270467E-2],"split_indices":[20,20,20,20,21,20,21,21,21,2,2,54,10,16,0,0,0,0,0,0,0,0,0,0,0,0,0,0,0],"split_type":[0,0,0,0,0,0,0,0,0,0,0,0,0,0,0,0,0,0,0,0,0,0,0,0,0,0,0,0,0],"sum_hessian":[7.22E2,5.4E2,1.82E2,3.38E2,2.02E2,1.4E2,4.2E1,1.3E2,2.08E2,8.8E1,1.14E2,8.3E1,5.7E1,3.5E1,7E0,1.9E1,1.11E2,1.1E2,9.8E1,4.7E1,4.1E1,2.3E1,9.1E1,4.8E1,3.5E1,9E0,4.8E1,3.4E1,1E0],"tree_param":{"num_deleted":"0","num_feature":"60","num_nodes":"29","size_leaf_vector":"1"}},{"base_weights":[3.0646215E-3,-4.2051056E-1,1.5204424E0,-7.04001E-1,8.395206E-2,1.1996102E0,2.6813285E0,-9.591173E-1,-5.298247E-1,-5.8376823E-2,3.5439596E-1,8.264546E-1,1.4699553E0,5.026558E-2,2.8594146E0,-7.4419E-2,-4.4844657E-2,-3.1275764E-2,-2.135459E-2,-7.1698553E-3,5.056947E-3,8.371975E-3,2.8430907E-2,2.6207631E-2,4.7319412E-2,6.518259E-2,9.256763E-2,1.2230535E-1,1.8967871E-1],"categories":[],"categories_nodes":[],"categories_segments":[],"categories_sizes":[],"default_left":[0,0,0,0,0,0,0,0,0,0,0,0,0,0,0,0,0,0,0,0,0,0,0,0,0,0,0,0,0],"id":40,"left_children":[1,3,5,7,9,11,13,15,17,19,21,23,25,-1,27,-1,-1,-1,-1,-1,-1,-1,-1,-1,-1,-1,-1,-1,-1],"loss_changes":[5.0067828E2,8.7152405E1,6.0099915E1,1.6821548E1,8.488924E0,1.2404053E1,7.8704834E0,3.835556E0,2.0332031E0,1.981004E0,2.9486074E0,1.6430664E0,2.4704285E0,0E0,3.075592E0,0E0,0E0,0E0,0E0,0E0,0E0,0E0,0E0,0E0,0E0,0E0,0E0,0E0,0E0],"parents":[2147483647,0,0,1,1,2,2,3,3,4,4,5,5,6,6,7,7,8,8,9,9,10,10,11,11,12,12,14,14],"right_children":[2,4,6,8,10,12,14,16,18,20,22,24,26,-1,28,-1,-1,-1,-1,-1,-1,-1,-1,-1,-1,-1,-1,-1,-1],"split_conditions":[1.37201605E1,7.4516797E0,2.488623E1,3.7705612E0,1.125E1,1.782E1,3.5405405E0,1.1828973E0,5.3408833E0,9.56184E0,3E-1,2.15E0,2.257E1,5.026558E-2,8.8281E0,-7.4419E-2,-4.4844657E-2,-3.1275764E-2,-2.135459E-2,-7.1698553E-3,5.056947E-3,8.371975E-3,2.8430907E-2,2.6207631E-2,4.7319412E-2,6.518259E-2,9.256763E-2,1.2230535E-1,1.8967871E-1],"split_indices":[26,26,26,26,11,11,1,21,26,26,32,30,11,0,52,0,0,0,0,0,0,0,0,0,0,0,0,0,0],"split_type":[0,0,0,0,0,0,0,0,0,0,0,0,0,0,0,0,0,0,0,0,0,0,0,0,0,0,0,0,0],"sum_hessian":[7.77E2,6.08E2,1.69E2,3.89E2,2.19E2,1.34E2,3.5E1,1.56E2,2.33E2,1.44E2,7.5E1,5.8E1,7.6E1,4E0,3.1E1,1.4E1,1.42E2,1.18E2,1.15E2,9.4E1,5E1,4.1E1,3.4E1,1.8E1,4E1,5.6E1,2E1,2.4E1,7E0],"tree_param":{"num_deleted":"0","num_feature":"60","num_nodes":"29","size_leaf_vector":"1"}},{"base_weights":[2.0415964E-2,-3.842036E-1,1.4505804E0,-6.50043E-1,1.11836776E-1,1.0700576E0,2.6029115E0,-8.5981214E-1,-4.7657746E-1,-4.265234E-2,3.9088494E-1,7.8262275E-1,1.3971453E0,2.1554003E0,1.9097035E-1,-4.878493E-2,-3.5770785E-2,-2.9244935E-2,-1.9443626E-2,-7.6850886E-3,3.21528E-3,3.2999884E-2,1.3082369E-2,3.1019313E-2,5.077046E-2,4.6063424E-3,7.0885144E-2,1.712799E-2,1.1006732E-1],"categories":[],"categories_nodes":[],"categories_segments":[],"categories_sizes":[],"default_left":[0,0,0,0,0,0,0,0,0,0,0,0,0,0,0,0,0,0,0,0,0,0,0,0,0,0,0,0,0],"id":41,"left_children":[1,3,5,7,9,11,13,15,17,19,21,23,25,27,-1,-1,-1,-1,-1,-1,-1,-1,-1,-1,-1,-1,-1,-1,-1],"loss_changes":[4.513432E2,8.024786E1,7.2634705E1,1.3999786E1,9.199081E0,1.1222717E1,1.4632233E1,2.2805328E0,1.8531189E0,1.648995E0,2.4705544E0,2.0892448E0,1.479065E0,1.9945831E0,0E0,0E0,0E0,0E0,0E0,0E0,0E0,0E0,0E0,0E0,0E0,0E0,0E0,0E0,0E0],"parents":[2147483647,0,0,1,1,2,2,3,3,4,4,5,5,6,6,7,7,8,8,9,9,10,10,11,11,12,12,13,13],"right_children":[2,4,6,8,10,12,14,16,18,20,22,24,26,28,-1,-1,-1,-1,-1,-1,-1,-1,-1,-1,-1,-1,-1,-1,-1],"split_conditions":[1.37201605E1,7.453736E0,2.3861855E1,4.170765E0,1.114E1,1.8148464E1,2.952E1,3.003609E0,5.3408833E0,9.069913E0,1.2042105E1,9.2E-1,2.3164804E0,2.127E1,1.9097035E-1,-4.878493E-2,-3.5770785E-2,-2.9244935E-2,-1.9443626E-2,-7.6850886E-3,3.21528E-3,3.2999884E-2,1.3082369E-2,3.1019313E-2,5.077046E-2,4.6063424E-3,7.0885144E-2,1.712799E-2,1.1006732E-1],"split_indices":[26,20,20,21,11,20,11,20,26,26,7,4,8,11,0,0,0,0,0,0,0,0,0,0,0,0,0,0,0],"split_type":[0,0,0,0,0,0,0,0,0,0,0,0,0,0,0,0,0,0,0,0,0,0,0,0,0,0,0,0,0],"sum_hessian":[7.78E2,6.07E2,1.71E2,3.95E2,2.12E2,1.3E2,4.1E1,1.77E2,2.18E2,1.37E2,7.5E1,7.1E1,5.9E1,3.2E1,9E0,9.5E1,8.2E1,9.5E1,1.23E2,6.7E1,7E1,2.3E1,5.2E1,4.4E1,2.7E1,1E0,5.8E1,1E0,3.1E1],"tree_param":{"num_deleted":"0","num_feature":"60","num_nodes":"29","size_leaf_vector":"1"}},{"base_weights":[2.5227938E-2,-3.9898324E-1,1.2591695E0,-6.5628487E-1,5.324101E-3,9.5687455E-1,2.467067E0,-8.3929914E-1,-4.865406E-1,-1.3917673E-1,2.045271E-1,7.307579E-1,1.3315698E0,2.0386274E0,1.8343426E-1,-5.905589E-2,-3.8985122E-2,-2.9357329E-2,-2.0936605E-2,1.1873326E-2,-8.61334E-3,6.459217E-3,2.7130915E-2,2.763587E-2,4.3642614E-2,9.046829E-2,5.985673E-2,7.059806E-2,1.1800515E-1],"categories":[],"categories_nodes":[],"categories_segments":[],"categories_sizes":[],"default_left":[0,0,0,0,0,0,0,0,0,0,0,0,0,0,0,0,0,0,0,0,0,0,0,0,0,0,0,0,0],"id":42,"left_children":[1,3,5,7,9,11,13,15,17,19,21,23,25,27,-1,-1,-1,-1,-1,-1,-1,-1,-1,-1,-1,-1,-1,-1,-1],"loss_changes":[4.051306E2,5.9924156E1,6.993729E1,1.0526749E1,6.50509E0,1.25829315E1,1.2598938E1,2.5014648E0,1.016201E0,1.6735804E0,2.349811E0,2.0980148E0,1.6236725E0,2.9128265E0,0E0,0E0,0E0,0E0,0E0,0E0,0E0,0E0,0E0,0E0,0E0,0E0,0E0,0E0,0E0],"parents":[2147483647,0,0,1,1,2,2,3,3,4,4,5,5,6,6,7,7,8,8,9,9,10,10,11,11,12,12,13,13],"right_children":[2,4,6,8,10,12,14,16,18,20,22,24,26,28,-1,-1,-1,-1,-1,-1,-1,-1,-1,-1,-1,-1,-1,-1,-1],"split_conditions":[1.3004261E1,6.84E0,2.488623E1,3.9493468E0,9.958125E0,1.8888184E1,2.952E1,1.3693647E0,4.942485E0,6.436208E0,3.3256E0,1.51114855E1,3.426E-1,1.5657895E0,1.8343426E-1,-5.905589E-2,-3.8985122E-2,-2.9357329E-2,-2.0936605E-2,1.1873326E-2,-8.61334E-3,6.459217E-3,2.7130915E-2,2.763587E-2,4.3642614E-2,9.046829E-2,5.985673E-2,7.059806E-2,1.1800515E-1],"split_indices":[20,11,26,26,20,20,11,20,20,7,54,26,55,3,0,0,0,0,0,0,0,0,0,0,0,0,0,0,0],"split_type":[0,0,0,0,0,0,0,0,0,0,0,0,0,0,0,0,0,0,0,0,0,0,0,0,0,0,0,0,0],"sum_hessian":[7.72E2,5.75E2,1.97E2,3.51E2,2.24E2,1.59E2,3.8E1,1.67E2,1.84E2,1.3E2,9.4E1,1.01E2,5.8E1,3E1,8E0,2.2E1,1.45E2,7.1E1,1.13E2,1E1,1.2E2,7.8E1,1.6E1,4.7E1,5.4E1,1E1,4.8E1,1.2E1,1.8E1],"tree_param":{"num_deleted":"0","num_feature":"60","num_nodes":"29","size_leaf_vector":"1"}},{"base_weights":[2.1302907E-2,-3.431648E-1,1.2831229E0,-6.0774946E-1,1.0567632E-1,9.57385E-1,2.0435667E0,-8.323634E-1,-4.4890228E-1,-5.6103706E-2,2.9814187E-1,6.5006936E-1,1.1453995E0,1.4738982E0,2.672994E0,-6.9294326E-2,-3.902281E-2,-2.5830278E-2,-1.4677114E-2,-9.900242E-3,2.9747165E-3,1.102215E-2,2.853316E-2,2.1867098E-2,4.267189E-2,2.1577535E-2,6.0060944E-2,4.379138E-2,8.121916E-2,1.00827865E-1,1.6028915E-1],"categories":[],"categories_nodes":[],"categories_segments":[],"categories_sizes":[],"default_left":[0,0,0,0,0,0,0,0,0,0,0,0,0,0,0,0,0,0,0,0,0,0,0,0,0,0,0,0,0,0,0],"id":43,"left_children":[1,3,5,7,9,11,13,15,17,19,21,23,25,27,29,-1,-1,-1,-1,-1,-1,-1,-1,-1,-1,-1,-1,-1,-1,-1,-1],"loss_changes":[3.5501755E2,7.1199356E1,4.0896576E1,1.3077438E1,6.9602966E0,6.36232E0,1.4347076E1,3.371811E0,2.1939507E0,2.0130064E0,2.034011E0,1.7465954E0,2.4701157E0,1.1873398E0,1.579422E0,0E0,0E0,0E0,0E0,0E0,0E0,0E0,0E0,0E0,0E0,0E0,0E0,0E0,0E0,0E0,0E0],"parents":[2147483647,0,0,1,1,2,2,3,3,4,4,5,5,6,6,7,7,8,8,9,9,10,10,11,11,12,12,13,13,14,14],"right_children":[2,4,6,8,10,12,14,16,18,20,22,24,26,28,30,-1,-1,-1,-1,-1,-1,-1,-1,-1,-1,-1,-1,-1,-1,-1,-1],"split_conditions":[1.37201605E1,7.3920484E0,5.371E0,3.7705612E0,1.0314008E1,3.7419E0,4.58E0,1.099282E0,1.8047316E1,2.1127806E1,2.75E0,1E-1,2E-2,1.79E0,4.85E-1,-6.9294326E-2,-3.902281E-2,-2.5830278E-2,-1.4677114E-2,-9.900242E-3,2.9747165E-3,1.102215E-2,2.853316E-2,2.1867098E-2,4.267189E-2,2.1577535E-2,6.0060944E-2,4.379138E-2,8.121916E-2,1.00827865E-1,1.6028915E-1],"split_indices":[26,26,54,26,26,54,30,26,2,2,30,34,36,17,19,0,0,0,0,0,0,0,0,0,0,0,0,0,0,0,0],"split_type":[0,0,0,0,0,0,0,0,0,0,0,0,0,0,0,0,0,0,0,0,0,0,0,0,0,0,0,0,0,0,0],"sum_hessian":[7.7E2,5.98E2,1.72E2,3.76E2,2.22E2,1.22E2,5E1,1.54E2,2.22E2,1.21E2,1.01E2,4.8E1,7.4E1,2.8E1,2.2E1,1.1E1,1.43E2,1.53E2,6.9E1,5.4E1,6.7E1,8E1,2.1E1,2.5E1,2.3E1,6E0,6.8E1,7E0,2.1E1,1.2E1,1E1],"tree_param":{"num_deleted":"0","num_feature":"60","num_nodes":"31","size_leaf_vector":"1"}},{"base_weights":[1.0683022E-2,-3.7100434E-1,1.1495975E0,-6.261093E-1,-4.651253E-2,8.6537343E-1,2.21329E0,-8.6524963E-1,-5.152252E-1,-2.1974535E-1,1.3420126E-1,6.2588835E-1,1.1689172E0,1.8890598E0,3.23355E0,-6.3399725E-2,-4.0513776E-2,-2.8901223E-2,-1.9430911E-2,-1.3020515E-2,2.0485376E-3,4.5498186E-3,2.1816483E-2,-1.1093498E-3,3.2479003E-2,4.3028083E-2,6.586445E-2,3.9640523E-2,1.0313528E-1,4.651661E-2,1.7148383E-1],"categories":[],"categories_nodes":[],"categories_segments":[],"categories_sizes":[],"default_left":[0,0,0,0,0,0,0,0,0,0,0,0,0,0,0,0,0,0,0,0,0,0,0,0,0,0,0,0,0,0,0],"id":44,"left_children":[1,3,5,7,9,11,13,15,17,19,21,23,25,27,29,-1,-1,-1,-1,-1,-1,-1,-1,-1,-1,-1,-1,-1,-1,-1,-1],"loss_changes":[3.2558902E2,4.6410164E1,5.492215E1,7.880501E0,7.7932687E0,1.01725235E1,6.7927856E0,1.1423492E0,1.5006981E0,1.3571243E0,1.5528133E0,1.334858E0,1.8402252E0,4.4561615E0,4.2303467E-1,0E0,0E0,0E0,0E0,0E0,0E0,0E0,0E0,0E0,0E0,0E0,0E0,0E0,0E0,0E0,0E0],"parents":[2147483647,0,0,1,1,2,2,3,3,4,4,5,5,6,6,7,7,8,8,9,9,10,10,11,11,12,12,13,13,14,14],"right_children":[2,4,6,8,10,12,14,16,18,20,22,24,26,28,30,-1,-1,-1,-1,-1,-1,-1,-1,-1,-1,-1,-1,-1,-1,-1,-1],"split_conditions":[1.3004261E1,6.2585225E0,2.488623E1,3.0339231E0,8.839891E0,1.83E1,8.8281E0,1.1166118E0,5.1559644E0,8.5E0,3.3256E0,4.2105263E-1,2.04E0,1.3448275E0,4.6666667E-1,-6.3399725E-2,-4.0513776E-2,-2.8901223E-2,-1.9430911E-2,-1.3020515E-2,2.0485376E-3,4.5498186E-3,2.1816483E-2,-1.1093498E-3,3.2479003E-2,4.3028083E-2,6.586445E-2,3.9640523E-2,1.0313528E-1,4.651661E-2,1.7148383E-1],"split_indices":[20,20,26,21,21,11,52,21,26,11,54,4,3,3,3,0,0,0,0,0,0,0,0,0,0,0,0,0,0,0,0],"split_type":[0,0,0,0,0,0,0,0,0,0,0,0,0,0,0,0,0,0,0,0,0,0,0,0,0,0,0,0,0,0,0],"sum_hessian":[7.47E2,5.6E2,1.87E2,3.13E2,2.47E2,1.49E2,3.8E1,9.7E1,2.16E2,1.26E2,1.21E2,8.5E1,6.4E1,3.1E1,7E0,9E0,8.8E1,1.42E2,7.4E1,1.09E2,1.7E1,1.07E2,1.4E1,3E0,8.2E1,2.3E1,4.1E1,5E0,2.6E1,1E0,6E0],"tree_param":{"num_deleted":"0","num_feature":"60","num_nodes":"31","size_leaf_vector":"1"}},{"base_weights":[2.2235718E-2,-3.5790634E-1,1.063387E0,-6.0078067E-1,-5.62511E-2,7.8914064E-1,2.006094E0,-8.2011306E-1,-4.9292764E-1,-2.1471237E-1,8.952729E-2,5.272057E-1,1.0935065E0,1.757132E0,1.686493E-1,-6.273622E-2,-3.7961718E-2,-2.8672105E-2,-2.0542279E-2,1.7578794E-2,-1.1844402E-2,8.248134E-5,1.1539422E-2,1.627566E-2,3.0489465E-2,4.9716573E-2,8.4964454E-2,5.8179494E-2,1.0274034E-1],"categories":[],"categories_nodes":[],"categories_segments":[],"categories_sizes":[],"default_left":[0,0,0,0,0,0,0,0,0,0,0,0,0,0,0,0,0,0,0,0,0,0,0,0,0,0,0,0,0],"id":45,"left_children":[1,3,5,7,9,11,13,15,17,19,21,23,25,27,-1,-1,-1,-1,-1,-1,-1,-1,-1,-1,-1,-1,-1,-1,-1],"loss_changes":[3.063227E2,4.1507065E1,5.1933456E1,7.0236206E0,5.88668E0,1.2338783E1,9.727188E0,1.7461395E0,1.1720772E0,1.6153378E0,1.6506413E0,1.2839336E0,2.756157E0,4.853035E0,0E0,0E0,0E0,0E0,0E0,0E0,0E0,0E0,0E0,0E0,0E0,0E0,0E0,0E0,0E0],"parents":[2147483647,0,0,1,1,2,2,3,3,4,4,5,5,6,6,7,7,8,8,9,9,10,10,11,11,12,12,13,13],"right_children":[2,4,6,8,10,12,14,16,18,20,22,24,26,28,-1,-1,-1,-1,-1,-1,-1,-1,-1,-1,-1,-1,-1,-1,-1],"split_conditions":[1.2592236E1,6.214322E0,4.4E0,3.05E0,8.844749E0,1.782E1,8.8281E0,1.11E0,4.5863624E0,4.835904E0,1.0960714E1,5.25E-2,2.6664171E1,2E0,1.686493E-1,-6.273622E-2,-3.7961718E-2,-2.8672105E-2,-2.0542279E-2,1.7578794E-2,-1.1844402E-2,8.248134E-5,1.1539422E-2,1.627566E-2,3.0489465E-2,4.9716573E-2,8.4964454E-2,5.8179494E-2,1.0274034E-1],"split_indices":[20,26,30,11,26,11,52,11,20,7,21,58,26,32,0,0,0,0,0,0,0,0,0,0,0,0,0,0,0],"split_type":[0,0,0,0,0,0,0,0,0,0,0,0,0,0,0,0,0,0,0,0,0,0,0,0,0,0,0,0,0],"sum_hessian":[7.72E2,5.66E2,2.06E2,3.13E2,2.53E2,1.61E2,4.5E1,1.01E2,2.12E2,1.21E2,1.32E2,8.8E1,7.3E1,4E1,5E0,1E1,9.1E1,1.04E2,1.08E2,4E0,1.17E2,8.2E1,5E1,2.7E1,6.1E1,6.5E1,8E0,1.5E1,2.5E1],"tree_param":{"num_deleted":"0","num_feature":"60","num_nodes":"29","size_leaf_vector":"1"}},{"base_weights":[1.871822E-2,-3.2354906E-1,1.0367824E0,-5.648533E-1,-2.6388962E-2,7.72984E-1,2.0594616E0,-7.876375E-1,-4.680196E-1,-1.9024545E-1,1.04431674E-1,5.786859E-1,1.0839312E0,1.8131665E0,1.4807718E-1,-5.865098E-2,-3.674468E-2,-2.7055332E-2,-1.920168E-2,-1.2383842E-2,-1.4079355E-3,2.7861323E-3,1.9043436E-2,2.630165E-2,5.263083E-2,6.8134785E-2,4.433404E-2,5.5478778E-2,9.934901E-2],"categories":[],"categories_nodes":[],"categories_segments":[],"categories_sizes":[],"default_left":[0,0,0,0,0,0,0,0,0,0,0,0,0,0,0,0,0,0,0,0,0,0,0,0,0,0,0,0,0],"id":46,"left_children":[1,3,5,7,9,11,13,15,17,19,21,23,25,27,-1,-1,-1,-1,-1,-1,-1,-1,-1,-1,-1,-1,-1,-1,-1],"loss_changes":[2.7421722E2,4.2219917E1,5.1824753E1,6.6426086E0,5.7003574E0,8.978958E0,3.5173492E0,1.1096344E0,1.1978645E0,1.0914717E0,1.9715941E0,1.9416695E0,2.0909042E0,1.9532852E0,0E0,0E0,0E0,0E0,0E0,0E0,0E0,0E0,0E0,0E0,0E0,0E0,0E0,0E0,0E0],"parents":[2147483647,0,0,1,1,2,2,3,3,4,4,5,5,6,6,7,7,8,8,9,9,10,10,11,11,12,12,13,13],"right_children":[2,4,6,8,10,12,14,16,18,20,22,24,26,28,-1,-1,-1,-1,-1,-1,-1,-1,-1,-1,-1,-1,-1,-1,-1],"split_conditions":[1.27882185E1,6.2585225E0,2.3861855E1,3.0406291E0,8.649031E0,1.8148464E1,3.221093E1,1.0225527E0,4.5863624E0,1.0588236E0,2.9586983E1,1.9260489E1,4.013E-1,2.6E0,1.4807718E-1,-5.865098E-2,-3.674468E-2,-2.7055332E-2,-1.920168E-2,-1.2383842E-2,-1.4079355E-3,2.7861323E-3,1.9043436E-2,2.630165E-2,5.263083E-2,6.8134785E-2,4.433404E-2,5.5478778E-2,9.934901E-2],"split_indices":[20,20,20,26,20,20,7,7,20,6,2,21,55,32,0,0,0,0,0,0,0,0,0,0,0,0,0,0,0],"split_type":[0,0,0,0,0,0,0,0,0,0,0,0,0,0,0,0,0,0,0,0,0,0,0,0,0,0,0,0,0],"sum_hessian":[7.85E2,5.88E2,1.97E2,3.24E2,2.64E2,1.58E2,3.9E1,9.6E1,2.28E2,1.17E2,1.47E2,9.9E1,5.9E1,3.3E1,6E0,9E0,8.7E1,1.19E2,1.09E2,8.6E1,3.1E1,1.26E2,2.1E1,9.1E1,8E0,2.2E1,3.7E1,8E0,2.5E1],"tree_param":{"num_deleted":"0","num_feature":"60","num_nodes":"29","size_leaf_vector":"1"}},{"base_weights":[1.6734296E-2,-2.8368992E-1,1.1309336E0,-4.9271426E-1,6.561447E-2,8.465002E-1,2.0281672E0,-6.5825474E-1,-3.5890776E-1,-8.263698E-2,1.8439795E-1,6.1799127E-1,1.1439662E0,1.6568925E0,1.6298725E-1,-4.4345435E-2,-2.9835185E-2,-2.0565953E-2,-1.3561532E-2,-6.9052256E-3,4.3471977E-3,5.345291E-3,2.021209E-2,3.586747E-2,1.3451219E-2,4.690702E-2,7.113667E-2,4.1610267E-2,9.272584E-2],"categories":[],"categories_nodes":[],"categories_segments":[],"categories_sizes":[],"default_left":[0,0,0,0,0,0,0,0,0,0,0,0,0,0,0,0,0,0,0,0,0,0,0,0,0,0,0,0,0],"id":47,"left_children":[1,3,5,7,9,11,13,15,17,19,21,23,25,27,-1,-1,-1,-1,-1,-1,-1,-1,-1,-1,-1,-1,-1,-1,-1],"loss_changes":[2.600732E2,4.4716366E1,4.039171E1,8.247345E0,4.0654974E0,7.925682E0,1.2431839E1,1.8633347E0,8.718262E-1,9.8084974E-1,2.1374135E0,2.372797E0,1.7636642E0,3.6719666E0,0E0,0E0,0E0,0E0,0E0,0E0,0E0,0E0,0E0,0E0,0E0,0E0,0E0,0E0,0E0],"parents":[2147483647,0,0,1,1,2,2,3,3,4,4,5,5,6,6,7,7,8,8,9,9,10,10,11,11,12,12,13,13],"right_children":[2,4,6,8,10,12,14,16,18,20,22,24,26,28,-1,-1,-1,-1,-1,-1,-1,-1,-1,-1,-1,-1,-1,-1,-1],"split_conditions":[1.37201605E1,7.3545575E0,4.48E0,3.9493468E0,9.601939E0,4.5846E0,8.8281E0,1.6476903E0,6.161503E0,2.8327658E0,2.6667E0,2.508E-1,2.260359E1,4.8491E0,1.6298725E-1,-4.4345435E-2,-2.9835185E-2,-2.0565953E-2,-1.3561532E-2,-6.9052256E-3,4.3471977E-3,5.345291E-3,2.021209E-2,3.586747E-2,1.3451219E-2,4.690702E-2,7.113667E-2,4.1610267E-2,9.272584E-2],"split_indices":[26,26,30,26,21,54,52,21,21,9,52,51,26,54,0,0,0,0,0,0,0,0,0,0,0,0,0,0,0],"split_type":[0,0,0,0,0,0,0,0,0,0,0,0,0,0,0,0,0,0,0,0,0,0,0,0,0,0,0,0,0],"sum_hessian":[7.75E2,6.11E2,1.64E2,3.82E2,2.29E2,1.26E2,3.8E1,1.69E2,2.13E2,1.02E2,1.27E2,7.3E1,5.3E1,3.1E1,7E0,3.3E1,1.36E2,1.31E2,8.2E1,7.7E1,2.5E1,9.5E1,3.2E1,5.6E1,1.7E1,3.3E1,2E1,7E0,2.4E1],"tree_param":{"num_deleted":"0","num_feature":"60","num_nodes":"29","size_leaf_vector":"1"}},{"base_weights":[2.7184643E-2,-2.80265E-1,1.0128809E0,-4.7209445E-1,6.6538036E-2,7.4092954E-1,1.8364434E0,-6.236035E-1,-3.28187E-1,-1.4357659E-1,1.5493189E-1,5.9452397E-1,1.0683873E0,1.5232025E0,2.780466E0,-4.7218528E-2,-2.9156629E-2,-1.736715E-2,-3.6302265E-3,-1.2248776E-2,1.017439E-3,5.2087614E-3,1.8068362E-2,2.499855E-2,3.9766505E-2,5.7347365E-2,1.7665148E-3,7.893802E-2,1.929064E-2,8.1891574E-2,1.6346253E-1],"categories":[],"categories_nodes":[],"categories_segments":[],"categories_sizes":[],"default_left":[0,0,0,0,0,0,0,0,0,0,0,0,0,0,0,0,0,0,0,0,0,0,0,0,0,0,0,0,0,0,0],"id":48,"left_children":[1,3,5,7,9,11,13,15,17,19,21,23,25,27,29,-1,-1,-1,-1,-1,-1,-1,-1,-1,-1,-1,-1,-1,-1,-1,-1],"loss_changes":[2.3454308E2,3.9282356E1,3.984961E1,8.080589E0,3.9411144E0,6.076645E0,9.071579E0,1.837944E0,9.3928146E-1,1.0521618E0,1.5235717E0,1.4820557E0,3.3680725E0,1.6657639E0,2.3053741E-1,0E0,0E0,0E0,0E0,0E0,0E0,0E0,0E0,0E0,0E0,0E0,0E0,0E0,0E0,0E0,0E0],"parents":[2147483647,0,0,1,1,2,2,3,3,4,4,5,5,6,6,7,7,8,8,9,9,10,10,11,11,12,12,13,13,14,14],"right_children":[2,4,6,8,10,12,14,16,18,20,22,24,26,28,30,-1,-1,-1,-1,-1,-1,-1,-1,-1,-1,-1,-1,-1,-1,-1,-1],"split_conditions":[1.36056185E1,7.3920484E0,2.3510815E1,4.312665E0,2.1127806E1,1.9820623E1,3.0446476E1,1.34E0,1.16E0,9.243396E0,2.9586983E1,2.0675676E0,2.517E-1,1.3059848E1,3.288889E0,-4.7218528E-2,-2.9156629E-2,-1.736715E-2,-3.6302265E-3,-1.2248776E-2,1.017439E-3,5.2087614E-3,1.8068362E-2,2.499855E-2,3.9766505E-2,5.7347365E-2,1.7665148E-3,7.893802E-2,1.929064E-2,8.1891574E-2,1.6346253E-1],"split_indices":[21,26,20,20,2,26,21,11,17,26,2,6,50,27,6,0,0,0,0,0,0,0,0,0,0,0,0,0,0,0,0],"split_type":[0,0,0,0,0,0,0,0,0,0,0,0,0,0,0,0,0,0,0,0,0,0,0,0,0,0,0,0,0,0,0],"sum_hessian":[7.72E2,5.89E2,1.83E2,3.79E2,2.1E2,1.39E2,4.4E1,1.83E2,1.96E2,6.2E1,1.48E2,9.8E1,4.1E1,3.5E1,9E0,1.8E1,1.65E2,1.82E2,1.4E1,3.8E1,2.4E1,1.2E2,2.8E1,6.9E1,2.9E1,3.8E1,3E0,3.3E1,2E0,4E0,5E0],"tree_param":{"num_deleted":"0","num_feature":"60","num_nodes":"31","size_leaf_vector":"1"}},{"base_weights":[1.5026673E-2,-2.5787166E-1,1.0031849E0,-4.4400367E-1,5.1047448E-2,7.55872E-1,1.7568479E0,-6.65554E-1,-3.5982722E-1,-5.0015315E-2,2.3185834E-1,5.143946E-1,9.649269E-1,1.5012419E0,1.3117835E-1,-5.2203294E-2,-3.093524E-2,-2.1991674E-2,-1.4553249E-2,-7.7286707E-3,1.0122906E-3,2.3531597E-2,3.242757E-3,1.1867816E-2,3.027979E-2,5.153213E-2,1.7161429E-2,7.2568893E-3,7.68969E-2],"categories":[],"categories_nodes":[],"categories_segments":[],"categories_sizes":[],"default_left":[0,0,0,0,0,0,0,0,0,0,0,0,0,0,0,0,0,0,0,0,0,0,0,0,0,0,0,0,0],"id":49,"left_children":[1,3,5,7,9,11,13,15,17,19,21,23,25,27,-1,-1,-1,-1,-1,-1,-1,-1,-1,-1,-1,-1,-1,-1,-1],"loss_changes":[2.1059872E2,3.5212513E1,3.0172058E1,6.884552E0,4.232717E0,6.015831E0,5.144478E0,1.1982613E0,1.4068718E0,1.0977386E0,3.2791815E0,1.4227638E0,2.4244156E0,1.4687424E0,0E0,0E0,0E0,0E0,0E0,0E0,0E0,0E0,0E0,0E0,0E0,0E0,0E0,0E0,0E0],"parents":[2147483647,0,0,1,1,2,2,3,3,4,4,5,5,6,6,7,7,8,8,9,9,10,10,11,11,12,12,13,13],"right_children":[2,4,6,8,10,12,14,16,18,20,22,24,26,28,-1,-1,-1,-1,-1,-1,-1,-1,-1,-1,-1,-1,-1,-1,-1],"split_conditions":[1.4066758E1,7.259602E0,2.3861855E1,3.15E0,1.093E1,4.2388E0,3.0446476E1,1.1193584E0,4.91E0,2.1257689E1,1.2272231E1,1.466E1,1.54E0,2.127E1,1.3117835E-1,-5.2203294E-2,-3.093524E-2,-2.1991674E-2,-1.4553249E-2,-7.7286707E-3,1.0122906E-3,2.3531597E-2,3.242757E-3,1.1867816E-2,3.027979E-2,5.153213E-2,1.7161429E-2,7.2568893E-3,7.68969E-2],"split_indices":[20,20,20,11,11,54,21,20,11,2,7,11,40,11,0,0,0,0,0,0,0,0,0,0,0,0,0,0,0],"split_type":[0,0,0,0,0,0,0,0,0,0,0,0,0,0,0,0,0,0,0,0,0,0,0,0,0,0,0,0,0],"sum_hessian":[7.79E2,6.11E2,1.68E2,3.81E2,2.3E2,1.28E2,4E1,1.03E2,2.78E2,1.48E2,8.2E1,6.1E1,6.7E1,3.3E1,7E0,9E0,9.4E1,1.26E2,1.52E2,5.9E1,8.9E1,3.3E1,4.9E1,1.6E1,4.5E1,6E1,7E0,1E0,3.2E1],"tree_param":{"num_deleted":"0","num_feature":"60","num_nodes":"29","size_leaf_vector":"1"}},{"base_weights":[7.897854E-3,-2.1545228E-1,1.0970986E0,-3.9322397E-1,1.6119008E-1,7.971736E-1,1.776483E0,-5.465136E-1,-2.5175986E-1,2.4317287E-2,3.0898803E-1,5.9415746E-1,9.7089344E-1,1.43558E0,2.621544E0,-3.586177E-2,-2.4057189E-2,-1.4252096E-2,-3.9799977E-3,1.688148E-5,1.426958E-2,2.6029691E-2,1.1059296E-2,7.941702E-3,3.419943E-2,2.8154735E-2,5.4559242E-2,3.3869866E-2,7.984504E-2,6.234851E-2,1.5162542E-1],"categories":[],"categories_nodes":[],"categories_segments":[],"categories_sizes":[],"default_left":[0,0,0,0,0,0,0,0,0,0,0,0,0,0,0,0,0,0,0,0,0,0,0,0,0,0,0,0,0,0,0],"id":50,"left_children":[1,3,5,7,9,11,13,15,17,19,21,23,25,27,29,-1,-1,-1,-1,-1,-1,-1,-1,-1,-1,-1,-1,-1,-1,-1,-1],"loss_changes":[1.8585378E2,4.2513702E1,2.5073196E1,9.208641E0,4.119309E0,2.6677895E0,7.4718475E0,1.9538765E0,1.2722559E0,6.697742E-1,1.705636E0,1.6511145E0,1.740181E0,2.5875778E0,1.867569E0,0E0,0E0,0E0,0E0,0E0,0E0,0E0,0E0,0E0,0E0,0E0,0E0,0E0,0E0,0E0,0E0],"parents":[2147483647,0,0,1,1,2,2,3,3,4,4,5,5,6,6,7,7,8,8,9,9,10,10,11,11,12,12,13,13,14,14],"right_children":[2,4,6,8,10,12,14,16,18,20,22,24,26,28,30,-1,-1,-1,-1,-1,-1,-1,-1,-1,-1,-1,-1,-1,-1,-1,-1],"split_conditions":[1.5834021E1,8.555584E0,2.488623E1,4.5289783E0,1.1171391E1,1.9054512E1,8.8281E0,2.24E0,1.05E0,1.1719041E1,1.1944676E1,4.35E-1,1.91E0,1.4411764E0,3.37E0,-3.586177E-2,-2.4057189E-2,-1.4252096E-2,-3.9799977E-3,1.688148E-5,1.426958E-2,2.6029691E-2,1.1059296E-2,7.941702E-3,3.419943E-2,2.8154735E-2,5.4559242E-2,3.3869866E-2,7.984504E-2,6.234851E-2,1.5162542E-1],"split_indices":[26,26,26,21,21,20,52,11,17,20,7,19,17,3,17,0,0,0,0,0,0,0,0,0,0,0,0,0,0,0,0],"split_type":[0,0,0,0,0,0,0,0,0,0,0,0,0,0,0,0,0,0,0,0,0,0,0,0,0,0,0,0,0,0,0],"sum_hessian":[7.62E2,6.33E2,1.29E2,4.3E2,2.03E2,9.1E1,3.8E1,2.05E2,2.25E2,1.06E2,9.7E1,4.4E1,4.7E1,2.9E1,9E0,5.4E1,1.51E2,1.88E2,3.7E1,9.8E1,8E0,2.7E1,7E1,8E0,3.6E1,1.2E1,3.5E1,6E0,2.3E1,3E0,6E0],"tree_param":{"num_deleted":"0","num_feature":"60","num_nodes":"31","size_leaf_vector":"1"}},{"base_weights":[2.943135E-3,-2.658801E-1,7.55104E-1,-4.0834418E-1,1.7456574E-2,5.0682056E-1,1.3115741E0,-6.1773336E-1,-3.328518E-1,-1.1510271E-1,8.83687E-2,3.3946964E-1,7.1728194E-1,1.1328039E0,1.9620494E0,-5.1800538E-2,-2.8980393E-2,-2.008192E-2,-1.3109617E-2,-1.6535504E-2,-3.797225E-3,1.7597016E-2,2.9924577E-3,9.280692E-3,2.3555933E-2,1.2284326E-2,3.963643E-2,3.930911E-2,6.7461655E-2,1.0172551E-1,2.9124498E-2],"categories":[],"categories_nodes":[],"categories_segments":[],"categories_sizes":[],"default_left":[0,0,0,0,0,0,0,0,0,0,0,0,0,0,0,0,0,0,0,0,0,0,0,0,0,0,0,0,0,0,0],"id":51,"left_children":[1,3,5,7,9,11,13,15,17,19,21,23,25,27,29,-1,-1,-1,-1,-1,-1,-1,-1,-1,-1,-1,-1,-1,-1,-1,-1],"loss_changes":[1.5589348E2,2.293462E1,2.7382225E1,5.7695465E0,1.805583E0,4.7578735E0,4.9870834E0,9.782791E-1,1.2556114E0,5.40552E-1,9.1855454E-1,1.5532055E0,2.0112133E0,2.7652283E0,1.4492035E-2,0E0,0E0,0E0,0E0,0E0,0E0,0E0,0E0,0E0,0E0,0E0,0E0,0E0,0E0,0E0,0E0],"parents":[2147483647,0,0,1,1,2,2,3,3,4,4,5,5,6,6,7,7,8,8,9,9,10,10,11,11,12,12,13,13,14,14],"right_children":[2,4,6,8,10,12,14,16,18,20,22,24,26,28,30,-1,-1,-1,-1,-1,-1,-1,-1,-1,-1,-1,-1,-1,-1,-1,-1],"split_conditions":[1.2797399E1,7.4510336E0,2.1576277E1,3.05E0,2.1257689E1,3.7419E0,6.3E0,9.3E-1,4.963813E0,1.1594203E-1,2.36E0,1E-1,2.9438871E1,1.98E0,5.65E-1,-5.1800538E-2,-2.8980393E-2,-2.008192E-2,-1.3109617E-2,-1.6535504E-2,-3.797225E-3,1.7597016E-2,2.9924577E-3,9.280692E-3,2.3555933E-2,1.2284326E-2,3.963643E-2,3.930911E-2,6.7461655E-2,1.0172551E-1,2.9124498E-2],"split_indices":[26,21,21,11,2,54,32,11,21,5,37,34,2,14,19,0,0,0,0,0,0,0,0,0,0,0,0,0,0,0,0],"split_type":[0,0,0,0,0,0,0,0,0,0,0,0,0,0,0,0,0,0,0,0,0,0,0,0,0,0,0,0,0,0,0],"sum_hessian":[7.69E2,5.67E2,2.02E2,3.77E2,1.9E2,1.41E2,6.1E1,9.8E1,2.79E2,6.6E1,1.24E2,8E1,6.1E1,5E1,1.1E1,6E0,9.2E1,1.39E2,1.4E2,9E0,5.7E1,1.1E1,1.13E2,3.8E1,4.2E1,9E0,5.2E1,2.1E1,2.9E1,1E1,1E0],"tree_param":{"num_deleted":"0","num_feature":"60","num_nodes":"31","size_leaf_vector":"1"}},{"base_weights":[7.848272E-3,-2.1434829E-1,9.596373E-1,-3.8259777E-1,7.883658E-2,8.434983E-1,2.4780054E0,-5.9879375E-1,-3.1022212E-1,-9.449959E-3,2.3744074E-1,5.6936246E-1,1.2055577E0,4.7319543E-2,1.3713051E-1,-5.0978243E-2,-2.7556136E-2,-1.8947748E-2,-1.0702115E-2,-2.6974306E-3,6.3954704E-3,1.55753745E-2,-1.4221217E-3,1.7006798E-2,3.4876615E-2,3.2843772E-2,6.52064E-2],"categories":[],"categories_nodes":[],"categories_segments":[],"categories_sizes":[],"default_left":[0,0,0,0,0,0,0,0,0,0,0,0,0,0,0,0,0,0,0,0,0,0,0,0,0,0,0],"id":52,"left_children":[1,3,5,7,9,11,13,15,17,19,21,23,25,-1,-1,-1,-1,-1,-1,-1,-1,-1,-1,-1,-1,-1,-1],"loss_changes":[1.653749E2,3.1304243E1,2.4008392E1,6.1201134E0,3.2508502E0,1.3109825E1,1.4571419E0,1.4439545E0,1.9285412E0,9.237465E-1,1.6433878E0,2.1425152E0,2.3342896E0,0E0,0E0,0E0,0E0,0E0,0E0,0E0,0E0,0E0,0E0,0E0,0E0,0E0,0E0],"parents":[2147483647,0,0,1,1,2,2,3,3,4,4,5,5,6,6,7,7,8,8,9,9,10,10,11,11,12,12],"right_children":[2,4,6,8,10,12,14,16,18,20,22,24,26,-1,-1,-1,-1,-1,-1,-1,-1,-1,-1,-1,-1,-1,-1],"split_conditions":[1.4897314E1,7.6044507E0,2.952E1,3.1011708E0,1.1331087E1,2.1167057E1,8.604651E-1,9.3720746E-1,5.3408833E0,3.01E0,1.431998E1,-8E-1,4.6333E0,4.7319543E-2,1.3713051E-1,-5.0978243E-2,-2.7556136E-2,-1.8947748E-2,-1.0702115E-2,-2.6974306E-3,6.3954704E-3,1.55753745E-2,-1.4221217E-3,1.7006798E-2,3.4876615E-2,3.2843772E-2,6.52064E-2],"split_indices":[21,26,11,21,21,26,3,7,26,13,7,41,54,0,0,0,0,0,0,0,0,0,0,0,0,0,0],"split_type":[0,0,0,0,0,0,0,0,0,0,0,0,0,0,0,0,0,0,0,0,0,0,0,0,0,0,0],"sum_hessian":[7.8E2,6.33E2,1.47E2,4.02E2,2.31E2,1.38E2,9E0,9.9E1,3.03E2,1.49E2,8.2E1,8E1,5.8E1,2E0,7E0,8E0,9.1E1,1.75E2,1.28E2,1.13E2,3.6E1,6.4E1,1.8E1,3E1,5E1,1E1,4.8E1],"tree_param":{"num_deleted":"0","num_feature":"60","num_nodes":"27","size_leaf_vector":"1"}},{"base_weights":[1.664923E-2,-2.2660963E-1,7.870981E-1,-4.0302104E-1,-2.2874124E-2,5.86181E-1,1.5007683E0,-5.7284474E-1,-3.354109E-1,-1.456572E-1,7.4378334E-2,4.0612543E-1,8.1695056E-1,7.11132E-1,1.7757638E0,-4.823061E-2,-2.6620764E-2,-1.91643E-2,-1.35945305E-2,-3.3511606E-3,-1.04016755E-2,1.0714303E-3,1.14302505E-2,9.291069E-3,2.5647962E-2,5.768588E-2,3.4383755E-2,4.474972E-2,1.3736287E-2,7.454892E-2,1.1684765E-1],"categories":[],"categories_nodes":[],"categories_segments":[],"categories_sizes":[],"default_left":[0,0,0,0,0,0,0,0,0,0,0,0,0,0,0,0,0,0,0,0,0,0,0,0,0,0,0,0,0,0,0],"id":53,"left_children":[1,3,5,7,9,11,13,15,17,19,21,23,25,27,29,-1,-1,-1,-1,-1,-1,-1,-1,-1,-1,-1,-1,-1,-1,-1,-1],"loss_changes":[1.4449062E2,2.1052366E1,2.5647171E1,3.413147E0,3.2707143E0,5.7347107E0,7.4230576E0,8.8025284E-1,5.8610344E-1,5.7954955E-1,1.2445393E0,1.8816986E0,1.9493675E0,7.1698666E-1,1.1503906E0,0E0,0E0,0E0,0E0,0E0,0E0,0E0,0E0,0E0,0E0,0E0,0E0,0E0,0E0,0E0,0E0],"parents":[2147483647,0,0,1,1,2,2,3,3,4,4,5,5,6,6,7,7,8,8,9,9,10,10,11,11,12,12,13,13,14,14],"right_children":[2,4,6,8,10,12,14,16,18,20,